%YAML:1.0
---
opencv_ml_svm:
   format: 3
   svmType: C_SVC
   kernel:
      type: RBF
      gamma: 3.3750000000000002e-02
   C: 1.2500000000000000e+01
   term_criteria: { epsilon:1.1920928955078125e-07, iterations:1000 }
   var_count: 144
   class_count: 16
   class_labels: !!opencv-matrix
      rows: 16
      cols: 1
      dt: i
      data: [ 0, 1, 2, 3, 4, 5, 6, 7, 8, 9, 10, 11, 12, 13, 14, 15 ]
   sv_total: 1034
   support_vectors:
      - [ 6.95780694e-01, 1.36668861e-01, 7.84508064e-02, 0., 0., 0., 0.,
          0., 6.95780694e-01, 7.04383910e-01, 0., 0., 0., 2.55980920e-02,
          0., 0., 0., 7.04383910e-01, 6.62693799e-01, 0., 0., 0.,
          3.28663230e-01, 0., 0., 8.38953182e-02, 6.62693799e-01,
          5.21904409e-01, 0., 0., 0., 5.07274978e-02, 0., 4.18403924e-01,
          5.21904409e-01, 5.21904409e-01, 3.74097735e-01, 7.72526339e-02,
          1.69309244e-01, 1.70025945e-01, 8.13097954e-01, 0., 0., 0.,
          3.56743038e-01, 3.87450188e-01, 1.24762081e-01, 4.20960516e-01,
          4.18553531e-01, 4.20960516e-01, 3.50010544e-01, 1.62696451e-01,
          3.76013778e-02, 3.87450188e-01, 3.93334240e-01, 2.83411860e-01,
          3.29272687e-01, 3.79628062e-01, 3.93334240e-01, 3.93334240e-01,
          2.03983590e-01, 5.24754375e-02, 3.93334240e-01, 1.98985219e-01,
          1.89383999e-01, 3.55704129e-01, 1.42076582e-01, 1.74994737e-01,
          0., 5.23766518e-01, 5.23766518e-01, 4.39671308e-01, 0., 0.,
          1.26290107e-02, 8.85963440e-02, 9.91012394e-01, 0., 0., 0., 0.,
          1.16944671e-01, 4.90664870e-01, 4.90664870e-01, 4.90664870e-01,
          4.90664870e-01, 3.92997824e-02, 5.41561581e-02, 1.61847230e-02,
          1.16944671e-01, 4.33250427e-01, 2.10020542e-01, 4.33250427e-01,
          4.33250427e-01, 4.33250427e-01, 9.52120870e-02, 6.09822422e-02,
          1.58034042e-02, 4.33250427e-01, 3.91725034e-01, 9.04152915e-02,
          2.09839895e-01, 1.57164365e-01, 3.91725034e-01, 3.89789492e-01,
          3.91725034e-01, 3.91725034e-01, 3.91725034e-01, 0., 0., 0., 0.,
          0., 0., 0., 0., 0., 0., 1.17859028e-01, 5.71664512e-01,
          5.71664512e-01, 5.71664512e-01, 0., 0., 0., 0., 0.,
          2.23266587e-01, 5.47938287e-01, 5.47938287e-01, 5.47938287e-01,
          2.07594365e-01, 2.95915827e-02, 0., 0., 1.95957348e-02,
          7.67391622e-02, 2.95802563e-01, 4.60099101e-01, 5.56074083e-01,
          5.56074083e-01, 2.61123121e-01, 3.68439071e-02, 3.16906646e-02 ]
      - [ 5.75688422e-01, 5.75688422e-01, 0., 0., 0., 0., 0., 0.,
          5.75688422e-01, 5.75688422e-01, 5.75688422e-01, 0., 0., 0., 0.,
          0., 0., 5.75688422e-01, 6.52425468e-01, 3.66624206e-01, 0., 0.,
          0., 0., 0., 8.80624503e-02, 6.52425468e-01, 5.75688422e-01, 0.,
          0., 0., 0., 0., 0., 5.75688422e-01, 5.75688422e-01,
          5.68865538e-01, 5.68865538e-01, 1.93328690e-02, 0.,
          1.52057976e-01, 0., 0., 0., 5.68865538e-01, 5.06247461e-01,
          5.06247461e-01, 0., 0., 4.10939813e-01, 9.38350186e-02,
          2.00060964e-01, 9.15621892e-02, 5.06247461e-01, 4.13893551e-01,
          1.31781891e-01, 5.77355251e-02, 4.05032218e-01, 4.13893551e-01,
          4.13893551e-01, 3.17993045e-01, 1.57363951e-01, 4.13893551e-01,
          3.65937442e-01, 1.74357146e-01, 3.65937442e-01, 3.65937442e-01,
          3.65937442e-01, 1.69032633e-01, 3.65937442e-01, 3.65937442e-01,
          3.65937442e-01, 1.47667304e-01, 2.91524589e-01, 2.87512094e-01,
          2.60751277e-01, 5.64145088e-01, 5.64145088e-01, 3.16046894e-01,
          0., 2.26940922e-02, 5.49041368e-02, 2.28324413e-01,
          4.83926773e-01, 4.83926773e-01, 4.83926773e-01, 3.26509804e-01,
          3.02680522e-01, 1.68196425e-01, 1.04645044e-01, 3.99892449e-01,
          7.47347102e-02, 7.29604959e-02, 3.26402128e-01, 3.99892449e-01,
          3.99892449e-01, 3.08662921e-01, 3.78984749e-01, 3.99892449e-01,
          3.62644047e-01, 3.62644047e-01, 3.62644047e-01, 3.62644047e-01,
          1.62403151e-01, 3.62644047e-01, 3.62644047e-01, 2.22322404e-01,
          3.62644047e-01, 0., 4.02509347e-02, 1.52096018e-01,
          2.19882026e-01, 6.53827190e-01, 6.53827190e-01, 2.55716503e-01,
          0., 0., 6.88199839e-03, 6.33723438e-02, 5.73807955e-01,
          5.73807955e-01, 5.73780298e-01, 4.87472937e-02, 6.94869366e-03,
          0., 6.88199839e-03, 7.86954537e-02, 9.72062931e-04,
          2.88382500e-01, 6.62272871e-01, 6.62272871e-01, 1.42180935e-01,
          2.02672109e-02, 0., 7.86954537e-02, 3.72643508e-02, 0.,
          7.61231128e-03, 5.34026697e-02, 5.70508897e-01, 5.70508897e-01,
          5.70508897e-01, 1.10340439e-01, 3.72643508e-02 ]
      - [ 0., 0., 0., 0., 0., 0., 0., 0., 0., 5.75688422e-01,
          5.75688422e-01, 0., 0., 0., 0., 0., 0., 5.75688422e-01,
          5.75688422e-01, 5.75688422e-01, 0., 0., 0., 0., 0., 0.,
          5.75688422e-01, 5.75688422e-01, 5.75688422e-01, 0., 0., 0., 0.,
          0., 0., 5.75688422e-01, 5.75688422e-01, 5.75688422e-01, 0., 0.,
          0., 0., 0., 0., 5.75688422e-01, 5.75554371e-01, 5.75554371e-01,
          0., 0., 2.15449315e-02, 0., 0., 0., 5.75554371e-01,
          4.60762948e-01, 4.60762948e-01, 0., 0., 4.12815511e-01,
          4.29334462e-01, 6.11995757e-02, 0., 4.60762948e-01,
          3.97734672e-01, 3.97734672e-01, 3.50650042e-01, 3.97734672e-01,
          3.97734672e-01, 3.97734672e-01, 9.56490636e-02, 0.,
          2.70107478e-01, 4.05534238e-01, 4.05534238e-01, 4.05534238e-01,
          5.96447811e-02, 4.05534238e-01, 4.05534238e-01, 7.51215592e-02,
          0., 4.05534238e-01, 4.26243454e-01, 3.38914871e-01, 0., 0.,
          5.42295396e-01, 5.42295396e-01, 2.45518610e-01, 0.,
          2.22687513e-01, 2.55603381e-02, 7.99342394e-02, 2.00565338e-01,
          0., 6.39693677e-01, 6.39693677e-01, 3.57231885e-01, 0.,
          1.77048743e-02, 4.10541862e-01, 4.14583266e-01, 4.14583266e-01,
          3.66477132e-01, 4.14583266e-01, 4.14583266e-01, 7.41028935e-02,
          0., 0., 1.44067360e-02, 1.53216824e-01, 4.39748287e-01,
          3.65204006e-01, 5.37467897e-01, 5.37467897e-01, 2.57785767e-01,
          0., 0., 0., 0., 0., 0., 6.80090606e-01, 6.80090606e-01,
          2.61082977e-01, 0., 0., 0., 4.22167122e-01, 5.12589991e-01, 0.,
          5.12589991e-01, 5.12589991e-01, 1.68553084e-01, 0., 0.,
          2.61763688e-02, 3.91085386e-01, 5.29490113e-01, 5.29490113e-01,
          5.29490113e-01, 0., 0., 0., 0. ]
      - [ 4.96440232e-01, 4.96440232e-01, 4.96440232e-01, 0.,
          7.24998340e-02, 6.24076054e-02, 8.89590476e-03, 0.,
          4.96440232e-01, 5.68455756e-01, 1.84835047e-01, 3.28305624e-02,
          1.28800958e-01, 4.47661012e-01, 6.77055269e-02, 9.65109840e-03,
          3.01878363e-01, 5.68455756e-01, 5.66142321e-01, 0.,
          1.57306506e-03, 1.10355280e-02, 1.80751234e-01, 0., 0.,
          5.66142321e-01, 5.66142321e-01, 6.89518631e-01, 0., 0., 0., 0.,
          0., 0., 2.05535486e-01, 6.89518631e-01, 3.95441294e-01,
          3.95441294e-01, 3.95441294e-01, 0., 1.26558229e-01,
          3.95441294e-01, 3.95441294e-01, 3.67845595e-01, 2.50704736e-01,
          2.91509658e-01, 2.01787129e-02, 8.84639993e-02, 4.28276539e-01,
          4.28276539e-01, 4.28276539e-01, 4.28276539e-01, 2.27219895e-01,
          3.42343092e-01, 2.66260982e-01, 0., 1.76575780e-01,
          6.32088423e-01, 6.32088423e-01, 0., 2.38879640e-02,
          5.97017668e-02, 2.97336131e-01, 3.49078834e-01, 0.,
          1.35605901e-01, 5.94748974e-01, 5.94748974e-01, 0., 0.,
          5.02513684e-02, 3.79260421e-01, 3.83454502e-01, 1.19805381e-01,
          3.30782682e-01, 3.87575239e-01, 2.17285529e-01, 3.87575239e-01,
          3.87575239e-01, 2.77936697e-01, 3.87575239e-01, 4.68453258e-01,
          0., 1.29024859e-03, 9.05148406e-03, 9.02645364e-02,
          4.68453258e-01, 4.68453258e-01, 3.30599219e-01, 4.68453258e-01,
          6.39876053e-02, 0., 8.08630884e-02, 5.30585229e-01,
          5.30585229e-01, 3.01344037e-01, 5.30585229e-01, 2.11194769e-01,
          6.39876053e-02, 0., 0., 1.56701818e-01, 6.95879936e-01,
          6.95879936e-01, 0., 0., 0., 0., 0., 0., 2.38785908e-01,
          5.46315134e-01, 5.46315134e-01, 5.46315134e-01, 2.05292627e-01,
          0., 0., 0., 0., 0., 0., 4.00153041e-01, 7.57849276e-01,
          5.07915318e-01, 0., 0., 0., 0., 0., 0., 0., 9.81377661e-01,
          1.39890686e-01, 0., 0., 0., 0., 0., 0., 0., 0., 0., 0., 0. ]
      - [ 5.68662882e-01, 5.68662882e-01, 1.96161512e-02, 0.,
          1.54286072e-01, 0., 0., 0., 5.68662882e-01, 5.74743927e-01,
          2.20083013e-01, 0., 0., 2.00832084e-01, 0., 0., 4.94802654e-01,
          5.74743927e-01, 6.25516534e-01, 2.68751770e-01, 0., 0.,
          3.70488495e-01, 0., 0., 4.15153317e-02, 6.25516534e-01,
          5.64599156e-01, 0., 0., 0., 1.91513807e-01, 0., 3.69839631e-02,
          5.64599156e-01, 5.64599156e-01, 3.74476880e-01, 3.03522468e-01,
          3.26373696e-01, 1.07353292e-01, 3.74476880e-01, 3.74476880e-01,
          3.74476880e-01, 2.93803990e-01, 3.72606665e-01, 3.53840739e-01,
          3.56131285e-01, 3.56131285e-01, 3.56131285e-01, 3.56131285e-01,
          3.21598917e-01, 3.56131285e-01, 2.08855495e-01, 3.00074548e-01,
          3.91459882e-01, 7.30960444e-02, 1.04478762e-01, 8.97507295e-02,
          4.32620823e-01, 4.06613111e-01, 4.32620823e-01, 3.02170843e-01,
          4.32620823e-01, 2.80958027e-01, 3.64781708e-01, 3.64781708e-01,
          3.64781708e-01, 3.64781708e-01, 0., 3.64781708e-01,
          3.64781708e-01, 3.44998628e-01, 3.87995005e-01, 1.10455059e-01,
          3.24335396e-01, 3.87995005e-01, 3.87995005e-01, 2.54501700e-01,
          3.08802009e-01, 3.41232836e-01, 3.87995005e-01, 3.89066428e-01,
          3.88155222e-01, 3.89066428e-01, 1.92211121e-01, 3.89066428e-01,
          3.60793501e-01, 2.33885244e-01, 1.34679437e-01, 3.89066428e-01,
          4.97743040e-01, 6.98674098e-02, 7.63530731e-02, 1.81079254e-01,
          4.97743040e-01, 7.81821012e-02, 2.98716635e-01, 3.36064577e-01,
          4.97743040e-01, 3.80247086e-01, 3.42228502e-01, 3.80247086e-01,
          4.50620055e-02, 3.80247086e-01, 3.80247086e-01, 3.80247086e-01,
          9.75865200e-02, 3.80247086e-01, 0., 0., 1.32068276e-01,
          6.98421836e-01, 6.98421836e-01, 0., 0., 0., 0., 0., 0.,
          3.47783789e-02, 2.43980885e-01, 7.90175259e-01, 5.48531651e-01,
          7.81905577e-02, 0., 0., 0., 0., 4.25919481e-02, 2.98795432e-01,
          9.47250485e-01, 4.61563542e-02, 6.57936744e-03, 0., 0., 0., 0.,
          0., 0., 6.89716101e-01, 6.89716101e-01, 2.04201624e-01, 0., 0. ]
      - [ 5.00453591e-01, 1.63901433e-01, 1.39828220e-01, 0.,
          1.08614825e-01, 1.02824345e-01, 4.18156207e-01, 5.00453591e-01,
          5.00453591e-01, 4.22110140e-01, 0., 0., 0., 4.44837101e-02,
          1.61436021e-01, 5.12725413e-01, 5.12725413e-01, 5.12725413e-01,
          0., 0., 0., 0., 0., 0., 0., 0., 0., 7.04615593e-01, 0., 0., 0.,
          0., 0., 0., 0., 7.04615593e-01, 3.04581523e-01, 1.39494225e-01,
          3.01420927e-01, 0., 3.98230761e-01, 3.98230761e-01,
          3.98230761e-01, 3.98230761e-01, 3.98230761e-01, 4.46594954e-01,
          4.46594954e-01, 0., 0., 2.33110115e-01, 2.71365911e-01,
          4.46594954e-01, 2.64142066e-01, 4.46594954e-01, 5.75688422e-01,
          5.75688422e-01, 0., 0., 0., 0., 0., 0., 5.75688422e-01,
          5.92406154e-01, 4.47845876e-01, 0., 0., 0., 0., 2.87168831e-01,
          9.57229584e-02, 5.92406154e-01, 3.68533283e-01, 1.80475503e-01,
          3.68533283e-01, 1.90692514e-01, 3.68533283e-01, 3.35383832e-01,
          3.68533283e-01, 3.68533283e-01, 3.68533283e-01, 4.44462121e-01,
          4.44462121e-01, 0., 0., 4.44462121e-01, 4.44462121e-01,
          8.53908360e-02, 2.31474433e-02, 4.44462121e-01, 5.00971675e-01,
          2.30041981e-01, 0., 0., 5.00971675e-01, 5.00971675e-01,
          9.98713821e-02, 0., 4.23302680e-01, 2.84033000e-01,
          3.53547819e-02, 0., 0., 5.94171882e-01, 5.94171882e-01,
          3.59038800e-01, 8.99458528e-02, 2.62798548e-01, 0.,
          1.15935253e-02, 1.20801635e-01, 5.62044501e-01, 5.62044501e-01,
          5.62044501e-01, 1.78823993e-01, 0., 0., 0., 0., 0., 0.,
          6.96907759e-01, 6.96907759e-01, 1.47248715e-01, 0., 0., 0., 0.,
          0., 0., 7.00444400e-01, 7.00444400e-01, 1.08458064e-01, 0., 0.,
          0., 0., 0., 0., 7.00664401e-01, 7.00664401e-01, 1.05566971e-01,
          0., 0. ]
      - [ 0., 0., 0., 0., 0., 0., 0., 0., 0., 0., 0., 0., 0., 0., 0., 0.,
          0., 0., 0., 5.75688422e-01, 5.75688422e-01, 5.75688422e-01, 0.,
          0., 0., 0., 0., 0., 5.75688422e-01, 5.75688422e-01,
          5.75688422e-01, 0., 0., 0., 0., 0., 0., 0., 0., 0., 0., 0., 0.,
          0., 0., 0., 0., 0., 0., 0., 0., 0., 0., 0., 0., 7.04615593e-01,
          7.04615593e-01, 0., 0., 0., 0., 0., 0., 0., 4.98753130e-01,
          4.98753130e-01, 4.98753130e-01, 4.98753130e-01, 0., 0., 0., 0.,
          5.75688422e-01, 0., 0., 0., 0., 0., 0., 5.75688422e-01,
          5.75688422e-01, 5.75688422e-01, 0., 0., 0., 0., 0., 0.,
          5.75688422e-01, 5.75688422e-01, 0., 0., 0., 0., 0., 0., 0., 0.,
          0., 0., 2.54922777e-01, 5.56613564e-01, 5.56613564e-01,
          5.56613564e-01, 0., 0., 0., 0., 4.51578349e-01, 4.22467142e-02,
          1.81062713e-01, 3.81089211e-01, 4.51578349e-01, 0., 0.,
          4.51578349e-01, 4.51578349e-01, 5.75323343e-01, 9.06106364e-03,
          2.71831881e-02, 0., 2.10481770e-02, 0., 0., 5.75323343e-01,
          5.75323343e-01, 5.75688422e-01, 0., 0., 0., 0., 0., 0.,
          5.75688422e-01, 5.75688422e-01, 7.04615593e-01, 0., 0., 0., 0.,
          0., 0., 0., 7.04615593e-01 ]
      - [ 5.61029732e-01, 5.61029732e-01, 2.23907754e-01, 0., 0., 0., 0.,
          0., 5.61029732e-01, 5.75350463e-01, 3.42089571e-02, 0., 0., 0.,
          0., 0., 5.75350463e-01, 5.75350463e-01, 4.80410308e-01,
          2.96112835e-01, 0., 0., 0., 0., 0., 5.81256866e-01,
          5.81256866e-01, 5.75612247e-01, 5.75612247e-01, 0., 0., 0., 0.,
          0., 1.62386019e-02, 5.75612247e-01, 4.01103079e-01,
          4.01103079e-01, 4.01103079e-01, 0., 4.01103079e-01,
          3.50297570e-01, 4.01103079e-01, 2.29028255e-01, 1.28110230e-01,
          2.40109503e-01, 6.44912422e-02, 3.20422620e-01, 4.70203459e-01,
          4.70203459e-01, 1.15869805e-01, 1.19198225e-01, 3.95831823e-01,
          4.52019423e-01, 4.74840224e-01, 4.74840224e-01, 1.82784453e-01,
          2.27145761e-01, 8.79802853e-02, 2.46187188e-02, 3.50928027e-03,
          4.74840224e-01, 4.74840224e-01, 4.90146309e-01, 4.90146309e-01,
          7.44304955e-02, 0., 4.90146309e-01, 1.41735673e-01,
          2.02037394e-02, 8.99663195e-02, 4.90146309e-01, 9.59408935e-03,
          3.03715944e-01, 4.33467060e-01, 4.23480541e-01, 1.95303902e-01,
          1.73571527e-01, 4.33467060e-01, 4.33467060e-01, 3.03392857e-01,
          0., 4.02916014e-01, 4.02916014e-01, 4.02916014e-01,
          4.02916014e-01, 7.35324919e-02, 4.02916014e-01, 4.02916014e-01,
          1.28530487e-01, 7.41839483e-02, 2.65695572e-01, 4.80409682e-01,
          3.92088324e-01, 4.80409682e-01, 4.80409682e-01, 2.53073007e-01,
          3.76764908e-02, 8.67477953e-02, 2.78156139e-02, 4.91401017e-01,
          4.91401017e-01, 8.45625103e-02, 4.91401017e-01, 4.91401017e-01,
          1.44562379e-01, 2.67149694e-03, 1.90331340e-02, 0.,
          1.30998060e-01, 4.27687496e-01, 4.27687496e-01, 4.27687496e-01,
          4.18323427e-01, 4.27687496e-01, 2.60184795e-01, 6.48860782e-02,
          0., 1.20831855e-01, 3.94711375e-01, 2.26003468e-01,
          4.38550681e-01, 4.38550681e-01, 4.38550681e-01, 4.38550681e-01,
          6.95526376e-02, 0., 5.61662279e-02, 2.10292563e-01,
          2.93196648e-01, 6.44304097e-01, 6.44304097e-01, 1.73118711e-01,
          0., 0., 0., 4.81410414e-01, 4.97885674e-01, 4.97885674e-01,
          4.97885674e-01, 1.38602167e-01, 1.97570734e-02, 0., 0. ]
      - [ 3.64916086e-01, 3.64916086e-01, 3.64916086e-01, 3.64916086e-01,
          3.64916086e-01, 0., 2.53392845e-01, 3.64916086e-01,
          3.64916086e-01, 4.18847322e-01, 2.24430114e-01, 2.70523071e-01,
          3.08997631e-01, 4.18847322e-01, 0., 2.73957103e-01,
          4.18847322e-01, 4.18847322e-01, 4.29547995e-01, 4.29547995e-01,
          1.11073695e-01, 3.76233533e-02, 1.97544426e-01, 1.42741039e-01,
          4.29547995e-01, 4.29547995e-01, 4.29547995e-01, 4.15832996e-01,
          4.15832996e-01, 0., 0., 3.49044114e-01, 4.15832996e-01,
          4.15832996e-01, 9.71021652e-02, 4.15832996e-01, 4.18927491e-01,
          3.08511883e-01, 4.18927491e-01, 4.18927491e-01, 4.18927491e-01,
          0., 8.12988132e-02, 1.38910234e-01, 4.15606827e-01,
          3.60852689e-01, 3.60852689e-01, 3.60852689e-01, 3.60852689e-01,
          3.60852689e-01, 1.58695325e-01, 2.44352326e-01, 3.60852689e-01,
          3.60852689e-01, 3.74349445e-01, 2.32702121e-01, 8.72807428e-02,
          1.35125473e-01, 3.93928915e-01, 3.93928915e-01, 3.93928915e-01,
          3.93928915e-01, 3.93928915e-01, 4.51170653e-01, 2.36140668e-01,
          0., 0., 4.51170653e-01, 4.51170653e-01, 3.53840768e-01,
          1.94537550e-01, 4.07453001e-01, 3.84487629e-01, 3.84487629e-01,
          3.84487629e-01, 1.40657097e-01, 3.84487629e-01, 3.56174171e-01,
          3.19866925e-01, 8.96986648e-02, 3.84487629e-01, 4.03825760e-01,
          4.03825760e-01, 1.63775340e-01, 2.18616858e-01, 4.03825760e-01,
          4.03825760e-01, 3.16658556e-01, 7.55063295e-02, 4.03825760e-01,
          3.52015465e-01, 3.32686096e-01, 3.52015465e-01, 3.52015465e-01,
          3.52015465e-01, 3.52015465e-01, 1.35641217e-01, 3.52015465e-01,
          3.52015465e-01, 4.14139718e-01, 4.14139718e-01, 6.94100633e-02,
          3.11704576e-01, 1.87975466e-01, 3.14970613e-02, 4.14139718e-01,
          4.14139718e-01, 4.14139718e-01, 2.10231811e-01, 2.50329375e-01,
          2.10664153e-01, 5.01120150e-01, 5.24393260e-01, 5.24393260e-01,
          1.83388755e-01, 3.30290608e-02, 8.77559707e-02, 4.70762342e-01,
          1.62608951e-01, 1.06211845e-02, 3.84421311e-02, 5.32324076e-01,
          5.32324076e-01, 1.94774717e-01, 1.97013170e-02, 3.74127001e-01,
          2.40278617e-01, 8.18283856e-02, 2.53476590e-01, 5.13869584e-01,
          5.13869584e-01, 5.13869584e-01, 1.74183488e-01, 0.,
          2.08954945e-01, 1.19296080e-02, 6.34181895e-04, 2.73013890e-01,
          4.68126744e-01, 4.68126744e-01, 2.03262828e-02, 3.17159504e-01,
          4.68126744e-01, 4.02757555e-01 ]
      - [ 6.41761541e-01, 4.11516786e-01, 2.30389852e-02, 0., 0., 0., 0.,
          0., 6.41761541e-01, 6.99550092e-01, 1.16680555e-01, 0., 0.,
          2.57240422e-02, 0., 0., 0., 6.99550092e-01, 5.48075855e-01,
          5.48075855e-01, 0., 0., 2.77576774e-01, 0., 6.01453483e-02,
          1.12689704e-01, 5.48075855e-01, 4.92158264e-01, 4.48196530e-02,
          0., 0., 3.88524272e-02, 1.50622055e-01, 4.92158264e-01,
          4.92158264e-01, 4.92158264e-01, 3.60028863e-01, 1.94635287e-01,
          1.87012672e-01, 1.14455938e-01, 5.88361561e-01, 5.88361561e-01,
          9.64988098e-02, 0., 2.77303070e-01, 3.21267843e-01,
          2.15318903e-01, 4.64948505e-01, 4.60754097e-01, 4.64948505e-01,
          0., 2.33463511e-01, 1.41887039e-01, 3.55661333e-01,
          3.53940755e-01, 3.45753163e-01, 3.53940755e-01, 3.53940755e-01,
          3.53940755e-01, 0., 3.53940755e-01, 3.53940755e-01,
          3.53940755e-01, 1.66643277e-01, 1.76885992e-01, 3.27374846e-01,
          1.30761206e-01, 1.61057666e-01, 4.43367869e-01, 4.43367869e-01,
          4.43367869e-01, 4.43367869e-01, 0., 1.20225232e-02,
          6.09451681e-02, 1.74523890e-01, 6.84542954e-01, 6.84542954e-01,
          1.47142649e-01, 0., 0., 0., 4.98291224e-01, 4.98291224e-01,
          4.98291224e-01, 4.98291224e-01, 0., 2.35911570e-02,
          3.26807275e-02, 1.49053885e-02, 3.10374767e-01, 2.38098726e-01,
          4.56587762e-01, 4.56587762e-01, 4.56587762e-01, 2.60080732e-02,
          7.70275071e-02, 2.43725643e-01, 3.88570338e-01, 3.71946394e-01,
          1.06067836e-01, 2.46167019e-01, 1.84372380e-01, 3.87798905e-01,
          3.87798905e-01, 3.87798905e-01, 3.87798905e-01, 3.87798905e-01,
          0., 0., 0., 0., 0., 0., 0., 0., 0., 0., 1.17859028e-01,
          5.71664512e-01, 5.71664512e-01, 5.71664512e-01, 0., 0., 0., 0.,
          0., 2.23266587e-01, 5.47938287e-01, 5.47938287e-01,
          5.47938287e-01, 2.07594365e-01, 2.95915827e-02, 0., 0., 0.,
          7.64505118e-02, 2.94689924e-01, 4.58368480e-01, 5.54236054e-01,
          5.54236054e-01, 2.77170539e-01, 2.23199278e-02, 0. ]
      - [ 3.96385580e-01, 3.96385580e-01, 3.96385580e-01, 0.,
          2.55720168e-01, 3.96385580e-01, 3.96385580e-01, 2.84747660e-01,
          2.52899885e-01, 4.36905444e-01, 7.99234584e-02, 9.41100791e-02,
          0., 1.61119625e-01, 4.36905444e-01, 4.36905444e-01,
          4.36905444e-01, 4.36905444e-01, 4.87338990e-01, 4.87338990e-01,
          4.87338990e-01, 2.18757063e-01, 4.06691045e-01, 1.85102180e-01,
          7.55041465e-02, 1.63729023e-02, 1.70735627e-01, 3.71249229e-01,
          3.71249229e-01, 3.71249229e-01, 3.34601372e-01, 3.71249229e-01,
          3.71249229e-01, 3.71249229e-01, 1.72684491e-01, 1.66003212e-01,
          3.74467731e-01, 3.74467731e-01, 3.74467731e-01, 0.,
          3.74467731e-01, 3.74467731e-01, 3.74467731e-01, 1.66330069e-01,
          3.56702387e-01, 3.70711952e-01, 1.61772653e-01, 6.99979514e-02,
          0., 4.31422144e-01, 4.31422144e-01, 4.31422144e-01,
          4.31422144e-01, 2.87563384e-01, 4.04256135e-01, 4.79590565e-01,
          4.79590565e-01, 0., 4.79590565e-01, 2.06924781e-01,
          2.39990517e-01, 7.01647997e-02, 1.90864503e-01, 3.87858391e-01,
          3.87858391e-01, 3.87858391e-01, 0., 3.87858391e-01,
          3.87858391e-01, 3.87858391e-01, 1.22318551e-01, 2.80283123e-01,
          3.70025963e-01, 3.70025963e-01, 3.70025963e-01, 0.,
          3.70025963e-01, 3.70025963e-01, 3.70025963e-01, 1.94598675e-01,
          3.70025963e-01, 4.17543620e-01, 1.32767409e-01, 1.30363762e-01,
          0., 3.50482166e-01, 3.75497699e-01, 4.17543620e-01,
          4.17543620e-01, 4.17543620e-01, 4.62653548e-01, 4.62653548e-01,
          4.62653548e-01, 0., 4.62653548e-01, 2.56864011e-01,
          1.27127916e-01, 3.01710591e-02, 2.36927748e-01, 3.95301342e-01,
          3.95301342e-01, 3.82746011e-01, 0., 3.95301342e-01,
          3.95301342e-01, 3.95301342e-01, 9.28192288e-02, 2.44182810e-01,
          3.55628788e-01, 3.55628788e-01, 3.55628788e-01, 4.48034778e-02,
          3.55628788e-01, 3.55628788e-01, 3.55628788e-01, 3.30358505e-01,
          3.55628788e-01, 4.56713885e-01, 6.50869161e-02, 3.68989408e-02,
          0., 2.88825989e-01, 4.56713885e-01, 4.56713885e-01,
          2.68457919e-01, 4.56713885e-01, 4.42128152e-01, 4.42128152e-01,
          4.42128152e-01, 0., 4.42128152e-01, 7.32614994e-02,
          1.08455285e-01, 3.26707363e-02, 4.42128152e-01, 3.76716942e-01,
          3.76716942e-01, 3.76716942e-01, 0., 3.76716942e-01,
          3.76716942e-01, 3.66138846e-01, 1.03368022e-01, 3.76716942e-01 ]
      - [ 5.21095335e-01, 5.21095335e-01, 1.43480510e-01, 0., 0., 0.,
          1.95401788e-01, 3.48434061e-01, 5.21095335e-01, 4.87877995e-01,
          2.07430720e-01, 0., 0., 0., 0., 4.87877995e-01, 4.87877995e-01,
          4.87877995e-01, 5.13692558e-01, 0., 0., 0., 0., 0.,
          4.50809747e-01, 5.13692558e-01, 5.13692558e-01, 0., 0., 0., 0.,
          0., 0., 9.42905009e-01, 3.14301699e-01, 0., 3.95682961e-01,
          3.95682961e-01, 3.95682961e-01, 3.95682961e-01, 3.95682961e-01,
          2.81548873e-02, 1.68940455e-01, 1.65298983e-01, 3.95682961e-01,
          4.40978438e-01, 5.73628657e-02, 6.22243397e-02, 3.67221534e-02,
          4.40978438e-01, 1.21549696e-01, 4.40978438e-01, 4.40978438e-01,
          4.40978438e-01, 4.84965891e-01, 1.17876902e-01, 3.87214944e-02,
          0., 1.97469503e-01, 0., 4.84965891e-01, 4.84965891e-01,
          4.84965891e-01, 5.52104771e-01, 5.52104771e-01, 0., 0., 0., 0.,
          2.61970788e-01, 1.06765322e-01, 5.52104771e-01, 3.55096683e-02,
          4.92999285e-01, 4.92999285e-01, 4.92999285e-01, 3.40075195e-01,
          1.01429932e-01, 3.13816547e-01, 1.81828812e-01, 8.47855285e-02,
          3.53134573e-01, 3.53134573e-01, 3.53134573e-01, 7.10389838e-02,
          3.53134573e-01, 3.44234407e-01, 3.53134573e-01, 3.53134573e-01,
          3.53134573e-01, 3.92687678e-01, 3.92687678e-01, 1.68493256e-01,
          0., 3.92687678e-01, 2.06071422e-01, 3.92687678e-01,
          3.92687678e-01, 3.92687678e-01, 4.59461927e-01, 4.59461927e-01,
          0., 0., 4.59461927e-01, 3.78024101e-01, 8.00684094e-02,
          4.09437157e-02, 4.59461927e-01, 1.93774272e-02, 4.95903075e-01,
          4.99046385e-01, 4.99046385e-01, 4.99046385e-01, 0.,
          2.26367339e-02, 1.92243531e-02, 2.63918359e-02, 1.95014000e-01,
          1.29913658e-01, 1.79659516e-01, 1.59383580e-01, 9.19949353e-01,
          0., 1.96199156e-02, 4.53436784e-02, 1.71712384e-01,
          6.77260831e-02, 1.33258030e-02, 0., 0., 6.92531645e-01,
          6.92531645e-01, 1.59860462e-01, 0., 5.97224683e-02,
          9.57609899e-03, 0., 0., 0., 6.99474692e-01, 6.99474692e-01,
          1.19601965e-01, 0., 9.57609899e-03 ]
      - [ 6.63470030e-01, 2.74504036e-01, 1.94007635e-01, 0., 0., 0., 0.,
          0., 6.63470030e-01, 6.47224426e-01, 3.94638151e-01, 0., 0., 0.,
          0., 0., 0., 6.47224426e-01, 5.75688422e-01, 5.75688422e-01, 0.,
          0., 0., 0., 0., 0., 5.75688422e-01, 7.04615593e-01, 0., 0., 0.,
          0., 0., 0., 0., 7.04615593e-01, 4.39176410e-01, 4.39176410e-01,
          4.39176410e-01, 1.76729620e-01, 4.39176410e-01, 0., 0., 0.,
          4.39176410e-01, 5.72095573e-01, 1.11388326e-01, 0., 0.,
          5.72095573e-01, 0., 0., 0., 5.72095573e-01, 5.52841783e-01,
          2.78526753e-01, 0., 0., 5.52841783e-01, 0., 0., 0.,
          5.52841783e-01, 5.33241987e-01, 1.19009890e-01, 3.57029676e-01,
          0., 5.33241987e-01, 0., 0., 0., 5.33241987e-01, 0.,
          8.04064572e-02, 2.83714175e-01, 2.98113912e-01, 9.02862549e-01,
          0., 0., 0., 0., 0., 0., 0., 0., 9.95024860e-01, 0., 0., 0., 0.,
          3.67123969e-02, 1.54619336e-01, 2.80482739e-01, 0.,
          9.41637039e-01, 0., 0., 0., 0., 3.24718386e-01, 4.97034401e-01,
          4.97034401e-01, 0., 4.97034401e-01, 2.35761613e-01,
          2.92308778e-01, 8.62340331e-02, 0., 0., 0., 0., 0., 0., 0., 0.,
          0., 0., 0., 0., 0., 0., 0., 0., 0., 0., 0., 2.40100354e-01,
          5.58799863e-01, 5.58799863e-01, 0., 5.58799863e-01, 0., 0., 0.,
          0., 1.56586364e-01, 4.84038562e-01, 4.84038562e-01, 0.,
          4.84038562e-01, 4.84038562e-01, 1.81944266e-01, 1.92187522e-02,
          0. ]
      - [ 3.74339312e-01, 3.74339312e-01, 3.74339312e-01, 0.,
          3.74339312e-01, 3.74339312e-01, 3.74339312e-01, 2.06039965e-01,
          3.36196661e-01, 3.62065166e-01, 5.85750677e-02, 7.61102438e-02,
          0., 5.27644455e-01, 3.49080920e-01, 5.27644455e-01,
          2.42267236e-01, 3.42121899e-01, 4.71714169e-01, 4.71714169e-01,
          4.71714169e-01, 7.82645121e-02, 4.71714169e-01, 1.46217406e-01,
          7.58171827e-02, 1.83248650e-02, 2.67661273e-01, 3.64449739e-01,
          3.64449739e-01, 3.64449739e-01, 2.48562872e-01, 3.64449739e-01,
          3.64449739e-01, 3.64449739e-01, 1.95039257e-01, 3.15584034e-01,
          3.92011911e-01, 3.92011911e-01, 3.14765811e-01, 0.,
          3.92011911e-01, 3.92011911e-01, 3.92011911e-01, 1.60466015e-01,
          3.20765048e-01, 3.28471482e-01, 1.88473523e-01, 8.15512314e-02,
          0., 4.44930077e-01, 4.44930077e-01, 4.44930077e-01,
          4.44930077e-01, 2.31599107e-01, 3.85181636e-01, 4.82767344e-01,
          4.82767344e-01, 0., 4.82767344e-01, 1.98482797e-01,
          2.30199575e-01, 6.73022568e-02, 2.25174040e-01, 3.88210326e-01,
          3.88210326e-01, 3.88210326e-01, 0., 3.88210326e-01,
          3.88210326e-01, 3.88210326e-01, 1.15696512e-01, 2.80165017e-01,
          3.68559033e-01, 3.68559033e-01, 3.54326516e-01, 0.,
          3.68559033e-01, 3.68559033e-01, 3.68559033e-01, 2.36127213e-01,
          3.68559033e-01, 4.33515459e-01, 1.43347025e-01, 1.40751854e-01,
          0., 3.19992363e-01, 3.18076015e-01, 4.33515459e-01,
          4.33515459e-01, 4.33515459e-01, 4.44388956e-01, 4.44388956e-01,
          4.44388956e-01, 0., 4.44388956e-01, 2.54028589e-01,
          1.25724584e-01, 2.98380125e-02, 3.52714330e-01, 3.78358841e-01,
          3.78358841e-01, 3.78358841e-01, 0., 3.78358841e-01,
          3.78358841e-01, 3.78358841e-01, 1.27496138e-01, 3.47896934e-01,
          3.77272576e-01, 3.77272576e-01, 3.26532125e-01, 1.13222785e-01,
          3.77272576e-01, 3.77272576e-01, 3.77272576e-01, 2.74872988e-01,
          2.99265951e-01, 4.64186668e-01, 1.25929043e-01, 1.99108347e-01,
          0., 1.97642505e-01, 4.64186668e-01, 4.64186668e-01,
          1.97285578e-01, 4.64186668e-01, 4.40323740e-01, 4.40323740e-01,
          4.40323740e-01, 0., 4.40323740e-01, 7.04195127e-02,
          1.39159083e-01, 4.30403724e-02, 4.40323740e-01, 3.96028012e-01,
          3.96028012e-01, 3.33487451e-01, 0., 3.96028012e-01,
          3.96028012e-01, 3.96028012e-01, 1.11658439e-01, 2.96936184e-01 ]
      - [ 5.86111486e-01, 0., 0., 0., 5.54160833e-01, 0., 0., 0.,
          5.86111486e-01, 5.46534061e-01, 0., 0., 0., 3.13757390e-01, 0.,
          0., 5.46534061e-01, 5.46534061e-01, 5.75654626e-01, 0., 0., 0.,
          1.08219450e-02, 0., 0., 5.75654626e-01, 5.75654626e-01,
          7.03585804e-01, 0., 0., 0., 0., 0., 0., 5.39497361e-02,
          7.03585804e-01, 0., 0., 0., 0., 9.95024860e-01, 0., 0., 0., 0.,
          3.55472378e-02, 0., 2.86163896e-01, 6.70122564e-01,
          6.70122564e-01, 0., 0., 7.46266991e-02, 8.03689286e-02,
          4.63768154e-01, 0., 2.06915572e-01, 4.63768154e-01,
          4.63768154e-01, 0., 0., 3.03694010e-01, 4.63768154e-01,
          5.75231671e-01, 0., 5.24943741e-03, 3.68263945e-02,
          5.75231671e-01, 0., 0., 1.40706012e-02, 5.75231671e-01, 0., 0.,
          0., 0., 9.95024860e-01, 0., 0., 0., 0., 0., 0., 3.62457067e-01,
          6.56532705e-01, 6.56532705e-01, 0., 0., 0., 0., 0., 0.,
          1.95650846e-01, 6.90949798e-01, 6.90949798e-01, 0., 0., 0., 0.,
          0., 0., 6.40920689e-03, 4.49625328e-02, 9.93992925e-01, 0., 0.,
          0., 0., 5.75688422e-01, 0., 0., 0., 5.75688422e-01, 0., 0., 0.,
          5.75688422e-01, 5.75688422e-01, 0., 0., 0., 5.75688422e-01, 0.,
          0., 0., 5.75688422e-01, 5.75688422e-01, 0., 0., 0.,
          5.75688422e-01, 0., 0., 0., 5.75688422e-01, 5.75688422e-01, 0.,
          0., 0., 5.75688422e-01, 0., 0., 0., 5.75688422e-01 ]
      - [ 5.60294092e-01, 5.48287809e-01, 5.26246727e-02, 0., 0., 0.,
          2.38414496e-01, 7.94714913e-02, 5.60294092e-01, 5.71045041e-01,
          7.71877021e-02, 2.31563121e-01, 0., 0., 0., 0., 5.31538844e-01,
          5.71045041e-01, 7.03585804e-01, 0., 0., 0., 0., 0., 0.,
          5.39497361e-02, 7.03585804e-01, 5.75688422e-01, 5.75688422e-01,
          0., 0., 0., 0., 0., 0., 5.75688422e-01, 5.26282072e-01,
          5.26282072e-01, 8.29564705e-02, 0., 0., 0., 3.75831783e-01,
          1.25277266e-01, 5.26282072e-01, 5.81939399e-01, 1.54414505e-01,
          4.63243484e-01, 0., 0., 0., 0., 2.80078083e-01, 5.81939399e-01,
          7.04371393e-01, 0., 0., 0., 0., 0., 0., 2.62787808e-02,
          7.04371393e-01, 6.43790483e-01, 4.05758470e-01, 0., 0., 0., 0.,
          0., 0., 6.43790483e-01, 0., 0., 0., 0., 9.95024860e-01, 0., 0.,
          0., 0., 0., 0., 0., 0., 9.95024860e-01, 0., 0., 0., 0., 0., 0.,
          0., 0., 9.95024860e-01, 0., 0., 0., 0., 0., 0., 0., 0.,
          9.95024860e-01, 0., 0., 0., 0., 0., 0., 0., 0., 9.95024860e-01,
          0., 0., 0., 0., 0., 0., 0., 0., 9.95024860e-01, 0., 0., 0., 0.,
          0., 0., 0., 0., 9.95024860e-01, 0., 0., 0., 0., 0., 0., 0., 0.,
          9.95024860e-01, 0., 0., 0., 0. ]
      - [ 4.44250971e-01, 4.44250971e-01, 1.73552707e-02, 0., 0.,
          9.20146331e-02, 4.44250971e-01, 4.44250971e-01, 4.44250971e-01,
          4.85924721e-01, 1.83863699e-01, 0., 0., 0., 9.58811343e-02,
          4.88534838e-01, 4.88534838e-01, 4.88534838e-01, 6.43625140e-01,
          6.43625140e-01, 0., 0., 0., 0., 0., 0., 4.06285226e-01,
          5.26928127e-01, 5.26928127e-01, 0., 0., 0., 0., 2.61049271e-01,
          3.05992067e-01, 5.26928127e-01, 4.06485647e-01, 3.39299411e-01,
          2.68128961e-01, 0., 0., 4.06485647e-01, 4.06485647e-01,
          4.06485647e-01, 3.84707361e-01, 4.61687326e-01, 4.61687326e-01,
          0., 0., 1.94317177e-02, 3.35569918e-01, 4.61687326e-01,
          1.72577620e-01, 4.61687326e-01, 4.99017239e-01, 4.99017239e-01,
          5.20538688e-02, 0., 2.87279159e-01, 4.99017239e-01,
          1.20112352e-01, 0., 3.85091513e-01, 2.35104799e-01,
          4.07624304e-01, 4.07624304e-01, 0., 4.07624304e-01,
          4.07624304e-01, 4.07624304e-01, 3.20592344e-01, 8.41801837e-02,
          3.70909214e-01, 2.01466620e-01, 3.70909214e-01, 3.70909214e-01,
          3.70909214e-01, 2.55167156e-01, 2.55251646e-01, 3.70909214e-01,
          3.70909214e-01, 4.42869484e-01, 3.83437306e-01, 1.52399752e-03,
          1.06913028e-02, 4.42869484e-01, 4.42869484e-01, 2.51718462e-01,
          2.32338291e-02, 4.42869484e-01, 4.89219651e-02, 1.54194668e-01,
          2.73357481e-01, 0., 6.07029021e-01, 6.07029021e-01,
          3.94911587e-01, 0., 1.10381199e-02, 0., 4.34112370e-01,
          4.34112370e-01, 2.05320984e-01, 4.22751576e-01, 4.34112370e-01,
          4.34112370e-01, 1.44823566e-01, 0., 0., 0., 2.41318777e-01,
          6.00186944e-01, 6.00186944e-01, 4.59386200e-01, 6.54833019e-02,
          0., 0., 0., 0., 1.30970450e-02, 9.18797329e-02, 6.62322700e-01,
          6.62322700e-01, 3.27767462e-01, 0., 0., 0., 1.97666034e-01,
          5.39458990e-01, 0., 5.39458990e-01, 5.39458990e-01,
          2.87215739e-01, 0., 0., 0., 2.58658439e-01, 5.25039434e-01,
          5.25039434e-01, 5.25039434e-01, 2.81166553e-01, 1.43557340e-01,
          3.44927981e-02, 0. ]
      - [ 4.04601812e-01, 4.04601812e-01, 4.04601812e-01, 0., 0.,
          1.17227271e-01, 4.04601812e-01, 4.04601812e-01, 4.04601812e-01,
          1.79211512e-01, 0., 0., 0., 0., 9.79251564e-02, 6.30941570e-01,
          6.30941570e-01, 3.94740492e-01, 7.04615593e-01, 0., 0., 0., 0.,
          0., 0., 0., 7.04615593e-01, 5.59477866e-01, 5.59477866e-01, 0.,
          0., 0., 0., 0., 2.35301226e-01, 5.59477866e-01, 3.77251565e-01,
          3.77251565e-01, 3.77251565e-01, 0., 0., 3.77251565e-01,
          3.77251565e-01, 3.77251565e-01, 3.77251565e-01, 5.53285420e-01,
          5.53285420e-01, 0., 0., 0., 1.12904340e-01, 2.27907464e-01,
          1.06824659e-01, 5.53285420e-01, 5.75688422e-01, 5.75688422e-01,
          0., 0., 0., 0., 0., 0., 5.75688422e-01, 4.86676753e-01,
          4.86676753e-01, 0., 0., 0., 0., 4.23548460e-01, 3.24319452e-01,
          4.86676753e-01, 3.82031292e-01, 3.73507053e-01, 3.82031292e-01,
          5.01293354e-02, 3.82031292e-01, 3.82031292e-01, 2.53559709e-01,
          2.45215699e-01, 3.82031292e-01, 4.79615927e-01, 2.60710925e-01,
          0., 0., 4.79615927e-01, 4.79615927e-01, 8.31109360e-02,
          1.43565070e-02, 4.79615927e-01, 2.82172441e-01, 1.00800186e-01,
          0., 0., 6.43014669e-01, 6.43014669e-01, 1.66560143e-01, 0.,
          2.21630767e-01, 5.89873046e-02, 3.09765525e-03, 0., 0.,
          6.38000906e-01, 6.38000906e-01, 4.02934045e-01, 1.02135226e-01,
          5.71268164e-02, 0., 3.30485068e-02, 1.23506479e-01,
          1.70899525e-01, 6.74761951e-01, 6.74761951e-01, 1.92622811e-01,
          0., 0., 0., 0., 0., 0., 7.35845745e-01, 6.64982140e-01,
          9.47900116e-02, 0., 0., 0., 0., 0., 0., 6.95220530e-01,
          6.95220530e-01, 1.62470698e-01, 0., 0., 0., 0., 0., 0.,
          7.00664401e-01, 7.00664401e-01, 1.05566971e-01, 0., 0. ]
      - [ 4.70344931e-01, 4.70344931e-01, 3.32271993e-01, 0., 0., 0., 0.,
          4.70344931e-01, 4.70344931e-01, 5.75171709e-01, 4.22982499e-02,
          0., 0., 0., 0., 0., 5.75171709e-01, 5.75171709e-01,
          5.75688422e-01, 0., 0., 0., 0., 0., 0., 5.75688422e-01,
          5.75688422e-01, 5.75688422e-01, 0., 0., 0., 0., 0., 0.,
          5.75688422e-01, 5.75688422e-01, 3.63751948e-01, 3.63751948e-01,
          3.63751948e-01, 0., 3.63751948e-01, 3.00268024e-01,
          3.63751948e-01, 3.63751948e-01, 3.35129857e-01, 2.66223848e-01,
          2.77975900e-03, 8.51806775e-02, 5.13094187e-01, 5.13094187e-01,
          2.37446114e-01, 1.36905268e-01, 3.38900328e-01, 4.47469085e-01,
          4.40219849e-01, 0., 1.63203061e-01, 4.40219849e-01,
          4.40219849e-01, 0., 0., 4.40219849e-01, 4.40219849e-01,
          4.95865732e-01, 0., 3.30550745e-02, 2.31891364e-01,
          4.50036436e-01, 0., 0., 4.95865732e-01, 4.95865732e-01,
          4.25175726e-02, 7.19625428e-02, 2.89455533e-01, 4.22833741e-01,
          2.07111165e-01, 4.22833741e-01, 4.22833741e-01, 4.22833741e-01,
          3.83349329e-01, 0., 0., 4.06994149e-02, 2.85518736e-01,
          4.27213103e-01, 4.27213103e-01, 4.27213103e-01, 4.27213103e-01,
          4.27213103e-01, 0., 0., 2.79251516e-01, 6.75222814e-01,
          6.75222814e-01, 0., 5.55292331e-02, 1.85097456e-02, 0.,
          1.52452523e-02, 0., 2.58447438e-01, 6.80421770e-01,
          6.80421770e-01, 0., 0., 0., 1.52452523e-02, 0., 3.14498576e-03,
          2.04713821e-01, 5.40351331e-01, 5.40351331e-01, 5.40351331e-01,
          2.77021796e-01, 2.57317000e-03, 0., 0., 0., 0., 0.,
          2.04613656e-01, 6.86297715e-01, 6.86297715e-01, 9.62961465e-02,
          0., 0., 0., 0., 0., 9.45168972e-01, 0., 2.95503765e-01,
          9.85012576e-02, 0., 0., 0., 1.48076192e-01, 6.96820438e-01,
          6.96820438e-01, 0., 0., 0., 0. ]
      - [ 4.04137611e-01, 4.04137611e-01, 1.38401031e-01, 0.,
          4.04137611e-01, 4.04137611e-01, 4.04137611e-01, 2.17910945e-01,
          3.35688353e-01, 3.91254634e-01, 1.19434670e-01, 4.43463400e-02,
          0., 4.94624764e-01, 4.11421478e-01, 4.94624764e-01,
          2.43572399e-01, 3.28399152e-01, 0., 5.50158501e-01,
          5.50158501e-01, 5.50158501e-01, 2.94079691e-01, 0., 0., 0., 0.,
          0., 5.75688422e-01, 5.75688422e-01, 5.75688422e-01, 0., 0., 0.,
          0., 0., 4.03645128e-01, 4.03645128e-01, 3.07394862e-01, 0.,
          4.03645128e-01, 4.03645128e-01, 4.03645128e-01, 1.31834298e-01,
          2.63531417e-01, 3.65782976e-01, 2.43772984e-01, 0., 0.,
          1.95931971e-01, 4.97986794e-01, 4.97986794e-01, 4.68305111e-01,
          2.19370276e-01, 5.10539152e-02, 5.74935496e-01, 5.74935496e-01,
          5.74935496e-01, 0., 0., 0., 0., 0., 4.66082357e-02,
          5.75060964e-01, 5.75060964e-01, 5.75060964e-01, 0., 0., 0., 0.,
          0., 3.99824649e-01, 3.99824649e-01, 1.50897205e-01, 0.,
          3.68406504e-01, 3.99824649e-01, 3.99824649e-01, 1.95482716e-01,
          3.99824649e-01, 4.31901038e-01, 2.43012294e-01, 0., 0.,
          6.27549067e-02, 4.31901038e-01, 4.31901038e-01, 4.31901038e-01,
          4.31901038e-01, 4.90393788e-01, 5.00692546e-01, 5.00692546e-01,
          4.93391901e-02, 5.00692546e-01, 0., 0., 0., 0., 3.57855022e-01,
          4.65641737e-01, 4.65641737e-01, 4.65641737e-01, 4.65641737e-01,
          0., 0., 0., 0., 3.56473297e-01, 3.56473297e-01, 3.56473297e-01,
          4.46966998e-02, 3.56473297e-01, 3.56473297e-01, 3.56473297e-01,
          3.23926270e-01, 3.56473297e-01, 4.81004328e-01, 8.87262672e-02,
          1.79162584e-02, 0., 1.08225428e-01, 4.81004328e-01,
          4.81004328e-01, 2.23224029e-01, 4.81004328e-01, 4.45798397e-01,
          4.45798397e-01, 4.45798397e-01, 0., 4.45798397e-01, 0.,
          4.09790426e-02, 1.36596803e-02, 4.45798397e-01, 4.48376566e-01,
          4.48376566e-01, 4.48376566e-01, 4.17144388e-01, 4.48376566e-01,
          0., 1.21357284e-01, 4.04524207e-02, 3.13325487e-02 ]
      - [ 5.75688422e-01, 5.75688422e-01, 0., 0., 0., 0., 0., 0.,
          5.75688422e-01, 5.75688422e-01, 5.75688422e-01, 0., 0., 0., 0.,
          0., 0., 5.75688422e-01, 5.71883440e-01, 5.71883440e-01, 0., 0.,
          5.15380204e-02, 0., 0., 1.02377027e-01, 5.71883440e-01,
          5.30405343e-01, 3.82097036e-01, 0., 0., 5.79795167e-02, 0.,
          3.67946960e-02, 5.30405343e-01, 5.30405343e-01, 5.86193681e-01,
          5.86193681e-01, 0., 0., 7.15043694e-02, 0., 0., 0.,
          5.49352169e-01, 4.90195423e-01, 4.90195423e-01, 0., 0.,
          3.13989490e-01, 1.23434685e-01, 3.74686420e-01, 1.41470820e-01,
          4.90195423e-01, 4.29161310e-01, 2.49540359e-01, 2.65594497e-02,
          1.86322585e-01, 4.29161310e-01, 4.29161310e-01, 4.29161310e-01,
          1.96409807e-01, 3.50323528e-01, 3.48801076e-01, 3.48801076e-01,
          3.48801076e-01, 3.48801076e-01, 3.48801076e-01, 1.52373418e-01,
          3.48801076e-01, 3.48801076e-01, 3.48801076e-01, 4.57052529e-01,
          4.57052529e-01, 1.77501947e-01, 1.79431662e-01, 4.57052529e-01,
          4.57052529e-01, 2.70987928e-01, 0., 1.50696993e-01,
          6.65484667e-02, 1.38652191e-01, 4.44633067e-01, 4.44633067e-01,
          4.44633067e-01, 4.44633067e-01, 3.78526628e-01, 1.68073788e-01,
          9.78782550e-02, 3.84769171e-01, 3.84769171e-01, 1.10279679e-01,
          2.56540477e-01, 3.84769171e-01, 1.72909468e-01, 3.84769171e-01,
          3.84769171e-01, 3.84769171e-01, 3.64908516e-01, 3.64908516e-01,
          3.40572953e-01, 1.90802589e-01, 3.64908516e-01, 3.64908516e-01,
          3.64908516e-01, 2.12154210e-01, 3.64908516e-01, 0.,
          2.76600979e-02, 1.19182117e-01, 2.53966808e-01, 6.36280000e-01,
          6.36280000e-01, 3.23225111e-01, 0., 0., 8.21454637e-03,
          1.83781177e-01, 5.56298196e-01, 5.56298196e-01, 5.56298196e-01,
          1.77458435e-01, 2.52958480e-02, 0., 8.21454637e-03,
          6.22991808e-02, 1.43985329e-02, 1.27573490e-01, 5.91936529e-01,
          7.75952876e-01, 1.23329543e-01, 1.75800361e-02, 0.,
          6.22991808e-02, 8.58375896e-03, 0., 0., 0., 6.21858060e-01,
          6.21858060e-01, 4.64207590e-01, 6.88494295e-02, 8.58375896e-03 ]
      - [ 4.41904277e-01, 4.41904277e-01, 1.38524458e-01, 0., 0., 0.,
          4.41904277e-01, 4.41904277e-01, 4.41904277e-01, 2.86519468e-01,
          0., 0., 0., 0., 0., 5.66913307e-01, 5.66913307e-01,
          5.19099355e-01, 0., 0., 0., 0., 0., 0., 0., 0., 0., 0., 0., 0.,
          0., 0., 0., 0., 0., 0., 3.68476003e-01, 4.23330307e-01,
          4.23330307e-01, 0., 0., 0., 4.23330307e-01, 4.23330307e-01,
          3.78368080e-01, 4.76899147e-01, 2.92413324e-01, 0., 0., 0., 0.,
          4.76899147e-01, 4.76899147e-01, 4.76899147e-01, 6.37054026e-01,
          0., 0., 0., 0., 0., 0., 4.26572323e-01, 6.37054026e-01,
          6.69266224e-01, 0., 0., 0., 0., 0., 0., 3.12224239e-01,
          6.69266224e-01, 3.80619258e-01, 3.80619258e-01, 3.80619258e-01,
          7.01109990e-02, 3.80619258e-01, 0., 3.49364877e-01,
          3.80619258e-01, 3.80619258e-01, 4.67792809e-01, 3.45238626e-01,
          0., 0., 4.67792809e-01, 0., 2.85910424e-02, 4.67792809e-01,
          4.67792809e-01, 5.46426535e-01, 0., 0., 0., 5.46426535e-01, 0.,
          0., 3.14320415e-01, 5.46426535e-01, 4.95800644e-01, 0., 0., 0.,
          2.25471467e-01, 0., 4.95800644e-01, 4.54704195e-01,
          4.95800644e-01, 0., 3.26646753e-02, 1.22072048e-01,
          1.68914676e-01, 9.72521305e-01, 0., 0., 0., 0., 0., 0., 0., 0.,
          9.95024860e-01, 0., 0., 0., 0., 0., 0., 4.94311117e-02,
          3.46774220e-01, 9.31670010e-01, 0., 0., 0., 0., 0., 0.,
          1.21188730e-01, 6.17007434e-01, 6.17007434e-01, 2.93027312e-01,
          3.48480999e-01, 1.02237128e-01, 0. ]
      - [ 5.75688422e-01, 5.75688422e-01, 0., 0., 0., 0., 0., 0.,
          5.75688422e-01, 5.60788512e-01, 5.60788512e-01, 0., 0., 0., 0.,
          0., 2.25718156e-01, 5.60788512e-01, 4.98654276e-01,
          4.98654276e-01, 0., 0., 1.98823102e-02, 0., 0., 4.98654276e-01,
          4.98654276e-01, 5.22727966e-01, 2.73266286e-01, 0., 0.,
          1.01142824e-01, 0., 3.00235957e-01, 5.22727966e-01,
          5.22727966e-01, 3.98476094e-01, 3.98476094e-01, 1.98352665e-01,
          0., 3.98476094e-01, 3.98476094e-01, 3.98476094e-01,
          2.74039745e-01, 2.96077222e-01, 5.20531058e-01, 1.42551750e-01,
          0., 0., 6.78015709e-01, 3.48816104e-02, 1.72637105e-02,
          8.46486315e-02, 4.83293146e-01, 4.76112425e-01, 1.74414054e-01,
          8.06732178e-02, 0., 6.51019335e-01, 2.51330376e-01,
          3.58259454e-02, 1.39540315e-01, 4.71318126e-01, 2.45803520e-01,
          3.78624916e-01, 3.78624916e-01, 0., 3.78624916e-01,
          2.75058180e-01, 3.78624916e-01, 3.78624916e-01, 3.78624916e-01,
          3.68349165e-01, 1.70781165e-01, 3.68349165e-01, 3.68349165e-01,
          3.68349165e-01, 1.31855220e-01, 3.68349165e-01, 3.68349165e-01,
          3.68349165e-01, 4.74186987e-01, 4.74186987e-01, 1.28575193e-03,
          9.01993923e-03, 4.74186987e-01, 1.10243727e-02, 1.63203254e-02,
          3.08835894e-01, 4.74186987e-01, 4.48451489e-01, 4.48451489e-01,
          4.99637872e-02, 0., 4.48451489e-01, 4.10498381e-02,
          5.85145690e-03, 4.32284653e-01, 4.48451489e-01, 3.68746370e-01,
          3.68450850e-01, 3.68746370e-01, 0., 3.68746370e-01,
          3.68746370e-01, 3.68746370e-01, 2.11463109e-01, 3.68746370e-01,
          6.07375391e-02, 3.89323905e-02, 3.37847292e-01, 6.59689128e-01,
          6.59689128e-01, 0., 0., 0., 6.07375391e-02, 7.57569671e-02, 0.,
          8.03245977e-03, 5.63501418e-02, 9.87638474e-01, 0., 0., 0.,
          7.57569671e-02, 7.06279576e-02, 0., 0., 0., 9.80507195e-01,
          1.35913938e-01, 1.93738807e-02, 0., 7.06279576e-02,
          3.22755314e-02, 0., 0., 0., 6.21267736e-01, 6.21267736e-01,
          4.63719785e-01, 6.87770844e-02, 3.22755314e-02 ]
      - [ 4.70612198e-01, 4.70612198e-01, 4.70612198e-01, 0.,
          7.12091550e-02, 0., 0., 3.22994262e-01, 4.70612198e-01,
          5.42281151e-01, 1.98775411e-01, 1.55619420e-02, 0.,
          2.69488811e-01, 0., 0., 5.42281151e-01, 5.42281151e-01,
          5.75622737e-01, 0., 0., 0., 1.50865763e-02, 0., 0.,
          5.75622737e-01, 5.75622737e-01, 5.75688422e-01, 0., 0., 0., 0.,
          0., 0., 5.75688422e-01, 5.75688422e-01, 3.68743360e-01,
          3.68743360e-01, 3.68743360e-01, 2.60536056e-02, 3.68162602e-01,
          2.49880329e-01, 3.68743360e-01, 3.68743360e-01, 3.43212664e-01,
          3.93523455e-01, 1.86861157e-02, 1.58503115e-01, 4.12554473e-01,
          4.12554473e-01, 2.40000129e-01, 3.32183748e-01, 3.70129645e-01,
          4.12554473e-01, 4.38444823e-01, 0., 1.84881970e-01,
          4.38444823e-01, 4.38444823e-01, 0., 1.64230540e-02,
          4.38444823e-01, 4.38444823e-01, 4.74140733e-01, 0.,
          4.37301733e-02, 3.06780398e-01, 4.74140733e-01, 0., 0.,
          4.74140733e-01, 4.74140733e-01, 2.66754746e-01, 1.67550772e-01,
          3.81218791e-01, 3.81218791e-01, 3.81218791e-01, 3.81218791e-01,
          3.81218791e-01, 2.43898660e-01, 3.32918406e-01, 4.02787060e-01,
          0., 2.11921092e-02, 1.48669064e-01, 4.02787060e-01,
          4.02787060e-01, 4.02787060e-01, 4.02787060e-01, 4.02787060e-01,
          2.16617286e-02, 0., 2.61599064e-01, 6.01166844e-01,
          6.01166844e-01, 1.80037454e-01, 3.66834104e-01, 1.77986458e-01,
          6.02587946e-02, 6.25933334e-02, 0., 3.26616228e-01,
          6.62155390e-01, 6.62155390e-01, 0., 0., 1.94398630e-02,
          7.42691383e-02, 0., 9.04788747e-02, 4.59144413e-01,
          4.98090267e-01, 4.98090267e-01, 4.98090267e-01, 1.78167030e-01,
          0., 0., 0., 0., 0., 0., 6.24595106e-01, 6.24595106e-01,
          4.61184621e-01, 2.88860444e-02, 0., 0., 0., 0., 0., 0.,
          7.16391623e-01, 6.71337724e-01, 1.70111105e-01, 0., 0., 0.,
          1.75727382e-01, 6.93612278e-01, 6.93612278e-01, 0., 0., 0., 0. ]
      - [ 4.96508926e-01, 4.96508926e-01, 9.19652060e-02, 0.,
          2.23375876e-02, 0., 0., 4.96508926e-01, 4.96508926e-01,
          4.66907769e-01, 0., 0., 0., 1.86525196e-01, 0., 2.79761940e-01,
          5.75842261e-01, 5.75842261e-01, 5.05497098e-01, 5.05497098e-01,
          0., 0., 0., 0., 3.34973752e-01, 3.40825856e-01, 5.05497098e-01,
          5.75688422e-01, 5.75688422e-01, 0., 0., 0., 0., 0., 0.,
          5.75688422e-01, 3.58219892e-01, 3.58219892e-01, 3.58219892e-01,
          8.75639841e-02, 3.58219892e-01, 3.58219892e-01, 3.58219892e-01,
          3.58219892e-01, 3.00837517e-01, 3.77251565e-01, 3.77251565e-01,
          0., 0., 3.77251565e-01, 3.77251565e-01, 3.77251565e-01,
          3.77251565e-01, 3.77251565e-01, 5.59221327e-01, 5.59221327e-01,
          0., 0., 1.72226608e-01, 8.38277787e-02, 1.26824588e-01,
          5.87928817e-02, 5.59221327e-01, 4.52256352e-01, 4.52256352e-01,
          0., 0., 4.52256352e-01, 4.52256352e-01, 1.28872514e-01, 0.,
          4.00913119e-01, 1.90225720e-01, 3.43630791e-01, 4.01945800e-01,
          4.01945800e-01, 4.01945800e-01, 1.99505180e-01, 4.01945800e-01,
          3.15427572e-01, 2.37019628e-01, 4.07693624e-01, 4.07693624e-01,
          2.23196559e-02, 1.88437868e-02, 4.07693624e-01, 4.07693624e-01,
          3.23828340e-01, 2.43184626e-01, 4.07693624e-01, 3.58342290e-01,
          3.15547049e-01, 0., 0., 5.66087246e-01, 5.66087246e-01,
          3.11380297e-01, 0., 1.68821305e-01, 3.47434245e-02,
          1.77780762e-02, 0., 0., 6.57649159e-01, 6.57649159e-01,
          3.55425686e-01, 0., 2.40657218e-02, 2.31244229e-02,
          1.65782601e-01, 5.67386091e-01, 5.67386091e-01, 5.67386091e-01,
          0., 0., 0., 2.31244229e-02, 4.93810661e-02, 4.17445321e-03,
          1.90282390e-02, 4.56337072e-02, 6.92337453e-01, 6.92337453e-01,
          1.64582446e-01, 0., 4.93810661e-02, 0., 0., 0., 0.,
          6.66113257e-01, 6.66113257e-01, 3.25478405e-01, 0., 0., 0., 0.,
          0., 0., 6.99564517e-01, 6.99564517e-01, 1.19313508e-01, 0., 0. ]
      - [ 4.42170382e-01, 4.42170382e-01, 1.72572359e-02, 0.,
          9.66473371e-02, 9.14948657e-02, 4.42170382e-01, 4.42170382e-01,
          4.42170382e-01, 4.85733360e-01, 1.83791295e-01, 0., 0.,
          2.64096558e-02, 9.58433822e-02, 4.88372326e-01, 4.88372326e-01,
          4.88372326e-01, 5.75688422e-01, 5.75688422e-01, 0., 0., 0., 0.,
          0., 0., 5.75688422e-01, 5.27213156e-01, 5.27213156e-01, 0., 0.,
          0., 0., 2.60318637e-01, 3.05135697e-01, 5.27213156e-01,
          2.58140504e-01, 3.43217134e-01, 2.38107279e-01, 2.43937131e-02,
          3.88431430e-01, 3.88431430e-01, 3.88431430e-01, 3.88431430e-01,
          3.88431430e-01, 4.80900198e-01, 4.80900198e-01, 0., 0.,
          1.63953111e-01, 2.15719834e-01, 4.63425308e-01, 2.48729214e-01,
          4.27342921e-01, 4.59457308e-01, 4.59457308e-01, 4.71304655e-02,
          0., 4.59457308e-01, 4.59457308e-01, 1.10791601e-01, 0.,
          3.69473249e-01, 2.94320524e-01, 3.98910880e-01, 3.98910880e-01,
          0., 3.98910880e-01, 3.98910880e-01, 3.98910880e-01,
          3.08643579e-01, 1.35941684e-01, 3.85242552e-01, 2.77920038e-01,
          3.85242552e-01, 3.85242552e-01, 3.85242552e-01, 1.10128932e-01,
          1.27720550e-01, 3.85242552e-01, 3.85242552e-01, 4.41817611e-01,
          4.41817611e-01, 3.01846326e-03, 2.11754348e-02, 4.41817611e-01,
          4.41817611e-01, 2.51154065e-01, 7.83298761e-02, 3.80925268e-01,
          5.20237535e-02, 1.52058080e-01, 2.54950196e-01, 0.,
          6.10450327e-01, 6.10450327e-01, 3.97039443e-01, 0.,
          1.17379669e-02, 0., 4.25587624e-01, 4.25587624e-01,
          4.25587624e-01, 3.06296319e-01, 3.91893834e-01, 4.25587624e-01,
          1.54438019e-01, 0., 0., 2.32269689e-02, 2.56765336e-01,
          6.75448179e-01, 6.75448179e-01, 1.18504010e-01, 1.68921780e-02,
          0., 0., 0., 0., 8.86820536e-03, 6.22131489e-02, 6.69755280e-01,
          6.69755280e-01, 3.03677768e-01, 0., 0., 0., 1.20794579e-01,
          3.62383753e-01, 0., 6.10714614e-01, 6.10714614e-01,
          3.19443643e-01, 0., 0., 0., 1.19622931e-01, 5.14736712e-01,
          5.14736712e-01, 5.14736712e-01, 3.81514430e-01, 1.94792718e-01,
          4.68032211e-02, 0. ]
      - [ 6.95780694e-01, 1.36668861e-01, 7.84508064e-02, 0., 0., 0., 0.,
          0., 6.95780694e-01, 6.52148306e-01, 0., 0., 0., 0.,
          7.13717341e-02, 2.45470360e-01, 2.78468609e-01, 6.52148306e-01,
          4.03753608e-01, 4.03753608e-01, 4.03753608e-01, 8.63359720e-02,
          0., 1.02033436e-01, 4.03753608e-01, 4.03753608e-01,
          4.03753608e-01, 4.58877563e-01, 4.58877563e-01, 2.52545536e-01,
          7.20584616e-02, 0., 0., 2.90121168e-01, 4.58877563e-01,
          4.58877563e-01, 3.44066679e-01, 2.28888705e-01, 4.11257327e-01,
          2.32722871e-02, 4.11257327e-01, 4.11257327e-01, 4.11257327e-01,
          2.32764840e-01, 3.06379437e-01, 3.52643251e-01, 3.42741191e-01,
          3.52643251e-01, 9.22183916e-02, 3.52643251e-01, 3.52643251e-01,
          3.52643251e-01, 3.52643251e-01, 3.52643251e-01, 3.62872988e-01,
          2.73197591e-01, 3.62872988e-01, 3.62872988e-01, 0.,
          3.62872988e-01, 3.62872988e-01, 3.62872988e-01, 3.62872988e-01,
          3.61808985e-01, 3.79758775e-01, 3.79758775e-01, 3.79758775e-01,
          0., 0., 3.79758775e-01, 3.79758775e-01, 3.79758775e-01,
          2.29363684e-02, 2.21782297e-01, 4.51011479e-01, 2.46917903e-01,
          2.66772598e-01, 4.51011479e-01, 4.51011479e-01, 4.51011479e-01,
          0., 2.52912223e-01, 4.29771811e-01, 4.29771811e-01,
          4.29771811e-01, 4.29771811e-01, 2.99497936e-02, 3.34746540e-01,
          2.00304091e-01, 1.99632198e-01, 5.50402820e-01, 7.85711557e-02,
          8.72999653e-02, 9.96995196e-02, 5.50402820e-01, 3.16571221e-02,
          1.51153311e-01, 1.95165783e-01, 5.50402820e-01, 3.68080437e-01,
          3.28063697e-01, 3.44031751e-01, 2.19285563e-01, 3.68080437e-01,
          3.68080437e-01, 3.68080437e-01, 2.11747110e-01, 3.68080437e-01,
          0., 9.35201049e-02, 3.21951628e-01, 2.90372491e-01,
          5.07203043e-01, 5.07203043e-01, 5.07203043e-01, 1.62648618e-01,
          0., 0., 2.21347407e-01, 5.61268449e-01, 5.61268449e-01,
          5.61268449e-01, 0., 1.73324160e-02, 5.77747263e-03, 0., 0.,
          5.51440287e-03, 2.29506865e-02, 4.49503995e-02, 9.93735254e-01,
          0., 0., 0., 0., 0., 0., 0., 0., 7.57513940e-01, 5.48629880e-01,
          3.32327753e-01, 8.47077370e-02, 0. ]
      - [ 4.83886540e-01, 1.84133753e-01, 1.57088891e-01, 0., 0., 0.,
          4.83886540e-01, 4.83886540e-01, 4.83886540e-01, 2.86519468e-01,
          0., 0., 0., 0., 0., 5.66913307e-01, 5.66913307e-01,
          5.19099355e-01, 7.04615593e-01, 0., 0., 0., 0., 0., 0., 0.,
          7.04615593e-01, 7.04615593e-01, 0., 0., 0., 0., 0., 0., 0.,
          7.04615593e-01, 3.31262738e-01, 2.20155627e-01, 3.12515140e-01,
          0., 0., 4.30068225e-01, 4.30068225e-01, 4.30068225e-01,
          4.30068225e-01, 4.96921510e-01, 4.96921510e-01, 0., 0., 0.,
          1.36831596e-01, 4.50151503e-01, 1.81341574e-01, 4.96921510e-01,
          5.75688422e-01, 5.75688422e-01, 0., 0., 0., 0., 0., 0.,
          5.75688422e-01, 5.31762004e-01, 5.31762004e-01, 0., 0.,
          8.16491023e-02, 5.87735549e-02, 2.29524627e-01, 2.89092600e-01,
          5.31762004e-01, 3.54850411e-01, 3.37188751e-01, 3.54850411e-01,
          3.64248529e-02, 3.54850411e-01, 3.54850411e-01, 3.54850411e-01,
          3.54850411e-01, 3.54850411e-01, 4.43830878e-01, 4.43830878e-01,
          0., 0., 4.43830878e-01, 4.43830878e-01, 1.00001201e-01,
          2.52433643e-02, 4.43830878e-01, 4.70126659e-01, 1.92364469e-01,
          0., 0., 5.42640448e-01, 5.42640448e-01, 1.48007154e-01, 0.,
          3.54590446e-01, 1.38691083e-01, 5.69869578e-02, 0., 0.,
          6.35242403e-01, 6.35242403e-01, 3.82723540e-01, 6.59042373e-02,
          1.15275249e-01, 0., 3.04660257e-02, 1.13855422e-01,
          1.57545075e-01, 6.80727482e-01, 6.80727482e-01, 1.66471720e-01,
          0., 0., 0., 0., 0., 0., 6.93022907e-01, 6.93022907e-01,
          1.80333942e-01, 0., 0., 0., 0., 0., 0., 6.94978058e-01,
          6.94978058e-01, 1.64539814e-01, 0., 0., 0., 0., 0., 0.,
          6.96577609e-01, 6.96577609e-01, 1.50351644e-01, 0., 0. ]
      - [ 4.63512719e-01, 3.01152200e-01, 2.12841421e-01, 0., 0., 0.,
          4.63512719e-01, 4.63512719e-01, 4.63512719e-01, 4.68842119e-01,
          4.68842119e-01, 0., 0., 0., 0., 4.68842119e-01, 4.68842119e-01,
          3.40683639e-01, 5.75688422e-01, 5.75688422e-01, 0., 0., 0., 0.,
          0., 0., 5.75688422e-01, 5.33005893e-01, 3.77347648e-01, 0., 0.,
          0., 0., 0., 5.33005893e-01, 5.33005893e-01, 3.80414575e-01,
          4.12860930e-01, 4.12860930e-01, 0., 0., 0., 4.12860930e-01,
          4.12860930e-01, 4.11514163e-01, 5.13791442e-01, 5.13791442e-01,
          0., 0., 0., 2.50476599e-02, 4.06159729e-01, 2.04208329e-01,
          5.09520710e-01, 4.75697011e-01, 4.75697011e-01, 0., 0.,
          4.75697011e-01, 4.75697011e-01, 9.11470726e-02, 0.,
          2.85990030e-01, 3.98233622e-01, 3.05353910e-01, 2.75974095e-01,
          3.41158599e-01, 3.98233622e-01, 2.72688061e-01, 3.88703756e-02,
          3.98233622e-01, 3.98233622e-01, 3.99638087e-01, 3.99638087e-01,
          3.99638087e-01, 0., 9.61856917e-02, 1.68796793e-01,
          3.99638087e-01, 3.99638087e-01, 3.99638087e-01, 4.50939804e-01,
          4.50939804e-01, 0., 0., 4.50939804e-01, 4.50939804e-01,
          3.31794024e-01, 7.09751397e-02, 2.58813053e-01, 1.34353846e-01,
          2.94016123e-01, 2.93499261e-01, 0., 5.78106880e-01,
          5.78106880e-01, 3.67288679e-01, 0., 1.65241845e-02,
          4.46801096e-01, 4.46801096e-01, 4.46801096e-01, 2.93684304e-01,
          4.46801096e-01, 3.12740266e-01, 1.11553289e-01, 2.23245565e-02,
          3.56974080e-03, 0., 1.94646403e-01, 5.18049896e-01,
          3.25278848e-01, 5.18049896e-01, 5.18049896e-01, 2.14489132e-01,
          0., 0., 0., 0., 0., 0., 6.36536300e-01, 6.36536300e-01,
          4.28121477e-01, 0., 0., 5.53019233e-02, 4.53993142e-01,
          4.53993142e-01, 4.04006213e-01, 4.53993142e-01, 4.53993142e-01,
          6.88976869e-02, 0., 0., 8.79923254e-02, 4.29590046e-01,
          4.29590046e-01, 4.29590046e-01, 4.29590046e-01, 4.29590046e-01,
          2.53998309e-01, 2.67028306e-02, 0. ]
      - [ 5.68379581e-01, 5.68379581e-01, 0., 0., 1.58613011e-01, 0., 0.,
          0., 5.68379581e-01, 5.76952755e-01, 1.55286908e-01, 0., 0.,
          2.83747971e-01, 0., 2.36533329e-01, 4.09774184e-01,
          5.76952755e-01, 4.50383276e-01, 4.28939432e-01, 0., 0.,
          1.14767235e-02, 0., 4.50383276e-01, 4.50383276e-01,
          4.50383276e-01, 5.39232492e-01, 5.39232492e-01, 0., 0., 0., 0.,
          3.31767797e-01, 1.10589266e-01, 5.39232492e-01, 4.10822242e-01,
          4.10822242e-01, 1.95313469e-01, 0., 4.10822242e-01,
          4.10822242e-01, 4.10822242e-01, 2.69840866e-01, 2.02632457e-01,
          3.99934322e-01, 4.03122008e-01, 4.03122008e-01, 4.03122008e-01,
          4.03122008e-01, 1.95898652e-01, 1.91174313e-01, 1.28005549e-01,
          3.07712257e-01, 4.22141701e-01, 4.22141701e-01, 2.14763805e-01,
          4.73937616e-02, 1.44970283e-01, 1.88092664e-01, 4.22141701e-01,
          4.22141701e-01, 4.22141701e-01, 4.41461235e-01, 4.41461235e-01,
          0., 0., 4.41461235e-01, 4.41461235e-01, 4.41461235e-01,
          1.00502469e-01, 1.05115540e-01, 3.33530694e-01, 3.33530694e-01,
          3.33530694e-01, 3.33530694e-01, 3.33530694e-01, 3.26689035e-01,
          3.33530694e-01, 3.33530694e-01, 3.33530694e-01, 4.09140795e-01,
          4.09140795e-01, 3.65516782e-01, 6.45161793e-02, 4.09140795e-01,
          4.09140795e-01, 1.39333293e-01, 4.18729447e-02, 4.09140795e-01,
          1.31125286e-01, 7.71412998e-02, 8.69722515e-02, 4.26229835e-03,
          6.19882643e-01, 6.19882643e-01, 4.29029495e-01, 9.35606472e-03,
          1.02083899e-01, 2.21031848e-02, 1.62580386e-02, 0., 0.,
          6.42220020e-01, 6.42220020e-01, 4.09621716e-01, 0.,
          1.23384325e-02, 4.40065786e-02, 3.84306088e-02, 3.33492905e-01,
          5.36870658e-01, 5.36870658e-01, 5.36870658e-01, 1.15674749e-01,
          0., 4.40065786e-02, 1.01247989e-02, 0., 9.87536926e-03,
          6.92787096e-02, 6.88268840e-01, 6.88268840e-01, 2.01492473e-01,
          0., 1.01247989e-02, 0., 0., 0., 0., 6.51778638e-01,
          6.51778638e-01, 3.79291832e-01, 0., 0., 0., 0., 0., 0.,
          6.76952422e-01, 7.13412225e-01, 1.60178229e-01, 0., 0. ]
      - [ 4.42170382e-01, 4.42170382e-01, 1.72572359e-02, 0.,
          9.66473371e-02, 9.14948657e-02, 4.42170382e-01, 4.42170382e-01,
          4.42170382e-01, 4.34020400e-01, 5.94049469e-02, 0., 0.,
          2.80275885e-02, 1.01715028e-01, 5.13755739e-01, 5.13755739e-01,
          5.13755739e-01, 6.38237894e-01, 6.38237894e-01, 0., 0., 0., 0.,
          0., 0., 4.23004359e-01, 5.27276456e-01, 5.27276456e-01, 0., 0.,
          0., 0., 2.60156035e-01, 3.04945081e-01, 5.27276456e-01,
          3.53337228e-01, 3.30844790e-01, 2.37017632e-01, 0.,
          3.90217155e-01, 3.90217155e-01, 3.90217155e-01, 3.90217155e-01,
          3.10710609e-01, 4.73437160e-01, 4.73437160e-01, 0., 0.,
          1.67004615e-01, 1.94411829e-01, 4.73437160e-01, 1.81696624e-01,
          4.73437160e-01, 5.04596353e-01, 5.04596353e-01, 2.33164914e-02,
          5.71614914e-02, 2.60734499e-01, 5.04596353e-01, 8.29281732e-02,
          0., 3.90432328e-01, 3.48030627e-01, 3.50038320e-01,
          3.50038320e-01, 3.50038320e-01, 3.50038320e-01, 3.50038320e-01,
          3.50038320e-01, 3.50038320e-01, 1.33002505e-01, 3.65993083e-01,
          2.13845849e-01, 3.34076792e-01, 3.65993083e-01, 3.63016307e-01,
          1.93573251e-01, 3.65993083e-01, 3.65993083e-01, 3.65993083e-01,
          4.34162468e-01, 4.34162468e-01, 6.04102388e-03, 4.23796140e-02,
          4.34162468e-01, 4.34162468e-01, 2.25381300e-01, 2.34227665e-02,
          4.34162468e-01, 6.52017817e-02, 1.25421718e-01, 2.02386394e-01,
          6.33623675e-02, 6.15019739e-01, 6.15019739e-01, 4.14230525e-01,
          0., 2.85823811e-02, 0., 4.27951664e-01, 4.27951664e-01,
          4.27951664e-01, 2.33881667e-01, 4.27951664e-01, 4.27951664e-01,
          1.59094959e-01, 0., 0., 0., 2.91570932e-01, 5.50226629e-01,
          5.50226629e-01, 5.45838058e-01, 7.78066069e-02, 0., 0., 0., 0.,
          4.24635857e-02, 2.97894925e-01, 6.15319431e-01, 6.15319431e-01,
          3.82198572e-01, 0., 0., 0., 7.37516806e-02, 2.21255034e-01, 0.,
          6.47838116e-01, 6.47838116e-01, 3.15833271e-01, 0., 0., 0.,
          1.19025618e-01, 5.12523115e-01, 5.12523115e-01, 5.12523115e-01,
          3.90314847e-01, 1.95346087e-01, 4.65695225e-02, 0. ]
      - [ 7.01555967e-01, 9.29255635e-02, 0., 0., 0., 0., 0., 0.,
          7.01555967e-01, 7.04615593e-01, 0., 0., 0., 0., 0., 0., 0.,
          7.04615593e-01, 7.04615593e-01, 0., 0., 0., 0., 0., 0., 0.,
          7.04615593e-01, 6.88661754e-01, 0., 0., 0., 0., 0.,
          6.63301647e-02, 2.00538039e-01, 6.88661754e-01, 6.70210958e-01,
          2.16426998e-01, 1.66282639e-01, 0., 1.43014938e-01, 0., 0., 0.,
          6.70210958e-01, 7.04615593e-01, 0., 0., 0., 0., 0., 0., 0.,
          7.04615593e-01, 7.04615593e-01, 0., 0., 0., 0., 0., 0., 0.,
          7.04615593e-01, 4.98753130e-01, 0., 0., 0., 0., 0.,
          4.98753130e-01, 4.98753130e-01, 4.98753130e-01, 0.,
          2.37013936e-01, 6.74548268e-01, 1.64498210e-01, 6.74548268e-01,
          0., 0., 0., 0., 0., 0., 0., 0., 9.95024860e-01, 0., 0., 0., 0.,
          0., 0., 0., 0., 9.95024860e-01, 0., 0., 0., 0., 0., 0., 0., 0.,
          6.05155826e-01, 2.72779047e-01, 6.05155826e-01, 4.32576239e-01,
          0., 0., 1.65498257e-02, 6.88795969e-02, 1.34905115e-01,
          9.83347893e-01, 0., 0., 0., 0., 0., 0., 0., 0., 9.95024860e-01,
          0., 0., 0., 0., 0., 0., 0., 0., 9.95024860e-01, 0., 0., 0., 0.,
          0., 0., 0., 0., 9.52332318e-01, 2.55932212e-01, 1.30673245e-01,
          3.13971154e-02, 0. ]
      - [ 5.44837177e-01, 5.44837177e-01, 0., 0., 0., 0., 0.,
          3.22515696e-01, 5.44837177e-01, 5.40167034e-01, 3.45346689e-01,
          0., 0., 0., 0., 0., 5.40167034e-01, 5.40167034e-01,
          6.82875812e-01, 2.43173003e-01, 0., 0., 0., 0., 0.,
          3.75640616e-02, 6.82875812e-01, 7.04615593e-01, 0., 0., 0., 0.,
          0., 0., 0., 7.04615593e-01, 4.07465190e-01, 1.81640178e-01,
          1.31235328e-02, 9.20655653e-02, 4.07465190e-01, 4.07465190e-01,
          4.07465190e-01, 3.52347434e-01, 4.07465190e-01, 3.70626748e-01,
          3.70626748e-01, 3.70626748e-01, 3.70626748e-01, 3.70626748e-01,
          1.38998285e-01, 2.34482571e-01, 3.12745094e-01, 3.70626748e-01,
          4.28725243e-01, 1.80803776e-01, 4.30421568e-02, 7.94097409e-02,
          4.70302314e-01, 3.59763563e-01, 2.56640822e-01, 3.64672124e-01,
          4.70302314e-01, 4.07400906e-01, 4.07400906e-01, 4.07400906e-01,
          4.07400906e-01, 4.07400906e-01, 0., 0., 8.79092701e-03,
          4.07400906e-01, 4.01951998e-01, 5.75070046e-02, 1.16572388e-01,
          4.01951998e-01, 4.01951998e-01, 2.17171252e-01, 3.52275282e-01,
          4.01951998e-01, 4.01951998e-01, 3.53820086e-01, 3.53820086e-01,
          3.53820086e-01, 3.53820086e-01, 3.53820086e-01, 3.53820086e-01,
          2.58767426e-01, 2.30616152e-01, 3.53820086e-01, 4.04389381e-01,
          4.04389381e-01, 7.19462186e-02, 3.42086285e-01, 4.04389381e-01,
          1.61664322e-01, 1.73123062e-01, 4.04389381e-01, 4.04389381e-01,
          4.08472061e-01, 4.08472061e-01, 4.08472061e-01, 2.06513703e-01,
          4.08472061e-01, 3.37900370e-01, 4.81660776e-02, 5.02780639e-02,
          4.08472061e-01, 0., 0., 2.85939634e-01, 6.67285621e-01,
          6.67285621e-01, 1.43588573e-01, 2.04678625e-02, 0., 0., 0., 0.,
          9.69471782e-02, 5.55472910e-01, 5.55472910e-01, 5.55472910e-01,
          2.43729219e-01, 0., 0., 4.15392406e-02, 0., 1.55374423e-01,
          6.92324877e-01, 6.92324877e-01, 8.20499063e-02, 1.16958208e-02,
          0., 4.15392406e-02, 7.57493218e-03, 0., 0., 0., 6.95398450e-01,
          6.95398450e-01, 1.60577849e-01, 0., 7.57493218e-03 ]
      - [ 4.97431189e-01, 4.97431189e-01, 4.97431189e-01, 0.,
          7.26683661e-02, 0., 0., 0., 4.97431189e-01, 5.33854902e-01,
          1.82418734e-01, 1.42813930e-02, 0., 3.25860023e-01, 0., 0.,
          5.33854902e-01, 5.33854902e-01, 5.75134218e-01, 0., 0., 0.,
          4.38048020e-02, 0., 0., 5.75134218e-01, 5.75134218e-01,
          5.75688422e-01, 0., 0., 0., 0., 0., 0., 5.75688422e-01,
          5.75688422e-01, 3.64694804e-01, 3.64694804e-01, 3.64694804e-01,
          0., 3.64694804e-01, 2.55617768e-01, 3.64694804e-01,
          3.64694804e-01, 3.64694804e-01, 2.12446585e-01, 1.92356966e-02,
          9.31954607e-02, 4.58602250e-01, 4.58602250e-01, 2.47058794e-01,
          1.97301894e-01, 4.58602250e-01, 4.58602250e-01, 4.13977087e-01,
          0., 1.75810412e-01, 4.94581550e-01, 4.94581550e-01, 0.,
          1.57522820e-02, 2.42266372e-01, 4.94581550e-01, 4.43670243e-01,
          0., 1.06544778e-01, 4.43670243e-01, 4.43670243e-01, 0., 0.,
          4.43670243e-01, 4.43670243e-01, 1.67621747e-01, 8.16083625e-02,
          3.75189245e-01, 4.20287460e-01, 3.92175645e-01, 4.20287460e-01,
          2.99590349e-01, 3.40803325e-01, 3.27553779e-01, 2.88185418e-01,
          0., 7.65732629e-03, 5.37184700e-02, 4.26554531e-01,
          4.26554531e-01, 4.26554531e-01, 4.26554531e-01, 4.26554531e-01,
          3.44552658e-02, 0., 1.66516215e-01, 5.32323062e-01,
          5.32323062e-01, 1.62264064e-01, 5.32323062e-01, 2.83106267e-01,
          9.58479866e-02, 0., 0., 2.29863197e-01, 6.85681403e-01,
          6.85681403e-01, 0., 0., 0., 0., 0., 0., 2.39238128e-01,
          5.46474457e-01, 5.46474457e-01, 5.46474457e-01, 2.03481615e-01,
          0., 0., 0., 0., 0., 0., 6.14512205e-01, 6.14512205e-01,
          4.87351954e-01, 3.31930928e-02, 0., 0., 0., 0., 0.,
          7.01524138e-01, 3.15441489e-01, 6.05362415e-01, 1.86799243e-01,
          0., 0., 0., 0., 0., 9.94971275e-01, 0., 0., 0., 0. ]
      - [ 0., 0., 0., 0., 0., 0., 0., 0., 0., 5.75688422e-01,
          5.75688422e-01, 0., 0., 0., 0., 0., 0., 5.75688422e-01,
          5.75688422e-01, 5.75688422e-01, 0., 0., 0., 0., 0., 0.,
          5.75688422e-01, 4.46215838e-01, 4.46215838e-01, 0., 0., 0., 0.,
          4.46215838e-01, 4.46215838e-01, 4.46215838e-01, 5.75688422e-01,
          5.75688422e-01, 0., 0., 0., 0., 0., 0., 5.75688422e-01,
          5.57770550e-01, 5.57770550e-01, 0., 0., 1.24848478e-01,
          2.11216897e-01, 3.01079564e-02, 0., 5.57770550e-01,
          4.35371250e-01, 4.35371250e-01, 1.72254339e-01, 0.,
          4.35371250e-01, 4.35371250e-01, 1.35051414e-01, 0.,
          4.35371250e-01, 3.73561293e-01, 3.73561293e-01, 3.73561293e-01,
          0., 3.73561293e-01, 1.39397115e-01, 3.73561293e-01,
          3.73561293e-01, 3.73561293e-01, 4.36905295e-01, 4.36905295e-01,
          1.37263030e-01, 0., 4.36905295e-01, 4.36905295e-01,
          1.49543658e-01, 0., 4.36905295e-01, 2.25124553e-01,
          1.74586177e-01, 0., 0., 6.12779796e-01, 6.12779796e-01,
          3.83742213e-01, 0., 1.20266199e-01, 4.15453970e-01,
          4.15453970e-01, 4.15453970e-01, 3.21222037e-01, 4.15453970e-01,
          4.15453970e-01, 1.72154784e-01, 0., 4.35647834e-03,
          4.27804440e-01, 4.27804440e-01, 4.27804440e-01, 2.57856160e-01,
          4.27804440e-01, 3.88654917e-01, 1.84907451e-01, 6.92732260e-02,
          8.44287351e-02, 7.61215761e-03, 8.53774548e-02, 2.18110308e-01,
          0., 6.32343471e-01, 6.32343471e-01, 3.72895062e-01, 0., 0., 0.,
          0., 0., 0., 6.64599955e-01, 6.64599955e-01, 3.31630647e-01, 0.,
          0., 1.54169932e-01, 4.54576641e-01, 5.04455149e-01,
          5.04455149e-01, 5.04455149e-01, 3.32590826e-02, 4.74092318e-03,
          0., 0., 3.06322388e-02, 5.85416146e-02, 2.52715617e-01,
          4.76570100e-01, 4.76570100e-01, 4.76570100e-01, 4.76570100e-01,
          1.36136502e-01, 0. ]
      - [ 4.46149737e-01, 4.46149737e-01, 1.71945971e-02, 0., 0., 0.,
          4.46149737e-01, 4.46149737e-01, 4.46149737e-01, 3.15654159e-01,
          0., 0., 0., 0., 0., 5.46171010e-01, 5.46171010e-01,
          5.46171010e-01, 5.75688422e-01, 5.75688422e-01, 0., 0., 0., 0.,
          0., 0., 5.75688422e-01, 5.75688422e-01, 5.75688422e-01, 0., 0.,
          0., 0., 0., 0., 5.75688422e-01, 4.05754924e-01, 4.17542070e-01,
          3.59717369e-01, 0., 6.65559545e-02, 0., 4.17542070e-01,
          4.17542070e-01, 4.17542070e-01, 4.46215838e-01, 4.46215838e-01,
          0., 0., 0., 0., 4.46215838e-01, 4.46215838e-01, 4.46215838e-01,
          5.68702579e-01, 5.68702579e-01, 0., 0., 1.29375935e-01,
          8.46723467e-02, 1.20696379e-02, 0., 5.68702579e-01,
          4.62564439e-01, 4.62564439e-01, 0., 0., 4.62564439e-01,
          4.62564439e-01, 1.36842802e-01, 0., 3.47548991e-01,
          8.31576362e-02, 3.95958334e-01, 4.94710743e-01, 4.94710743e-01,
          4.94710743e-01, 1.99868694e-01, 1.81912139e-01, 1.04248248e-01,
          1.15054704e-01, 4.44791615e-01, 2.60014713e-01, 0., 0.,
          4.44791615e-01, 4.44791615e-01, 3.02347004e-01, 2.12549791e-01,
          4.44791615e-01, 1.61427662e-01, 1.44988865e-01, 0., 0.,
          6.24429166e-01, 6.24429166e-01, 4.01664257e-01, 0.,
          7.43457898e-02, 2.54515652e-03, 0., 0., 0., 6.60522342e-01,
          6.60522342e-01, 3.47582012e-01, 0., 2.54515652e-03, 0.,
          1.39562622e-01, 4.89740461e-01, 4.89740461e-01, 4.89740461e-01,
          4.89740461e-01, 1.27467081e-01, 0., 0., 0., 0., 0., 0.,
          6.76158786e-01, 6.76158786e-01, 2.80835509e-01, 0., 0., 0., 0.,
          0., 0., 6.58667445e-01, 6.58667445e-01, 3.54596496e-01, 0., 0.,
          0., 0., 0., 0., 6.89747751e-01, 6.89747751e-01, 2.03986928e-01,
          0., 0. ]
      - [ 4.70382422e-01, 2.94389218e-01, 1.53617218e-01, 0., 0., 0.,
          4.70382422e-01, 4.70382422e-01, 4.70382422e-01, 5.11294127e-01,
          5.11294127e-01, 0., 0., 0., 0., 3.39990437e-01, 3.08277547e-01,
          5.11294127e-01, 4.06679869e-01, 4.06679869e-01, 4.06679869e-01,
          6.00506142e-02, 0., 0., 4.06679869e-01, 4.06679869e-01,
          4.06679869e-01, 4.43420857e-01, 4.43420857e-01, 4.43420857e-01,
          1.06758863e-01, 0., 0., 3.26035358e-02, 4.43420857e-01,
          4.43420857e-01, 4.21317488e-01, 4.21317488e-01, 3.20830375e-01,
          0., 5.52630685e-02, 4.75702547e-02, 4.21317488e-01,
          4.21317488e-01, 4.21317488e-01, 4.22406882e-01, 4.22406882e-01,
          1.76999588e-02, 1.24170579e-01, 2.90680408e-01, 6.52715117e-02,
          4.22406882e-01, 4.22406882e-01, 4.21406060e-01, 4.24920231e-01,
          1.95259601e-01, 4.24920231e-01, 2.34185711e-01, 0., 0.,
          4.24920231e-01, 4.24920231e-01, 4.24920231e-01, 2.55854636e-01,
          4.11070198e-01, 4.11070198e-01, 4.11070198e-01, 0., 0.,
          4.11070198e-01, 4.04767334e-01, 3.01132083e-01, 1.50305077e-01,
          1.68897763e-01, 3.68161827e-01, 7.51353279e-02, 5.58653176e-01,
          5.58653176e-01, 3.92714530e-01, 5.13956696e-02, 1.45127326e-01,
          7.47085586e-02, 2.08221138e-01, 4.61216122e-01, 4.61216122e-01,
          4.61216122e-01, 4.61216122e-01, 2.80128866e-01, 9.80117023e-02,
          8.65796432e-02, 4.35489565e-01, 9.50396210e-02, 2.04850167e-01,
          4.35489565e-01, 4.35489565e-01, 0., 2.92152017e-01,
          3.17326635e-01, 4.35489565e-01, 3.79917175e-01, 3.44228089e-01,
          3.79917175e-01, 4.53252979e-02, 3.79917175e-01, 3.79917175e-01,
          3.79917175e-01, 9.81567055e-02, 3.79917175e-01, 0.,
          2.78822798e-02, 1.16044745e-01, 2.27281123e-01, 6.40913844e-01,
          6.40913844e-01, 3.25821459e-01, 0., 0., 0., 1.39408097e-01,
          5.39260268e-01, 5.39260268e-01, 5.39260268e-01, 3.17377627e-01,
          4.52406593e-02, 0., 0., 0., 8.07417370e-03, 9.27164853e-02,
          4.80505854e-01, 8.67064416e-01, 0., 0., 0., 0., 0., 0., 0., 0.,
          6.89716101e-01, 6.89716101e-01, 2.04201624e-01, 0., 0. ]
      - [ 0., 0., 0., 0., 0., 0., 0., 0., 0., 0., 0., 0., 0., 0., 0., 0.,
          0., 0., 4.50560868e-01, 4.67715353e-01, 4.67715353e-01, 0.,
          4.67715353e-01, 3.65158737e-01, 5.20516261e-02, 0., 0.,
          4.15652961e-01, 4.15652961e-01, 4.04453546e-01, 0.,
          4.15652961e-01, 4.15652961e-01, 3.38055164e-01, 5.70279621e-02,
          1.53825656e-01, 0., 0., 0., 0., 0., 0., 0., 0., 0., 0., 0., 0.,
          0., 0., 0., 0., 0., 0., 4.46749747e-01, 4.46749747e-01,
          4.46749747e-01, 0., 4.46749747e-01, 2.96581715e-01,
          1.79721400e-01, 4.58150357e-02, 2.73562759e-01, 3.94138783e-01,
          3.94138783e-01, 3.94138783e-01, 0., 3.94138783e-01,
          3.94138783e-01, 3.94138783e-01, 9.61310267e-02, 2.33985320e-01,
          4.83924627e-01, 2.81300902e-01, 4.83924627e-01, 2.22839549e-01,
          4.04759049e-01, 0., 0., 0., 4.83924627e-01, 4.74404246e-01,
          4.09890711e-01, 5.35410307e-02, 1.28402621e-01, 3.64306360e-01,
          0., 0., 4.74404246e-01, 4.74404246e-01, 3.91726524e-01,
          3.91726524e-01, 3.91726524e-01, 1.22472279e-01, 3.91726524e-01,
          2.23586727e-02, 2.44722888e-01, 3.91726524e-01, 3.91726524e-01,
          3.73619437e-01, 3.73619437e-01, 3.73619437e-01, 1.74910560e-01,
          3.73619437e-01, 3.73619437e-01, 3.73619437e-01, 1.67079344e-01,
          3.16558599e-01, 3.82089496e-01, 3.19876552e-01, 4.47668999e-01,
          4.47668999e-01, 4.47668999e-01, 0., 0., 0., 3.82089496e-01,
          4.69600827e-01, 2.47074440e-01, 1.14428520e-01, 2.74423569e-01,
          5.52148461e-01, 0., 0., 2.68500209e-01, 4.97547120e-01,
          4.35132653e-01, 9.78834704e-02, 1.50385335e-01, 6.98567778e-02,
          4.77861255e-01, 0., 4.41281378e-01, 3.42604548e-01,
          4.77861255e-01, 2.21255988e-01, 2.87679136e-01, 2.88977057e-01,
          4.31973130e-01, 4.31973130e-01, 4.31973130e-01, 4.31973130e-01,
          1.58844739e-01, 9.39616412e-02 ]
      - [ 4.29359734e-01, 4.29359734e-01, 2.41776899e-01, 0., 0.,
          1.24523364e-01, 4.29359734e-01, 4.29359734e-01, 4.29359734e-01,
          1.79211512e-01, 0., 0., 0., 0., 9.79251564e-02, 6.30941570e-01,
          6.30941570e-01, 3.94740492e-01, 7.04615593e-01, 0., 0., 0., 0.,
          0., 0., 0., 7.04615593e-01, 7.04615593e-01, 0., 0., 0., 0., 0.,
          0., 0., 7.04615593e-01, 3.80264193e-01, 3.80264193e-01,
          3.58602852e-01, 0., 0., 3.80264193e-01, 3.80264193e-01,
          3.80264193e-01, 3.80264193e-01, 5.53436935e-01, 5.53436935e-01,
          0., 0., 0., 1.12529323e-01, 2.27150455e-01, 1.06469832e-01,
          5.53436935e-01, 5.75688422e-01, 5.75688422e-01, 0., 0., 0., 0.,
          0., 0., 5.75688422e-01, 5.77162385e-01, 3.91106606e-01, 0., 0.,
          0., 0., 2.71538287e-01, 3.18286926e-01, 5.77162385e-01,
          3.86922032e-01, 3.39674562e-01, 3.86922032e-01, 5.11605665e-02,
          3.86922032e-01, 3.86922032e-01, 2.58775771e-01, 2.50260115e-01,
          3.86922032e-01, 5.14727116e-01, 2.73132294e-01, 0., 0.,
          5.14727116e-01, 3.50264549e-01, 4.99285348e-02, 1.57501269e-02,
          5.14727116e-01, 4.21296656e-01, 6.23407327e-02, 0., 0.,
          5.90710819e-01, 5.56901395e-01, 7.93836266e-02, 0.,
          3.83854151e-01, 1.24232858e-01, 3.74649726e-02, 0., 0.,
          5.70202291e-01, 5.70202291e-01, 5.40755570e-01, 1.46981820e-01,
          1.14835739e-01, 0., 3.30485068e-02, 1.23506479e-01,
          1.70899525e-01, 6.74761951e-01, 6.74761951e-01, 1.92622811e-01,
          0., 0., 0., 0., 0., 0., 8.99392247e-01, 4.22484308e-01,
          6.02231137e-02, 0., 0., 0., 0., 0., 0., 6.97261989e-01,
          6.97261989e-01, 1.43843964e-01, 0., 0., 0., 0., 0., 0.,
          7.83626735e-01, 6.08751655e-01, 8.67746398e-02, 0., 0. ]
      - [ 5.17236412e-01, 1.21950962e-01, 7.00024217e-02, 0., 0.,
          1.13035075e-01, 4.59680170e-01, 4.64663714e-01, 5.17236412e-01,
          4.92320538e-01, 0., 0., 0., 0., 1.59889728e-01, 4.92320538e-01,
          4.92320538e-01, 4.92320538e-01, 7.04615593e-01, 0., 0., 0., 0.,
          0., 0., 0., 7.04615593e-01, 5.58008611e-01, 5.58008611e-01, 0.,
          0., 0., 0., 0., 2.45574445e-01, 5.58008611e-01, 4.17342275e-01,
          2.16734633e-01, 2.79256344e-01, 0., 0., 4.17342275e-01,
          4.17342275e-01, 4.17342275e-01, 4.17342275e-01, 4.36111540e-01,
          4.36111540e-01, 0., 0., 0., 4.36111540e-01, 4.36111540e-01,
          2.11369768e-01, 4.36111540e-01, 5.75534642e-01, 5.75534642e-01,
          0., 0., 2.30771080e-02, 0., 0., 0., 5.75534642e-01,
          4.77192402e-01, 4.77192402e-01, 0., 0., 2.63578475e-01,
          5.48148304e-02, 3.84574085e-01, 3.02854151e-01, 4.77192402e-01,
          3.55025142e-01, 3.35911244e-01, 3.55025142e-01, 3.62868533e-02,
          3.55025142e-01, 3.55025142e-01, 3.55025142e-01, 3.55025142e-01,
          3.55025142e-01, 4.43393320e-01, 4.43393320e-01, 0., 0.,
          4.43393320e-01, 4.43393320e-01, 1.09881908e-01, 2.25530826e-02,
          4.43393320e-01, 4.29679304e-01, 2.09760681e-01, 0., 0.,
          5.60122192e-01, 5.60122192e-01, 2.14659125e-01, 0.,
          3.03694725e-01, 8.24403837e-02, 2.99863592e-02, 0., 0.,
          6.58521771e-01, 6.58521771e-01, 3.34115595e-01, 5.14170788e-02,
          6.44302443e-02, 0., 3.04660257e-02, 1.13855422e-01,
          1.57545075e-01, 6.80727482e-01, 6.80727482e-01, 1.66471720e-01,
          0., 0., 0., 0., 0., 0., 6.92017615e-01, 6.92017615e-01,
          1.87923208e-01, 0., 0., 0., 0., 0., 0., 6.84783220e-01,
          6.84783220e-01, 2.35176146e-01, 0., 0., 0., 0., 0., 0.,
          6.94495916e-01, 6.94495916e-01, 1.68576390e-01, 0., 0. ]
      - [ 4.98753130e-01, 0., 0., 0., 0., 0., 4.98753130e-01,
          4.98753130e-01, 4.98753130e-01, 3.68856341e-01, 6.13334961e-02,
          0., 0., 0., 0., 5.33807814e-01, 5.33807814e-01, 5.33807814e-01,
          5.75688422e-01, 5.75688422e-01, 0., 0., 0., 0., 0., 0.,
          5.75688422e-01, 5.75688422e-01, 5.75688422e-01, 0., 0., 0., 0.,
          0., 0., 5.75688422e-01, 2.08290875e-01, 4.06328700e-02, 0., 0.,
          4.39340323e-01, 4.39340323e-01, 4.39340323e-01, 4.39340323e-01,
          4.22487646e-01, 4.55940634e-01, 4.55940634e-01, 0., 0.,
          1.45906970e-01, 1.63305938e-01, 4.55940634e-01, 3.40530127e-01,
          4.55940634e-01, 5.41388273e-01, 5.41388273e-01, 0., 0.,
          1.85490757e-01, 3.47359836e-01, 4.95144762e-02, 0.,
          5.00873029e-01, 4.82252210e-01, 4.28365320e-01, 0., 0.,
          4.82252210e-01, 4.82252210e-01, 8.20207670e-02, 0.,
          3.27501774e-01, 4.59554583e-01, 6.97997510e-02, 2.65164170e-02,
          1.86020702e-01, 4.59554583e-01, 1.42048806e-01, 3.00485134e-01,
          4.59554583e-01, 4.59554583e-01, 4.35835034e-01, 4.35835034e-01,
          1.63153256e-03, 1.14456946e-02, 4.35835034e-01, 4.35835034e-01,
          1.91266447e-01, 9.57548022e-02, 4.35835034e-01, 1.01710528e-01,
          1.06899798e-01, 0., 0., 6.32532239e-01, 6.32532239e-01,
          4.12688106e-01, 0., 3.75053547e-02, 0., 0., 0., 0.,
          6.74318910e-01, 6.74318910e-01, 2.89579421e-01, 0., 0., 0., 0.,
          1.01031229e-01, 6.63988411e-01, 6.63988411e-01, 3.15250933e-01,
          4.49375175e-02, 0., 0., 0., 0., 1.10347113e-02, 7.74118379e-02,
          6.81688488e-01, 6.81688488e-01, 2.40171045e-01, 0., 0., 0., 0.,
          0., 0., 6.53022468e-01, 6.53022468e-01, 3.74971718e-01, 0., 0.,
          0., 0., 0., 0., 8.96035969e-01, 4.29455131e-01, 6.12167753e-02,
          0., 0. ]
      - [ 5.59808671e-01, 5.59808671e-01, 1.75114796e-01, 0.,
          1.53581694e-01, 0., 0., 0., 5.59808671e-01, 6.30282223e-01,
          4.04156111e-02, 0., 0., 4.44479704e-01, 0., 0., 0.,
          6.30282223e-01, 5.17143071e-01, 5.17143071e-01, 0., 0.,
          4.31165874e-01, 0., 0., 8.13658610e-02, 5.17143071e-01,
          5.00264347e-01, 1.31424800e-01, 0., 0., 1.77637890e-01, 0.,
          4.42021340e-01, 5.00264347e-01, 5.00264347e-01, 3.78372908e-01,
          3.33614647e-01, 2.94909418e-01, 0., 3.78372908e-01,
          3.78372908e-01, 3.78372908e-01, 2.86564410e-01, 3.78372908e-01,
          5.54034173e-01, 2.19387375e-03, 0., 0., 5.84202230e-01,
          1.77771777e-01, 2.53405143e-02, 1.20171998e-02, 5.59934139e-01,
          5.95034242e-01, 2.27092698e-01, 1.28581040e-02, 9.02035013e-02,
          5.95034242e-01, 0., 0., 0., 4.75451261e-01, 3.57293189e-01,
          3.57293189e-01, 3.57293189e-01, 3.57293189e-01, 3.57293189e-01,
          4.96771485e-02, 3.57293189e-01, 3.48993868e-01, 3.25906694e-01,
          3.51009041e-01, 1.28265649e-01, 3.51009041e-01, 3.51009041e-01,
          3.51009041e-01, 3.51009041e-01, 3.42913121e-01, 3.51009041e-01,
          3.51009041e-01, 5.69856346e-01, 0., 1.60646637e-03,
          1.12698469e-02, 5.69856346e-01, 1.38245180e-01, 1.97061878e-02,
          2.17090324e-02, 5.69856346e-01, 5.39125264e-01, 3.44509691e-01,
          1.59504276e-03, 1.11897085e-02, 5.39125264e-01, 6.12929910e-02,
          8.73702206e-03, 0., 5.39125264e-01, 4.30410445e-01,
          3.41652334e-01, 1.38883904e-01, 4.88641448e-02, 4.34776843e-01,
          4.34776843e-01, 4.34776843e-01, 2.03948796e-01, 2.51620889e-01,
          0., 3.85146253e-02, 3.34221989e-01, 5.37897587e-01,
          5.37897587e-01, 5.37897587e-01, 1.15927637e-01, 0., 0., 0., 0.,
          9.22007393e-03, 6.46816120e-02, 7.81221986e-01, 6.08363688e-01,
          8.67193267e-02, 0., 0., 0., 0., 0., 0., 9.89011467e-01,
          1.08405337e-01, 1.54526606e-02, 0., 0., 0., 0., 0., 0.,
          6.56410336e-01, 6.56410336e-01, 3.60149801e-01, 4.46076989e-02,
          0. ]
      - [ 5.65739155e-01, 5.65739155e-01, 1.97782461e-02, 0.,
          1.55560985e-01, 0., 0., 9.78667960e-02, 5.65739155e-01,
          5.60228288e-01, 0., 0., 0., 1.78519487e-01, 0., 1.44806817e-01,
          5.60228288e-01, 5.60228288e-01, 4.98753130e-01, 0., 0., 0., 0.,
          0., 4.98753130e-01, 4.98753130e-01, 4.98753130e-01,
          5.52685857e-01, 5.52685857e-01, 0., 0., 0., 0., 4.07395884e-02,
          2.76471168e-01, 5.52685857e-01, 3.84230703e-01, 2.61079103e-01,
          2.85620779e-01, 1.10845253e-01, 3.84230703e-01, 3.84230703e-01,
          3.84230703e-01, 3.09785664e-01, 3.84230703e-01, 3.88350219e-01,
          2.65997171e-01, 3.88350219e-01, 3.88350219e-01, 3.88350219e-01,
          2.01141790e-01, 2.28066459e-01, 2.80738294e-01, 3.88350219e-01,
          4.42074776e-01, 4.42074776e-01, 1.09388649e-01, 8.04210901e-02,
          0., 0., 4.42074776e-01, 4.42074776e-01, 4.42074776e-01,
          4.82664734e-01, 4.82664734e-01, 0., 0., 7.45494068e-02,
          5.36629707e-02, 4.33860362e-01, 3.15612584e-01, 4.82664734e-01,
          3.71596843e-01, 1.26815230e-01, 3.71596843e-01, 3.71596843e-01,
          3.71596843e-01, 2.60510892e-01, 3.16093326e-01, 3.49289924e-01,
          3.71596843e-01, 3.84516567e-01, 3.83869231e-01, 3.35354835e-01,
          3.84516567e-01, 3.84516567e-01, 3.70223492e-01, 8.21038634e-02,
          3.34910303e-02, 3.84516567e-01, 4.38440740e-01, 1.96013570e-01,
          9.52860191e-02, 2.16945000e-02, 4.87229109e-01, 4.87229109e-01,
          4.01681066e-01, 6.13449365e-02, 3.39170396e-01, 1.32022023e-01,
          8.50346163e-02, 0., 0., 6.19908452e-01, 6.19908452e-01,
          4.37183857e-01, 5.37996404e-02, 8.09493214e-02, 0.,
          4.40335236e-02, 3.08385849e-01, 6.69431150e-01, 6.69431150e-01,
          0., 0., 0., 0., 0., 0., 6.88790381e-02, 4.83207375e-01,
          6.02898359e-01, 6.02898359e-01, 1.69628084e-01, 0., 0., 0., 0.,
          0., 0., 6.74366653e-01, 6.74366653e-01, 2.89356083e-01, 0., 0.,
          0., 0., 0., 0., 6.84506714e-01, 6.84506714e-01, 2.36786559e-01,
          0., 0. ]
      - [ 5.69080532e-01, 4.77068685e-02, 1.43120602e-01, 0., 0., 0., 0.,
          5.69080532e-01, 5.69080532e-01, 5.75688422e-01, 0., 0., 0., 0.,
          0., 0., 5.75688422e-01, 5.75688422e-01, 4.98753130e-01,
          4.98753130e-01, 4.98753130e-01, 0., 0., 0., 0., 0.,
          4.98753130e-01, 4.73410606e-01, 4.73410606e-01, 4.49514352e-02,
          0., 0., 0., 3.11095536e-01, 4.73410606e-01, 4.73410606e-01,
          4.25594330e-01, 6.62593022e-02, 2.92755365e-01, 4.25594330e-01,
          4.25594330e-01, 0., 0., 4.25594330e-01, 4.25594330e-01,
          5.73099136e-01, 0., 6.53516641e-03, 4.58461717e-02,
          8.24909210e-02, 0., 0., 5.73099136e-01, 5.73099136e-01,
          4.07416642e-01, 4.07416642e-01, 4.07416642e-01, 4.07416642e-01,
          0., 0., 0., 4.07416642e-01, 4.07416642e-01, 3.87036473e-01,
          3.87036473e-01, 3.87036473e-01, 3.87036473e-01, 9.69837308e-02,
          0., 2.96553791e-01, 3.87036473e-01, 3.87036473e-01,
          3.70171890e-02, 3.29839764e-03, 3.70405227e-01, 6.52230740e-01,
          6.52230740e-01, 0., 0., 3.13160643e-02, 5.58259897e-02,
          1.88971221e-01, 0., 2.70800918e-01, 5.03739774e-01,
          5.03739774e-01, 0., 0., 4.25326377e-01, 4.44427282e-01,
          4.23610657e-01, 1.87728554e-01, 2.51588047e-01, 4.23610657e-01,
          4.23610657e-01, 0., 0., 4.23610657e-01, 4.23610657e-01,
          3.46566290e-01, 3.46566290e-01, 3.46566290e-01, 3.46566290e-01,
          3.46566290e-01, 3.46566290e-01, 3.46566290e-01, 2.55794555e-01,
          3.00581247e-01, 0., 0., 1.67027816e-01, 6.94682300e-01,
          6.94682300e-01, 0., 0., 0., 0., 0., 0., 3.32295090e-01,
          6.64434612e-01, 6.64434612e-01, 0., 0., 0., 0., 6.41599894e-02,
          0., 2.99524307e-01, 6.69093609e-01, 6.69093609e-01, 0., 0., 0.,
          6.41599894e-02, 2.03399602e-02, 0., 2.94762105e-02,
          2.06784546e-01, 5.50421476e-01, 5.50421476e-01, 5.50421476e-01,
          2.02868789e-01, 2.03399602e-02 ]
      - [ 5.62767267e-01, 1.82455882e-01, 1.04733527e-01, 0., 0., 0., 0.,
          5.62767267e-01, 5.62767267e-01, 5.75688422e-01, 0., 0., 0., 0.,
          0., 0., 5.75688422e-01, 5.75688422e-01, 6.42895401e-01,
          6.42895401e-01, 3.39974195e-01, 0., 0., 0., 0., 0.,
          2.26649478e-01, 4.98296887e-01, 4.98296887e-01, 7.67040206e-03,
          0., 0., 0., 4.20155488e-02, 4.98296887e-01, 4.98296887e-01,
          4.01687473e-01, 1.07842296e-01, 3.53106707e-01, 4.17779654e-01,
          4.17779654e-01, 0., 0., 4.17779654e-01, 4.17779654e-01,
          5.73494256e-01, 0., 6.01693429e-03, 4.22106199e-02,
          7.59494826e-02, 0., 0., 5.73494256e-01, 5.73494256e-01,
          3.77251565e-01, 3.77251565e-01, 3.77251565e-01, 3.77251565e-01,
          3.77251565e-01, 0., 0., 3.77251565e-01, 3.77251565e-01,
          3.69250119e-01, 3.69250119e-01, 3.69250119e-01, 3.69250119e-01,
          3.69250119e-01, 0., 2.04674035e-01, 3.69250119e-01,
          3.69250119e-01, 1.23573178e-02, 3.30719794e-03, 3.71393472e-01,
          6.53818309e-01, 6.53818309e-01, 0., 0., 9.56310611e-03,
          1.81010328e-02, 1.34649515e-01, 0., 3.06833327e-01,
          5.61407208e-01, 5.61407208e-01, 0., 0., 3.59167755e-01,
          3.50369960e-01, 4.09194142e-01, 2.28848174e-01, 3.26100409e-01,
          4.09194142e-01, 4.09194142e-01, 0., 0., 4.09194142e-01,
          4.09194142e-01, 3.59797120e-01, 3.59797120e-01, 3.59797120e-01,
          1.57781392e-01, 3.59797120e-01, 3.59797120e-01, 3.59797120e-01,
          2.74251699e-01, 3.45792562e-01, 0., 0., 1.67027816e-01,
          6.94682300e-01, 6.94682300e-01, 0., 0., 0., 0., 0., 0.,
          3.32295090e-01, 6.64434612e-01, 6.64434612e-01, 0., 0., 0., 0.,
          3.52337062e-02, 0., 3.00465673e-01, 6.71021104e-01,
          6.71021104e-01, 0., 0., 0., 3.52337062e-02, 1.95961818e-02, 0.,
          3.14176716e-02, 2.20404506e-01, 6.13625467e-01, 6.13625467e-01,
          4.31451142e-01, 6.57084063e-02, 1.95961818e-02 ]
      - [ 5.44837177e-01, 5.44837177e-01, 0., 0., 0., 0., 0.,
          3.22515696e-01, 5.44837177e-01, 5.40167034e-01, 3.45346689e-01,
          0., 0., 0., 0., 0., 5.40167034e-01, 5.40167034e-01,
          6.82875812e-01, 2.43173003e-01, 0., 0., 0., 0., 0.,
          3.75640616e-02, 6.82875812e-01, 5.75688422e-01, 0., 0., 0., 0.,
          0., 0., 5.75688422e-01, 5.75688422e-01, 4.07465190e-01,
          1.81640178e-01, 1.31235328e-02, 9.20655653e-02, 4.07465190e-01,
          4.07465190e-01, 4.07465190e-01, 3.52347434e-01, 4.07465190e-01,
          3.70626748e-01, 3.70626748e-01, 3.70626748e-01, 3.70626748e-01,
          3.70626748e-01, 1.38998285e-01, 2.34482571e-01, 3.12745094e-01,
          3.70626748e-01, 4.77602094e-01, 1.48121476e-01, 4.31244075e-02,
          7.95614868e-02, 4.77602094e-01, 3.60451013e-01, 2.57131219e-01,
          2.91114092e-01, 4.77602094e-01, 3.97901505e-01, 3.97901505e-01,
          3.97901505e-01, 3.97901505e-01, 3.97901505e-01, 0., 0.,
          2.14642569e-01, 3.97901505e-01, 3.95281792e-01, 6.28130287e-02,
          8.08968246e-02, 3.95281792e-01, 3.95281792e-01, 2.37209097e-01,
          3.84778857e-01, 3.95281792e-01, 3.95281792e-01, 3.54194701e-01,
          3.54194701e-01, 3.54194701e-01, 3.54194701e-01, 3.54194701e-01,
          3.54194701e-01, 2.31064782e-01, 2.54741162e-01, 3.54194701e-01,
          4.30880636e-01, 4.07258034e-01, 4.69363555e-02, 1.40063956e-01,
          4.30880636e-01, 1.62152827e-01, 1.97711363e-01, 4.30880636e-01,
          4.30880636e-01, 4.05529797e-01, 4.05529797e-01, 4.05529797e-01,
          2.15736583e-01, 4.05529797e-01, 3.52990955e-01, 5.03171682e-02,
          0., 4.05529797e-01, 0., 0., 1.71973750e-01, 6.88229740e-01,
          6.88229740e-01, 1.26138493e-01, 1.79804377e-02, 0., 0., 0., 0.,
          1.07407041e-01, 5.64177692e-01, 5.64177692e-01, 5.64177692e-01,
          1.67154223e-01, 0., 0., 2.46951357e-02, 0., 7.23322481e-02,
          5.07432640e-01, 8.51232231e-01, 5.39505854e-02, 7.69039802e-03,
          0., 2.46951357e-02, 1.92661572e-03, 0., 0., 0., 6.95435882e-01,
          6.95435882e-01, 1.60587206e-01, 0., 1.92661572e-03 ]
      - [ 5.75688422e-01, 5.75688422e-01, 0., 0., 0., 0., 0., 0.,
          5.75688422e-01, 5.75688422e-01, 5.75688422e-01, 0., 0., 0., 0.,
          0., 0., 5.75688422e-01, 6.53650701e-01, 3.63492906e-01, 0., 0.,
          8.26354995e-02, 0., 0., 0., 6.53650701e-01, 5.66816688e-01, 0.,
          0., 0., 1.69929340e-01, 0., 4.02562059e-02, 5.66816688e-01,
          5.66816688e-01, 5.86193681e-01, 5.86193681e-01, 0., 0.,
          7.15043694e-02, 0., 0., 0., 5.49352169e-01, 4.90195423e-01,
          4.90195423e-01, 0., 0., 3.13989490e-01, 1.23434685e-01,
          3.74686420e-01, 1.41470820e-01, 4.90195423e-01, 4.34786290e-01,
          1.86814159e-01, 6.46421388e-02, 1.06674328e-01, 4.34786290e-01,
          4.34786290e-01, 4.34786290e-01, 1.92271203e-01, 3.89967620e-01,
          3.33575398e-01, 3.33575398e-01, 3.33575398e-01, 3.33575398e-01,
          3.33575398e-01, 3.33575398e-01, 3.33575398e-01, 3.33575398e-01,
          3.26322854e-01, 4.57052529e-01, 4.57052529e-01, 1.77501947e-01,
          1.79431662e-01, 4.57052529e-01, 4.57052529e-01, 2.70987928e-01,
          0., 1.50696993e-01, 6.65484667e-02, 1.38652191e-01,
          4.44633067e-01, 4.44633067e-01, 4.44633067e-01, 4.44633067e-01,
          3.78526628e-01, 1.68073788e-01, 9.78782550e-02, 4.00716871e-01,
          2.95599818e-01, 1.22444026e-01, 2.31033191e-01, 4.00716871e-01,
          1.93335265e-01, 4.00716871e-01, 4.00716871e-01, 4.00716871e-01,
          4.26694542e-01, 4.26694542e-01, 4.02024478e-01, 4.43561077e-02,
          1.23616055e-01, 4.26694542e-01, 4.26694542e-01, 9.60578248e-02,
          2.81718850e-01, 0., 2.76600979e-02, 1.19182117e-01,
          2.53966808e-01, 6.36280000e-01, 6.36280000e-01, 3.23225111e-01,
          0., 0., 8.21454637e-03, 1.83781177e-01, 5.56298196e-01,
          5.56298196e-01, 5.56298196e-01, 1.77458435e-01, 2.52958480e-02,
          0., 8.21454637e-03, 7.26590976e-02, 1.43773127e-02,
          1.27385482e-01, 5.91064095e-01, 7.74882793e-01, 1.23147786e-01,
          1.75541267e-02, 0., 7.26590976e-02, 2.50529479e-02, 0., 0., 0.,
          6.52431726e-01, 6.52431726e-01, 3.75362188e-01, 0.,
          2.50529479e-02 ]
      - [ 5.24959981e-01, 5.24959981e-01, 1.71559066e-01, 0.,
          2.08692085e-02, 0., 0., 3.71672392e-01, 5.24959981e-01,
          5.06150424e-01, 4.46783066e-01, 0., 0., 9.02006477e-02, 0.,
          1.36487156e-01, 5.06150424e-01, 5.06150424e-01, 4.98355925e-01,
          3.98533456e-02, 0., 0., 0., 0., 4.98355925e-01, 4.98355925e-01,
          4.98355925e-01, 5.41576505e-01, 5.41576505e-01, 0., 0., 0., 0.,
          1.21236965e-01, 3.16192716e-01, 5.41576505e-01, 2.97733605e-01,
          3.75379056e-01, 3.15585464e-01, 0., 3.75379056e-01,
          3.75379056e-01, 3.75379056e-01, 3.75379056e-01, 3.21656764e-01,
          3.56579989e-01, 3.56579989e-01, 3.56579989e-01, 3.56579989e-01,
          3.56579989e-01, 3.19573879e-01, 2.02033401e-01, 3.00992966e-01,
          3.56579989e-01, 4.41438049e-01, 4.41438049e-01, 1.16524927e-01,
          8.56676027e-02, 1.83252394e-02, 0., 4.41438049e-01,
          4.41438049e-01, 4.41438049e-01, 4.28115368e-01, 4.28115368e-01,
          0., 0., 2.85270661e-01, 3.19413781e-01, 4.28115368e-01,
          2.81403214e-01, 4.28115368e-01, 3.57623070e-01, 3.57216835e-01,
          3.57623070e-01, 3.57623070e-01, 3.57623070e-01, 1.66420117e-01,
          2.71591485e-01, 3.57623070e-01, 3.57623070e-01, 4.02835608e-01,
          4.02835608e-01, 2.95796812e-01, 2.46748760e-01, 4.02835608e-01,
          4.02835608e-01, 7.95101300e-02, 1.72888562e-01, 4.02835608e-01,
          2.29401603e-01, 1.18649639e-01, 9.83981714e-02, 2.24030670e-02,
          6.06305003e-01, 6.06305003e-01, 3.67374390e-01, 6.25936985e-02,
          2.07282379e-01, 6.21775053e-02, 3.19164470e-02, 0., 0.,
          6.37624681e-01, 6.37624681e-01, 4.15944666e-01, 2.40730606e-02,
          4.50462475e-02, 3.06478031e-02, 3.90492938e-02, 3.38861734e-01,
          6.61500335e-01, 6.61500335e-01, 0., 0., 0., 3.06478031e-02,
          1.90002229e-02, 0., 7.74733396e-03, 5.43498956e-02,
          6.88287497e-01, 6.88287497e-01, 2.04728290e-01, 0.,
          1.90002229e-02, 0., 0., 0., 0., 6.60593808e-01, 6.60593808e-01,
          3.47327858e-01, 0., 0., 0., 0., 0., 0., 6.78460300e-01,
          6.78460300e-01, 2.69462764e-01, 0., 0. ]
      - [ 4.46765959e-01, 4.21282917e-01, 1.40210077e-01, 0., 0., 0.,
          4.46765959e-01, 4.46765959e-01, 4.46765959e-01, 4.89133656e-01,
          4.89133656e-01, 0., 0., 0., 0., 2.46025965e-01, 4.65650856e-01,
          4.89133656e-01, 4.06774342e-01, 4.06774342e-01, 4.06774342e-01,
          5.60726039e-02, 0., 0., 4.06774342e-01, 4.06774342e-01,
          4.06774342e-01, 4.40851897e-01, 4.40851897e-01, 4.40851897e-01,
          1.09039515e-01, 0., 0., 1.09337732e-01, 4.40851897e-01,
          4.40851897e-01, 4.20424998e-01, 4.20424998e-01, 3.26362610e-01,
          0., 5.62159978e-02, 4.83905300e-02, 4.20424998e-01,
          4.20424998e-01, 4.20424998e-01, 4.06268567e-01, 4.06268567e-01,
          2.26214547e-02, 1.58696368e-01, 3.71504456e-01, 8.34203362e-02,
          4.06268567e-01, 4.06268567e-01, 4.06268567e-01, 4.37405169e-01,
          1.93176642e-01, 3.72253388e-01, 2.33340621e-01, 0., 0.,
          4.37405169e-01, 4.37405169e-01, 4.37405169e-01, 3.92902821e-01,
          3.92902821e-01, 3.92902821e-01, 3.92902821e-01, 0., 0.,
          3.92902821e-01, 2.73038417e-01, 3.86861384e-01, 1.12335898e-01,
          1.53243005e-01, 3.74610066e-01, 7.64512941e-02, 5.67274868e-01,
          5.67274868e-01, 3.99592787e-01, 1.04492363e-02, 9.31129977e-02,
          3.74836698e-02, 2.01220006e-01, 4.77868050e-01, 4.77868050e-01,
          4.77868050e-01, 4.77868050e-01, 1.90422654e-01, 4.05125245e-02,
          4.47120853e-02, 4.61850077e-01, 8.51338878e-02, 2.91704535e-01,
          4.61850077e-01, 4.61850077e-01, 0., 1.31801054e-01,
          1.80149749e-01, 4.61850077e-01, 4.41902936e-01, 1.76276654e-01,
          1.67409733e-01, 5.89005128e-02, 4.41902936e-01, 4.41902936e-01,
          4.41902936e-01, 1.27555266e-01, 3.68285269e-01, 0.,
          2.78822798e-02, 1.16044745e-01, 2.27281123e-01, 6.40913844e-01,
          6.40913844e-01, 3.25821459e-01, 0., 0., 0., 1.67790025e-01,
          5.22094965e-01, 5.22094965e-01, 5.22094965e-01, 3.81992131e-01,
          5.44511490e-02, 0., 0., 0., 7.35142035e-03, 1.29872546e-01,
          6.98607624e-01, 6.98607624e-01, 0., 0., 0., 0., 0., 0., 0., 0.,
          6.89716101e-01, 6.89716101e-01, 2.04201624e-01, 0., 0. ]
      - [ 5.60037494e-01, 5.27566791e-01, 2.97988087e-01, 0., 0., 0., 0.,
          0., 5.60037494e-01, 7.02606976e-01, 0., 0., 0., 0., 0., 0.,
          7.53203332e-02, 7.02606976e-01, 5.68045855e-01, 0., 0., 0., 0.,
          0., 1.62170321e-01, 5.68045855e-01, 5.68045855e-01,
          5.27033865e-01, 5.27033865e-01, 3.65048110e-01, 0., 0., 0.,
          8.69100988e-02, 1.43628329e-01, 5.27033865e-01, 4.02343601e-01,
          4.02343601e-01, 4.02343601e-01, 0., 4.02343601e-01,
          2.27256060e-01, 3.51586342e-01, 1.06397353e-01, 4.02343601e-01,
          5.62631786e-01, 2.99424976e-02, 1.09620154e-01, 1.38851479e-01,
          5.62631786e-01, 7.43218586e-02, 5.24023995e-02, 6.52345270e-02,
          5.62631786e-01, 2.05644071e-01, 8.01527873e-02, 2.60292947e-01,
          1.39145523e-01, 3.78993273e-01, 0., 4.88418579e-01,
          4.88418579e-01, 4.88418579e-01, 4.59792256e-01, 5.32494426e-01,
          5.32494426e-01, 0., 0., 0., 4.09731537e-01, 1.93023786e-01,
          1.05045781e-01, 9.36227199e-03, 2.96377420e-01, 4.03161377e-01,
          4.03161377e-01, 3.57672215e-01, 2.05685362e-01, 4.03161377e-01,
          4.03161377e-01, 2.96062112e-01, 2.37709939e-01, 4.20310408e-01,
          4.20310408e-01, 2.26343498e-01, 4.20310408e-01, 8.83963332e-02,
          4.20310408e-01, 3.96758556e-01, 1.27237096e-01, 3.73891562e-01,
          3.73891562e-01, 3.73891562e-01, 1.72488481e-01, 3.57411116e-01,
          0., 3.73891562e-01, 3.73891562e-01, 3.73891562e-01,
          4.72250313e-01, 4.72250313e-01, 4.72250313e-01, 0.,
          8.48715603e-02, 0., 2.44709477e-01, 1.90041348e-01,
