%YAML:1.0
---
opencv_ml_svm:
   format: 3
   svmType: C_SVC
   kernel:
      type: RBF
      gamma: 5.0625000000000009e-01
   C: 2.5000000000000000e+00
   term_criteria: { epsilon:1.1920928955078125e-07, iterations:1000 }
   var_count: 144
   class_count: 15
   class_labels: !!opencv-matrix
      rows: 15
      cols: 1
      dt: i
      data: [ 0, 1, 2, 3, 4, 5, 6, 7, 8, 9, 10, 11, 12, 13, 14 ]
   sv_total: 1112
   support_vectors:
      - [ 4.46215838e-01, 4.46215838e-01, 0., 0., 0., 0., 4.46215838e-01,
          4.46215838e-01, 4.46215838e-01, 1.77920982e-01, 0., 0., 0., 0.,
          0., 6.35772169e-01, 6.35772169e-01, 3.91897887e-01, 0., 0., 0.,
          0., 0., 0., 0., 0., 0., 0., 0., 0., 0., 0., 0., 0., 0., 0.,
          4.00727451e-01, 5.53720035e-02, 0., 0., 0., 0., 5.26337981e-01,
          5.26337981e-01, 5.26337981e-01, 5.52156031e-01, 0., 0., 0., 0.,
          0., 5.38111627e-01, 3.08495343e-01, 5.52156031e-01,
          5.75688422e-01, 5.75688422e-01, 0., 0., 0., 0., 0., 0.,
          5.75688422e-01, 6.61007345e-01, 3.45745206e-01, 0., 0., 0., 0.,
          0., 0., 6.61007345e-01, 4.46215838e-01, 0., 0., 0.,
          4.46215838e-01, 0., 4.46215838e-01, 4.46215838e-01,
          4.46215838e-01, 5.73619008e-01, 0., 0., 0., 5.73619008e-01, 0.,
          4.09299918e-02, 7.40316510e-02, 5.73619008e-01, 5.13659477e-01,
          2.94747591e-01, 0., 0., 5.13659477e-01, 3.37841064e-01,
          4.81576249e-02, 0., 5.13659477e-01, 5.55758297e-01,
          1.70261636e-01, 0., 0., 5.55758297e-01, 1.95154682e-01,
          2.78183632e-02, 0., 5.55758297e-01, 0., 0., 0., 0.,
          9.95024860e-01, 0., 0., 0., 0., 0., 0., 0., 0., 9.95024860e-01,
          0., 0., 0., 0., 0., 0., 0., 0., 7.01206505e-01, 7.00946689e-01,
          9.99165922e-02, 0., 0., 0., 0., 0., 0., 7.86749840e-01,
          6.04765356e-01, 8.62063989e-02, 0., 0. ]
      - [ 5.75688422e-01, 5.75688422e-01, 0., 0., 0., 0., 0., 0.,
          5.75688422e-01, 5.75456858e-01, 5.75456858e-01, 0., 0.,
          2.83195619e-02, 0., 0., 0., 5.75456858e-01, 5.44513345e-01,
          5.44513345e-01, 0., 0., 2.76360929e-01, 0., 1.09957427e-01,
          1.28887936e-01, 5.44513345e-01, 4.97810990e-01, 4.63641100e-02,
          0., 0., 4.01912592e-02, 0., 4.97810990e-01, 4.97810990e-01,
          4.97810990e-01, 4.42149848e-01, 4.42149848e-01, 1.10802889e-01,
          2.83728894e-02, 4.42149848e-01, 4.42149848e-01, 7.08426535e-02,
          0., 4.42149848e-01, 3.71456832e-01, 3.71456832e-01,
          2.88782090e-01, 2.68811494e-01, 3.71456832e-01, 3.71456832e-01,
          3.71456832e-01, 1.12929240e-01, 3.71456832e-01, 3.63064855e-01,
          3.37382406e-01, 3.01712453e-01, 3.49386156e-01, 3.63064855e-01,
          3.63064855e-01, 3.63064855e-01, 1.01804800e-01, 3.63064855e-01,
          2.72503078e-01, 1.89453423e-01, 3.50634247e-01, 1.40051544e-01,
          1.72500521e-01, 0., 4.87396568e-01, 4.87396568e-01,
          4.87396568e-01, 2.39900965e-02, 4.74762358e-02, 1.31669745e-01,
          1.97426140e-01, 6.59808338e-01, 6.59808338e-01, 2.51619965e-01,
          0., 1.62019394e-02, 9.34417099e-02, 4.69189554e-01,
          4.69189554e-01, 4.69189554e-01, 4.69189554e-01, 2.74142057e-01,
          1.44584715e-01, 3.51690240e-02, 9.34417099e-02, 4.36553299e-01,
          1.93572268e-01, 4.14868802e-01, 4.36553299e-01, 4.36553299e-01,
          1.22390024e-01, 9.03737098e-02, 2.43091993e-02, 4.36553299e-01,
          2.34125555e-01, 5.70629165e-02, 1.17315516e-01, 2.75525272e-01,
          4.11858618e-01, 4.11858618e-01, 4.11858618e-01, 4.11858618e-01,
          4.11858618e-01, 0., 0., 0., 0., 9.95024860e-01, 0., 0., 0., 0.,
          0., 2.54922777e-01, 5.56613564e-01, 5.56613564e-01,
          5.56613564e-01, 0., 0., 0., 0., 0., 1.32847317e-02,
          1.83320448e-01, 6.84394062e-01, 6.84394062e-01, 1.48810148e-01,
          2.12121736e-02, 0., 0., 0., 0., 7.17645437e-02, 5.03449976e-01,
          5.85496485e-01, 5.85496485e-01, 2.23261192e-01, 9.14791133e-03,
          0. ]
      - [ 4.01845694e-01, 1.43181816e-01, 4.01845694e-01, 4.01845694e-01,
          4.01845694e-01, 0., 2.83108473e-01, 2.96537280e-01,
          4.01845694e-01, 4.28287119e-01, 2.17181563e-01, 2.88336217e-01,
          3.29344213e-01, 4.28287119e-01, 0., 1.52410343e-01,
          4.28287119e-01, 4.28287119e-01, 4.76893187e-01, 4.76893187e-01,
          1.19764499e-01, 4.05671410e-02, 2.13001028e-01, 1.53909624e-01,
          2.19390783e-02, 4.76893187e-01, 4.76893187e-01, 4.15616482e-01,
          4.15616482e-01, 0., 0., 3.50241810e-01, 4.15616482e-01,
          4.15616482e-01, 9.74353552e-02, 4.15616482e-01, 4.20944452e-01,
          3.10811907e-01, 4.20944452e-01, 4.20944452e-01, 4.20944452e-01,
          0., 8.19049105e-02, 1.39945820e-01, 4.05118197e-01,
          3.71196955e-01, 3.71196955e-01, 3.71196955e-01, 3.71196955e-01,
          3.71196955e-01, 1.72219023e-01, 1.51266232e-01, 3.42093110e-01,
          3.71196955e-01, 3.67213011e-01, 1.67771161e-01, 1.31595328e-01,
          5.94783239e-02, 3.37283015e-01, 4.17797536e-01, 4.17797536e-01,
          4.17797536e-01, 4.17797536e-01, 4.61849749e-01, 1.35453522e-01,
          0., 0., 4.61849749e-01, 4.61849749e-01, 3.24855745e-01,
          1.35229871e-01, 4.61849749e-01, 3.84487629e-01, 3.84487629e-01,
          3.84487629e-01, 1.40657097e-01, 3.84487629e-01, 3.56174171e-01,
          3.19866925e-01, 8.96986648e-02, 3.84487629e-01, 4.06989157e-01,
          4.06989157e-01, 1.92799270e-01, 1.61705479e-01, 4.06989157e-01,
          4.06989157e-01, 3.19097698e-01, 5.08907549e-02, 4.06989157e-01,
          3.41160744e-01, 3.41160744e-01, 3.41160744e-01, 3.41160744e-01,
          3.41160744e-01, 3.41160744e-01, 2.55863249e-01, 3.41160744e-01,
          3.41160744e-01, 4.37550217e-01, 2.00527638e-01, 5.30017205e-02,
          3.71823132e-01, 2.14772135e-01, 4.92790565e-02, 4.37550217e-01,
          4.37550217e-01, 4.37550217e-01, 2.10231811e-01, 2.50329375e-01,
          2.10664153e-01, 5.01120150e-01, 5.24393260e-01, 5.24393260e-01,
          1.83388755e-01, 3.30290608e-02, 8.77559707e-02, 4.65575755e-01,
          1.78116217e-01, 1.07221249e-02, 3.88074741e-02, 5.36720216e-01,
          5.36720216e-01, 1.96625784e-01, 1.98885519e-02, 3.59636366e-01,
          1.53703228e-01, 1.00590587e-01, 2.17516840e-01, 5.38323343e-01,
          5.38323343e-01, 5.38323343e-01, 1.83756396e-01, 0.,
          1.02102041e-01, 3.87085509e-03, 0., 2.82197326e-01,
          4.70760494e-01, 4.70760494e-01, 2.11574417e-02, 4.70760494e-01,
          4.66154188e-01, 1.81807667e-01 ]
      - [ 5.75527310e-01, 5.75527310e-01, 2.36242730e-02, 0., 0., 0., 0.,
          0., 5.75527310e-01, 6.93748295e-01, 1.53099939e-01, 0., 0.,
          8.40335414e-02, 0., 0., 0., 6.93748295e-01, 5.41203916e-01,
          5.41203916e-01, 0., 0., 3.27949435e-01, 0., 0., 9.13203433e-02,
          5.41203916e-01, 4.97965902e-01, 4.23843190e-02, 0., 0.,
          3.67413312e-02, 0., 4.97965902e-01, 4.97965902e-01,
          4.97965902e-01, 4.89354104e-01, 2.93882281e-01, 1.74951047e-01,
          1.07073955e-01, 4.96824235e-01, 4.96824235e-01, 1.20684288e-01,
          0., 3.44815344e-01, 3.57250512e-01, 1.27541140e-01,
          3.99633586e-01, 3.85455400e-01, 4.31518465e-01, 2.55462021e-01,
          2.69972444e-01, 2.00234026e-01, 4.23159629e-01, 4.30286795e-01,
          3.27194184e-01, 3.23042810e-01, 3.72445464e-01, 4.30286795e-01,
          2.36753181e-01, 9.87207219e-02, 1.55998126e-01, 4.30286795e-01,
          2.03216136e-01, 1.99233204e-01, 3.68734360e-01, 1.47281155e-01,
          1.81405172e-01, 0., 5.41337252e-01, 5.41337252e-01,
          3.70063156e-01, 0., 9.84819047e-03, 4.99229319e-02,
          1.42960384e-01, 6.87077343e-01, 6.87077343e-01, 1.61132306e-01,
          0., 0., 1.16024323e-01, 4.87814993e-01, 4.87814993e-01,
          4.87814993e-01, 4.87814993e-01, 4.16293778e-02, 3.41860168e-02,
          6.61669225e-02, 1.50108799e-01, 4.43826884e-01, 1.51404962e-01,
          4.25677508e-01, 4.43826884e-01, 4.43826884e-01, 2.43073795e-02,
          1.01356283e-02, 5.30961081e-02, 4.43826884e-01, 3.61050010e-01,
          5.74878268e-02, 1.36317685e-01, 3.75057459e-01, 3.75057459e-01,
          3.75057459e-01, 3.75057459e-01, 3.75057459e-01, 3.75057459e-01,
          0., 0., 0., 0., 0., 0., 0., 0., 0., 0., 1.35774985e-01,
          5.35341322e-01, 5.86989582e-01, 5.86989582e-01, 0., 0., 0., 0.,
          0., 2.26377998e-03, 3.69254351e-01, 6.54641330e-01,
          6.54641330e-01, 0., 0., 0., 0., 0., 0., 1.16218366e-01,
          5.50892472e-01, 5.50892472e-01, 5.50892472e-01, 2.64283627e-01,
          2.64333989e-02, 0. ]
      - [ 5.75528145e-01, 5.75528145e-01, 2.35615242e-02, 0., 0., 0., 0.,
          0., 5.75528145e-01, 5.75557649e-01, 5.75557649e-01, 0., 0.,
          2.12789476e-02, 0., 0., 0., 5.75557649e-01, 6.28950357e-01,
          4.20239046e-02, 0., 0., 3.02052528e-01, 0., 0., 3.31000865e-01,
          6.28950357e-01, 5.67441344e-01, 0., 0., 0., 3.91645283e-02, 0.,
          1.63801149e-01, 5.67441344e-01, 5.67441344e-01, 4.18647915e-01,
          4.09773737e-01, 3.25801581e-01, 7.67549351e-02, 4.18647915e-01,
          4.18647915e-01, 1.21659666e-01, 0., 4.18647915e-01,
          2.46622860e-01, 2.96912730e-01, 3.87223393e-01, 3.87223393e-01,
          3.87223393e-01, 3.87223393e-01, 3.87223393e-01, 2.22967908e-01,
          2.18465328e-01, 3.51893008e-01, 2.05867216e-02, 1.48997381e-01,
          3.81376117e-01, 3.81376117e-01, 3.81376117e-01, 3.81376117e-01,
          3.49997908e-01, 3.81376117e-01, 2.18126774e-01, 2.11379752e-01,
          3.88128370e-01, 3.88128370e-01, 3.88128370e-01, 0.,
          3.88128370e-01, 3.88128370e-01, 3.88128370e-01, 0.,
          4.62658256e-02, 1.61702320e-01, 1.60684213e-01, 6.70448720e-01,
          6.70448720e-01, 2.00490028e-01, 0., 0., 4.32808064e-02,
          4.83365983e-01, 4.83365983e-01, 4.83365983e-01, 4.83365983e-01,
          1.14465401e-01, 1.75763801e-01, 9.87051427e-02, 7.06423000e-02,
          3.96204025e-01, 8.60079527e-02, 3.78123850e-01, 3.96204025e-01,
          3.96204025e-01, 4.27853875e-02, 2.42792323e-01, 3.96204025e-01,
          3.96204025e-01, 3.63010615e-01, 2.83252388e-01, 3.63010615e-01,
          2.22187340e-01, 2.75887698e-01, 3.63010615e-01, 3.63010615e-01,
          3.63010615e-01, 3.63010615e-01, 0., 0., 0., 0., 0., 0., 0., 0.,
          0., 0., 2.46976718e-01, 5.57802916e-01, 5.57802916e-01,
          5.57802916e-01, 0., 0., 0., 0., 5.66140842e-03, 8.09951220e-03,
          3.21662515e-01, 6.66987538e-01, 6.66987538e-01, 0., 0., 0.,
          5.66140842e-03, 2.36817114e-02, 0., 3.28584500e-02,
          2.30511978e-01, 6.54324770e-01, 6.54324770e-01, 2.86029696e-01,
          5.96793508e-03, 2.36817114e-02 ]
      - [ 6.09774649e-01, 0., 0., 0., 0., 0., 3.99122715e-01,
          3.01599532e-01, 6.09774649e-01, 6.60550535e-01, 3.47493351e-01,
          0., 0., 0., 0., 0., 0., 6.60550535e-01, 6.37431383e-01,
          9.85339358e-02, 0., 0., 0., 0., 0., 4.13871408e-01,
          6.37431383e-01, 6.39860272e-01, 4.16682780e-01, 0., 0., 0., 0.,
          0., 3.38351093e-02, 6.39860272e-01, 6.83468461e-01, 0., 0., 0.,
          0., 0., 2.08130389e-01, 1.24901786e-01, 6.83468461e-01,
          6.47486746e-01, 3.93773407e-01, 0., 0., 0., 0., 0., 0.,
          6.47486746e-01, 5.91571331e-01, 1.25618830e-01, 0., 0., 0., 0.,
          0., 5.27635932e-01, 5.91571331e-01, 5.99718690e-01,
          5.22386491e-01, 0., 0., 0., 0., 0., 4.24183682e-02,
          5.99718690e-01, 0., 0., 0., 0., 9.95024860e-01, 0., 0., 0., 0.,
          0., 0., 0., 0., 9.95024860e-01, 0., 0., 0., 0., 0., 0., 0., 0.,
          9.95024860e-01, 0., 0., 0., 0., 0., 0., 0., 0., 9.95024860e-01,
          0., 0., 0., 0., 0., 0., 0., 0., 9.95024860e-01, 0., 0., 0., 0.,
          0., 0., 0., 0., 9.95024860e-01, 0., 0., 0., 0., 0., 0., 0., 0.,
          9.95024860e-01, 0., 0., 0., 0., 0., 0., 0., 0., 9.95024860e-01,
          0., 0., 0., 0. ]
      - [ 6.75637245e-01, 0., 0., 0., 2.83343673e-01, 0., 0., 0.,
          6.75637245e-01, 6.42138541e-01, 0., 0., 0., 4.10980731e-01, 0.,
          0., 0., 6.42138541e-01, 6.71158671e-01, 0., 0., 0.,
          2.85405457e-01, 0., 0., 1.04573749e-01, 6.71158671e-01,
          5.73646963e-01, 0., 0., 0., 8.40200037e-02, 0., 0.,
          5.73646963e-01, 5.73646963e-01, 2.11267412e-01, 0., 0., 0.,
          4.36121464e-01, 4.36121464e-01, 4.36121464e-01, 4.36121464e-01,
          4.36121464e-01, 5.23122668e-01, 0., 5.00603393e-02,
          3.51188451e-01, 5.42765439e-01, 3.72852720e-02, 5.31483721e-03,
          6.69024736e-02, 5.42765439e-01, 4.67164755e-01, 2.78787147e-02,
          6.59679919e-02, 4.62785453e-01, 4.67164755e-01, 3.44767451e-01,
          4.91449460e-02, 5.08956378e-03, 4.67164755e-01, 4.02313918e-01,
          3.85929942e-01, 4.02313918e-01, 4.02313918e-01, 4.02313918e-01,
          1.75177783e-01, 2.49707531e-02, 8.02865550e-02, 4.02313918e-01,
          4.72896010e-01, 0., 2.72285901e-02, 1.91016823e-01,
          4.72896010e-01, 1.64589927e-01, 1.90880939e-01, 4.72896010e-01,
          4.72896010e-01, 5.62889874e-01, 0., 2.35789139e-02,
          1.65413246e-01, 5.62889874e-01, 7.94518292e-02, 1.13254786e-02,
          9.73952785e-02, 5.62889874e-01, 5.68770111e-01, 5.44000491e-02,
          1.74013320e-02, 1.22075625e-01, 5.68770111e-01, 7.44644552e-02,
          1.06145507e-02, 0., 5.68770111e-01, 4.20898974e-01,
          4.20898974e-01, 4.20898974e-01, 2.84998447e-01, 4.20898974e-01,
          1.67983219e-01, 2.39452012e-02, 0., 4.20898974e-01, 0., 0.,
          1.01031229e-01, 6.63988411e-01, 6.63988411e-01, 3.15250933e-01,
          4.49375175e-02, 0., 0., 0., 0., 8.74255821e-02, 6.13316953e-01,
          6.79157615e-01, 3.81068707e-01, 5.43195158e-02, 0., 0., 0., 0.,
          2.76809018e-02, 1.94189921e-01, 9.62375581e-01, 1.58882707e-01,
          2.26479676e-02, 0., 0., 0., 0., 0., 0., 7.44777858e-01,
          6.55097127e-01, 9.33809504e-02, 0., 0. ]
      - [ 4.46215838e-01, 4.46215838e-01, 0., 0., 0., 0., 4.46215838e-01,
          4.46215838e-01, 4.46215838e-01, 4.98753130e-01, 0., 0., 0., 0.,
          0., 4.98753130e-01, 4.98753130e-01, 4.98753130e-01,
          5.75688422e-01, 5.75688422e-01, 0., 0., 0., 0., 0., 0.,
          5.75688422e-01, 5.75688422e-01, 5.75688422e-01, 0., 0., 0., 0.,
          0., 0., 5.75688422e-01, 4.25374418e-01, 3.81041467e-01, 0., 0.,
          0., 4.25374418e-01, 4.25374418e-01, 4.25374418e-01,
          3.56068224e-01, 4.22375202e-01, 4.22375202e-01, 0., 0., 0.,
          3.92093033e-01, 4.22375202e-01, 3.58386010e-01, 4.22375202e-01,
          5.76317132e-01, 5.76317132e-01, 3.53868725e-03, 2.48249657e-02,
          1.50368452e-01, 1.54158577e-01, 2.19745655e-02, 0.,
          5.31483889e-01, 4.67600971e-01, 4.67600971e-01, 1.83993936e-01,
          2.21906722e-01, 4.67600971e-01, 1.92044556e-01, 2.73750275e-02,
          0., 4.67600971e-01, 3.39940161e-01, 3.33436966e-01,
          2.76601017e-01, 3.39940161e-01, 3.39940161e-01, 3.39940161e-01,
          3.39940161e-01, 3.39940161e-01, 3.39940161e-01, 4.34939623e-01,
          4.34939623e-01, 1.46685843e-03, 1.02904560e-02, 4.34939623e-01,
          4.34939623e-01, 1.71760678e-01, 1.42067745e-01, 4.34939623e-01,
          2.16239497e-01, 2.67186224e-01, 1.45283937e-01, 1.07277147e-01,
          5.88531077e-01, 5.88531077e-01, 3.79384249e-01, 0.,
          8.17893893e-02, 1.65414379e-03, 4.46281046e-01, 4.46281046e-01,
          4.46281046e-01, 4.38187450e-01, 4.46281046e-01, 8.28496367e-02,
          0., 0., 3.09919696e-02, 3.94878052e-02, 3.40514541e-01,
          6.54080927e-01, 6.54080927e-01, 1.34274259e-01, 1.91401523e-02,
          0., 3.09919696e-02, 2.16166656e-02, 0., 8.81418772e-03,
          6.18342012e-02, 6.69965208e-01, 6.69965208e-01, 3.01278889e-01,
          0., 2.16166656e-02, 0., 3.62064838e-02, 1.08619452e-01, 0.,
          6.43263817e-01, 6.43263817e-01, 3.91014099e-01, 0., 0., 0.,
          3.52198154e-01, 5.38457930e-01, 5.38457930e-01, 5.38457930e-01,
          2.74407640e-02, 3.91154969e-03, 0., 0. ]
      - [ 5.72541833e-01, 5.72541833e-01, 0., 0., 1.04261212e-01, 0., 0.,
          0., 5.72541833e-01, 6.71013176e-01, 4.32890616e-02, 0., 0.,
          3.01512748e-01, 0., 0., 0., 6.71013176e-01, 6.65827096e-01, 0.,
          0., 0., 3.26651871e-01, 0., 0., 0., 6.65827096e-01,
          5.73265254e-01, 0., 0., 0., 9.15223733e-02, 0., 0.,
          5.73265254e-01, 5.73265254e-01, 4.17530447e-01, 7.06594288e-02,
          0., 0., 4.17530447e-01, 4.17530447e-01, 4.17530447e-01,
          3.45221668e-01, 4.17530447e-01, 4.45610106e-01, 2.06820271e-03,
          6.26374856e-02, 4.39420909e-01, 4.45610106e-01, 4.45610106e-01,
          6.42536059e-02, 1.13288220e-02, 4.45610106e-01, 4.61268276e-01,
          2.75768917e-02, 5.52826077e-02, 3.87824297e-01, 4.61268276e-01,
          4.45895970e-01, 6.35603294e-02, 0., 4.61268276e-01,
          4.07683581e-01, 3.93953204e-01, 4.07683581e-01, 4.07683581e-01,
          4.07683581e-01, 6.09898195e-02, 8.69380683e-03, 7.68329948e-02,
          4.07683581e-01, 4.66675907e-01, 0., 4.14131442e-03,
          2.90525761e-02, 4.66675907e-01, 2.56575614e-01, 3.49269629e-01,
          3.91532987e-01, 4.66675907e-01, 5.56600213e-01, 0.,
          2.56837737e-02, 1.80179432e-01, 5.56600213e-01, 1.75526723e-01,
          2.50204951e-02, 2.16900613e-02, 5.56600213e-01, 5.54279745e-01,
          5.19995280e-02, 3.03927884e-02, 2.13214621e-01, 5.54279745e-01,
          1.52402759e-01, 2.17242874e-02, 0., 5.54279745e-01,
          4.28476572e-01, 4.11575407e-01, 4.28476572e-01, 2.88518637e-01,
          4.28476572e-01, 9.24132913e-02, 1.31730735e-02, 0.,
          4.28476572e-01, 0., 0., 2.59529669e-02, 1.82067931e-01,
          9.77968216e-01, 0., 0., 0., 0., 0., 0., 8.35358873e-02,
          5.86029589e-01, 6.16634548e-01, 5.07892489e-01, 7.23976344e-02,
          0., 0., 0., 0., 9.66620147e-02, 6.18746877e-01, 6.18746877e-01,
          4.63061810e-01, 6.60072416e-02, 0., 0., 0., 0., 1.01085752e-02,
          7.09147155e-02, 8.78111184e-01, 4.59070176e-01, 6.54382482e-02,
          0., 0. ]
      - [ 4.97725785e-01, 4.97725785e-01, 4.97725785e-01, 0.,
          6.40709773e-02, 0., 0., 0., 4.97725785e-01, 6.35061204e-01, 0.,
          0., 0., 2.76242644e-01, 0., 0., 3.32782358e-01, 6.35061204e-01,
          5.75664580e-01, 0., 0., 0., 9.08438396e-03, 0., 0.,
          5.75664580e-01, 5.75664580e-01, 6.26944005e-01, 0., 0., 0., 0.,
          0., 0., 4.55656409e-01, 6.26944005e-01, 3.67124647e-01,
          3.67124647e-01, 3.67124647e-01, 0., 3.67124647e-01,
          3.47040355e-01, 3.67124647e-01, 3.67124647e-01, 2.59253144e-01,
          7.95104802e-02, 0., 1.50072783e-01, 5.25015712e-01,
          5.25015712e-01, 3.13581407e-01, 4.42312390e-01, 2.97816515e-01,
          1.78778961e-01, 2.66287148e-01, 0., 1.16503581e-01,
          6.39206588e-01, 6.39206588e-01, 0., 0., 5.36061563e-02,
          2.98483640e-01, 4.87599462e-01, 0., 1.58400938e-01,
          4.87599462e-01, 4.87599462e-01, 0., 0., 1.37934893e-01,
          4.87599462e-01, 4.43628766e-02, 2.38769501e-02, 1.48391709e-01,
          4.60633963e-01, 1.36905044e-01, 4.60633963e-01, 4.60633963e-01,
          4.60633963e-01, 3.21501344e-01, 0., 0., 1.96233578e-02,
          1.37663811e-01, 3.55414718e-01, 5.02126575e-01, 5.02126575e-01,
          5.02126575e-01, 3.04853886e-01, 0., 0., 1.38659284e-01,
          6.97785079e-01, 6.97785079e-01, 0., 0., 0., 0., 0., 0.,
          2.10850298e-01, 6.88718677e-01, 6.88718677e-01, 0., 0., 0., 0.,
          0., 0., 1.94709539e-01, 5.35330713e-01, 5.35330713e-01,
          5.35330713e-01, 3.11047941e-01, 1.59465801e-02, 0., 0., 0., 0.,
          0., 2.35967249e-01, 6.64127648e-01, 6.64127648e-01,
          2.35707775e-01, 0., 0., 0., 0., 0., 0., 0., 0., 0., 0., 0., 0.,
          0., 0., 0., 0., 0., 0., 0. ]
      - [ 6.95780694e-01, 1.36668861e-01, 7.84508064e-02, 0., 0., 0., 0.,
          0., 6.95780694e-01, 7.04615593e-01, 0., 0., 0., 0., 0., 0., 0.,
          7.04615593e-01, 7.04615593e-01, 0., 0., 0., 0., 0., 0., 0.,
          7.04615593e-01, 6.89518631e-01, 0., 0., 0., 0., 0., 0.,
          2.05535486e-01, 6.89518631e-01, 4.98753130e-01, 4.98753130e-01,
          4.98753130e-01, 0., 0., 0., 0., 0., 4.98753130e-01,
          7.04615593e-01, 0., 0., 0., 0., 0., 0., 0., 7.04615593e-01,
          7.04615593e-01, 0., 0., 0., 0., 0., 0., 0., 7.04615593e-01,
          6.70882583e-01, 0., 0., 0., 0., 0., 0., 3.05181205e-01,
          6.70882583e-01, 0., 1.76262632e-01, 5.44631839e-01,
          1.11149736e-01, 5.65073431e-01, 5.65073431e-01, 1.25278160e-01,
          0., 0., 0., 0., 5.01761883e-02, 3.52001160e-01, 9.28587854e-01,
          4.46900912e-02, 6.37035817e-03, 0., 0., 0., 0., 1.43656597e-01,
          6.97281301e-01, 6.97281301e-01, 0., 0., 0., 0., 0., 0., 0., 0.,
          9.00977552e-01, 4.19142365e-01, 5.97467385e-02, 0., 0., 0.,
          1.93363726e-02, 8.04770812e-02, 1.57619551e-01, 6.81886077e-01,
          6.81886077e-01, 1.77654818e-01, 0., 0., 0., 0., 8.04794952e-02,
          5.64588070e-01, 8.13267887e-01, 7.16801286e-02, 1.02176592e-02,
          0., 0., 0., 0., 9.87489149e-02, 6.92753613e-01, 7.09407985e-01,
          0., 0., 0., 0., 0., 0., 0., 0., 9.62158978e-01, 2.51722187e-01,
          3.58817913e-02, 0., 0. ]
      - [ 7.02606976e-01, 0., 0., 0., 0., 0., 0., 7.53203332e-02,
          7.02606976e-01, 6.46142662e-01, 8.58237967e-02, 0., 0., 0., 0.,
          0., 3.88821870e-01, 6.46142662e-01, 6.44608080e-01,
          3.60003501e-01, 0., 0., 0., 0., 0., 1.81446031e-01,
          6.44608080e-01, 6.26821995e-01, 4.03625965e-01, 0., 0., 0., 0.,
          0., 2.12169856e-01, 6.26821995e-01, 6.97709560e-01, 0., 0., 0.,
          0., 0., 0., 1.39420003e-01, 6.97709560e-01, 6.22917831e-01,
          1.00573473e-01, 0., 0., 0., 0., 0., 4.55644876e-01,
          6.22917831e-01, 5.89585781e-01, 4.88204926e-01, 0., 0., 0., 0.,
          0., 2.46061057e-01, 5.89585781e-01, 5.65494239e-01,
          5.27234256e-01, 0., 0., 0., 0., 0., 2.77145743e-01,
          5.65494239e-01, 0., 0., 0., 0., 9.95024860e-01, 0., 0., 0., 0.,
          0., 0., 0., 0., 9.95024860e-01, 0., 0., 0., 0., 0., 0., 0., 0.,
          9.95024860e-01, 0., 0., 0., 0., 0., 0., 0., 0., 9.95024860e-01,
          0., 0., 0., 0., 0., 0., 0., 0., 9.95024860e-01, 0., 0., 0., 0.,
          0., 0., 0., 0., 9.95024860e-01, 0., 0., 0., 0., 0., 0., 0., 0.,
          9.95024860e-01, 0., 0., 0., 0., 0., 0., 0., 0., 9.95024860e-01,
          0., 0., 0., 0. ]
      - [ 0., 0., 0., 0., 0., 0., 0., 0., 0., 0., 0., 0., 0., 0., 0., 0.,
          0., 0., 6.95701659e-01, 7.13357151e-01, 0., 0., 0., 0., 0., 0.,
          0., 6.86120927e-01, 6.86120927e-01, 0., 0., 0., 0., 0., 0.,
          2.27215290e-01, 0., 0., 0., 0., 0., 0., 0., 0., 0.,
          5.75688422e-01, 5.75688422e-01, 0., 0., 0., 0., 0., 0.,
          5.75688422e-01, 6.04108036e-01, 6.04108036e-01, 0., 0., 0., 0.,
          0., 0., 5.13882339e-01, 7.03020215e-01, 7.03020215e-01, 0., 0.,
          2.56195311e-02, 0., 0., 0., 6.20565079e-02, 5.75688422e-01,
          5.75688422e-01, 0., 0., 0., 0., 0., 0., 5.75688422e-01,
          5.75688422e-01, 5.75688422e-01, 0., 0., 0., 0., 0., 0.,
          5.75688422e-01, 5.75688422e-01, 5.75688422e-01, 0., 0., 0., 0.,
          0., 0., 5.75688422e-01, 3.00251901e-01, 3.56637269e-01, 0., 0.,
          4.36801523e-01, 5.12346566e-01, 5.12346566e-01, 2.33116299e-01,
          8.60516876e-02, 5.75688422e-01, 5.75688422e-01, 0., 0., 0., 0.,
          0., 0., 5.75688422e-01, 5.75688422e-01, 5.75688422e-01, 0., 0.,
          0., 0., 0., 0., 5.75688422e-01, 1.49761170e-01, 7.66322091e-02,
          0., 0., 0., 5.64299881e-01, 5.64299881e-01, 5.64299881e-01,
          1.03735037e-01, 0., 0., 0., 0., 8.70369095e-03, 6.84542835e-01,
          6.84542835e-01, 2.36416608e-01, 0. ]
      - [ 7.04615593e-01, 0., 0., 0., 0., 0., 0., 0., 7.04615593e-01,
          7.04615593e-01, 0., 0., 0., 0., 0., 0., 0., 7.04615593e-01,
          7.04615593e-01, 0., 0., 0., 0., 0., 0., 0., 7.04615593e-01,
          7.04615593e-01, 0., 0., 0., 0., 0., 0., 0., 7.04615593e-01,
          7.04615593e-01, 0., 0., 0., 0., 0., 0., 0., 7.04615593e-01,
          7.04615593e-01, 0., 0., 0., 0., 0., 0., 0., 7.04615593e-01,
          7.04615593e-01, 0., 0., 0., 0., 0., 0., 0., 7.04615593e-01,
          7.04615593e-01, 0., 0., 0., 0., 0., 0., 0., 7.04615593e-01, 0.,
          0., 1.02245376e-01, 6.19776845e-01, 6.19776845e-01,
          4.59159285e-01, 6.54509589e-02, 0., 0., 0., 0., 1.27401665e-01,
          5.66073656e-01, 5.66073656e-01, 5.66073656e-01, 1.29606918e-01,
          0., 0., 0., 0., 1.12266734e-01, 5.67660034e-01, 5.67660034e-01,
          5.67660034e-01, 1.22531675e-01, 0., 0., 0., 0., 1.06031001e-01,
          5.65985918e-01, 5.65985918e-01, 5.65985918e-01, 1.48611829e-01,
          0., 0., 0., 0., 9.03206468e-02, 6.33626699e-01, 6.45026147e-01,
          4.05608237e-01, 5.78175113e-02, 0., 0., 0., 0., 9.80168879e-02,
          5.70016921e-01, 5.70016921e-01, 5.70016921e-01, 9.97134969e-02,
          0., 0., 0., 0., 9.07916278e-02, 5.70450485e-01, 5.70450485e-01,
          5.70450485e-01, 9.90930125e-02, 0., 0., 0., 0., 9.12358314e-02,
          5.68520546e-01, 5.68520546e-01, 5.68520546e-01, 1.27875090e-01,
          0., 0. ]
      - [ 4.19950485e-01, 4.19950485e-01, 4.19950485e-01, 4.33889180e-02,
          1.75144985e-01, 4.19950485e-01, 4.19950485e-01, 2.85402447e-01,
          0., 6.91902265e-03, 2.30882280e-02, 1.57071590e-01,
          5.96628964e-01, 5.96628964e-01, 3.61863554e-01, 3.41434956e-01,
          9.66176838e-02, 0., 0., 0., 1.90748081e-01, 6.91632450e-01,
          6.91632450e-01, 0., 0., 0., 0., 1.82037592e-01, 2.11985007e-01,
          2.28093669e-01, 4.57943767e-01, 4.57943767e-01, 4.57943767e-01,
          4.57943767e-01, 1.42872602e-01, 7.78528526e-02, 2.07820460e-01,
          3.71413440e-01, 2.95846403e-01, 0., 0., 5.57331741e-01,
          5.57331741e-01, 3.20313871e-01, 4.39750589e-02, 0., 0., 0., 0.,
          2.84363002e-01, 6.22525096e-01, 6.22525096e-01, 3.71277779e-01,
          0., 1.52464390e-01, 4.17858809e-01, 5.29121816e-01,
          4.86749113e-01, 5.29121816e-01, 0., 0., 0., 0., 5.19095838e-01,
          5.19095838e-01, 5.19095838e-01, 8.07878822e-02, 4.20914501e-01,
          4.38793935e-02, 2.17169225e-02, 5.15404250e-03, 1.77501757e-02,
          4.29004490e-01, 9.21397004e-03, 2.76419092e-02, 0.,
          2.73205638e-01, 4.29004490e-01, 4.29004490e-01, 4.29004490e-01,
          4.29004490e-01, 7.04615593e-01, 0., 0., 0., 0., 0., 0., 0.,
          7.04615593e-01, 5.74416518e-01, 5.74416518e-01, 5.74416518e-01,
          0., 6.63416311e-02, 0., 0., 0., 0., 5.72384417e-01,
          5.72384417e-01, 5.72384417e-01, 0., 1.06830157e-01, 0., 0., 0.,
          0., 5.75607717e-01, 0., 0., 0., 1.45869423e-02, 0.,
          8.15782510e-03, 5.75607717e-01, 5.75607717e-01, 5.75688422e-01,
          0., 0., 0., 0., 0., 0., 5.75688422e-01, 5.75688422e-01,
          3.94174755e-01, 3.94174755e-01, 3.94174755e-01, 0.,
          1.49528936e-01, 2.71559954e-01, 3.50841612e-01, 3.94174755e-01,
          3.94174755e-01, 2.85880119e-01, 4.44614977e-01, 4.44614977e-01,
          0., 4.44614977e-01, 4.16722029e-01, 3.69277507e-01,
          1.03291914e-01, 9.56175569e-03 ]
      - [ 5.36481202e-01, 5.36481202e-01, 3.55357528e-01, 0.,
          7.01945946e-02, 0., 0., 0., 5.36481202e-01, 5.56382537e-01,
          3.87699343e-02, 0., 0., 2.53488481e-01, 0., 0., 5.56382537e-01,
          5.56382537e-01, 5.75652540e-01, 0., 0., 0., 1.11519787e-02, 0.,
          0., 5.75652540e-01, 5.75652540e-01, 5.75688422e-01, 0., 0., 0.,
          0., 0., 0., 5.75688422e-01, 5.75688422e-01, 3.67439926e-01,
          3.67439926e-01, 3.67439926e-01, 0., 3.67439926e-01,
          3.39682460e-01, 3.67439926e-01, 3.67439926e-01, 2.66218722e-01,
          2.12152481e-01, 2.53395620e-03, 1.72979444e-01, 4.64052588e-01,
          4.64052588e-01, 2.83003449e-01, 4.06648219e-01, 3.50913942e-01,
          3.48057419e-01, 4.70306218e-01, 0., 1.84053242e-01,
          4.70306218e-01, 4.70306218e-01, 0., 6.39759237e-03,
          2.76828825e-01, 4.70306218e-01, 4.45001096e-01, 0.,
          7.36553892e-02, 4.45001096e-01, 4.45001096e-01, 0., 0.,
          4.45001096e-01, 4.45001096e-01, 2.18602762e-01, 1.13121010e-01,
          3.96096557e-01, 3.96096557e-01, 1.23313703e-01, 3.96096557e-01,
          3.96096557e-01, 3.96096557e-01, 3.68498057e-01, 2.54722446e-01,
          0., 2.86361314e-02, 2.00891167e-01, 2.15389341e-01,
          4.59064573e-01, 4.59064573e-01, 4.59064573e-01, 4.59064573e-01,
          0., 0., 2.31026575e-01, 6.76271915e-01, 6.76271915e-01, 0.,
          1.50562942e-01, 5.01876511e-02, 0., 0., 0., 2.88939804e-01,
          6.74455583e-01, 6.74455583e-01, 0., 0., 0., 0., 0.,
          4.00413498e-02, 3.00208658e-01, 5.26602745e-01, 5.26602745e-01,
          5.26602745e-01, 2.66609997e-01, 0., 0., 0., 0., 0., 0.,
          2.06140608e-01, 7.30916679e-01, 6.42895997e-01, 5.15351519e-02,
          0., 0., 0., 0., 0., 0., 0., 9.36229885e-01, 3.12076628e-01, 0.,
          0., 0., 1.13585874e-01, 7.00039327e-01, 7.00039327e-01, 0., 0.,
          0., 0. ]
      - [ 5.21095335e-01, 5.21095335e-01, 1.43480510e-01, 0., 0., 0.,
          1.95401788e-01, 3.48434061e-01, 5.21095335e-01, 4.87877995e-01,
          2.07430720e-01, 0., 0., 0., 0., 4.87877995e-01, 4.87877995e-01,
          4.87877995e-01, 5.13692558e-01, 0., 0., 0., 0., 0.,
          4.50809747e-01, 5.13692558e-01, 5.13692558e-01, 0., 0., 0., 0.,
          0., 0., 9.42905009e-01, 3.14301699e-01, 0., 3.83725911e-01,
          3.83725911e-01, 3.83725911e-01, 3.83725911e-01, 3.83725911e-01,
          6.24134876e-02, 2.55365878e-01, 2.08771929e-01, 3.83725911e-01,
          4.18685675e-01, 1.27124265e-01, 1.40351221e-01, 1.89216912e-01,
          4.18685675e-01, 2.18327269e-01, 4.18685675e-01, 4.18685675e-01,
          4.18685675e-01, 4.71643209e-01, 2.61345893e-01, 1.27024129e-01,
          6.14747182e-02, 1.31468847e-01, 0., 4.71643209e-01,
          4.71643209e-01, 4.71643209e-01, 5.71937680e-01, 5.71937680e-01,
          0., 0., 0., 0., 1.07961424e-01, 3.59871425e-02, 5.71937680e-01,
          4.65966314e-02, 5.18224597e-01, 5.18224597e-01, 5.18224597e-01,
          3.14508677e-01, 6.06360622e-02, 2.33383730e-01, 1.47578686e-01,
          9.02402252e-02, 3.47713977e-01, 3.40463132e-01, 3.12935561e-01,
          2.57973999e-01, 3.47713977e-01, 3.47713977e-01, 3.34075928e-01,
          3.47713977e-01, 3.47713977e-01, 3.83500576e-01, 3.83500576e-01,
          2.97532946e-01, 7.98445493e-02, 3.83500576e-01, 3.83500576e-01,
          3.83500576e-01, 1.37227908e-01, 3.83500576e-01, 4.99789715e-01,
          2.57636487e-01, 0., 0., 4.99789715e-01, 4.99789715e-01,
          1.43758520e-01, 3.29645234e-03, 3.98227483e-01, 6.31538406e-03,
          2.12598935e-01, 5.62466383e-01, 5.62466383e-01, 5.62466383e-01,
          0., 0., 0., 6.31538406e-03, 5.83483130e-02, 3.51853529e-03,
          4.16317955e-02, 2.18008906e-01, 6.80686474e-01, 6.80686474e-01,
          1.02245599e-01, 0., 5.83483130e-02, 1.09111061e-02, 0., 0., 0.,
          6.84232831e-01, 6.84232831e-01, 2.37870157e-01, 0.,
          1.09111061e-02, 0., 0., 0., 0., 6.94978058e-01, 6.94978058e-01,
          1.64539814e-01, 0., 0. ]
      - [ 4.97431189e-01, 4.97431189e-01, 4.97431189e-01, 0.,
          7.26683661e-02, 0., 0., 0., 4.97431189e-01, 5.33810258e-01,
          1.82512537e-01, 1.42887374e-02, 0., 3.26027602e-01, 0., 0.,
          5.33810258e-01, 5.33810258e-01, 5.75216949e-01, 0., 0., 0.,
          4.04035486e-02, 0., 0., 5.75216949e-01, 5.75216949e-01,
          5.75688422e-01, 0., 0., 0., 0., 0., 0., 5.75688422e-01,
          5.75688422e-01, 3.64804655e-01, 3.64804655e-01, 3.64804655e-01,
          0., 3.62634659e-01, 2.57598191e-01, 3.64804655e-01,
          3.64804655e-01, 3.64804655e-01, 2.20063940e-01, 1.91324670e-02,
          9.26953331e-02, 4.53040093e-01, 4.53040093e-01, 2.45732978e-01,
          2.51418829e-01, 4.53040093e-01, 4.45820779e-01, 3.68593752e-01,
          0., 1.81562170e-01, 5.25125146e-01, 5.25125146e-01, 0.,
          2.27103252e-02, 1.99470699e-01, 4.83851552e-01, 4.65578139e-01,
          0., 9.93534252e-02, 4.65578139e-01, 4.65578139e-01, 0., 0.,
          3.44131649e-01, 4.65578139e-01, 1.78451836e-01, 4.46866900e-02,
          2.72847116e-01, 4.62867886e-01, 2.91977793e-01, 4.62867886e-01,
          3.46555620e-01, 3.62822711e-01, 3.48717123e-01, 3.06489170e-01,
          0., 8.14367272e-03, 5.71303330e-02, 1.58249438e-01,
          4.67179060e-01, 4.67179060e-01, 4.67179060e-01, 4.67179060e-01,
          4.03467491e-02, 0., 1.60834715e-01, 6.03753269e-01,
          6.03753269e-01, 1.90009490e-01, 4.26585227e-01, 1.33166745e-01,
          4.03467491e-02, 0., 0., 1.83864996e-01, 6.92560554e-01,
          6.92560554e-01, 0., 0., 0., 0., 0., 0., 2.38785908e-01,
          5.46315134e-01, 5.46315134e-01, 5.46315134e-01, 2.05292627e-01,
          0., 0., 0., 0., 0., 0., 4.00153041e-01, 7.57849276e-01,
          5.07915318e-01, 0., 0., 0., 0., 0., 0., 0., 9.81377661e-01,
          1.39890686e-01, 0., 0., 0., 0., 0., 0., 0., 0., 0., 0., 0. ]
      - [ 4.51615483e-01, 4.51615483e-01, 6.01623729e-02, 0.,
          1.02616742e-01, 9.71460342e-02, 3.95064175e-01, 4.51615483e-01,
          4.51615483e-01, 2.58319855e-01, 8.72246251e-02, 0., 0.,
          4.11530696e-02, 1.49348766e-01, 5.46566844e-01, 5.46566844e-01,
          5.46566844e-01, 5.75688422e-01, 5.75688422e-01, 0., 0., 0., 0.,
          0., 0., 5.75688422e-01, 5.49741030e-01, 5.49741030e-01, 0., 0.,
          0., 7.02109486e-02, 2.74190366e-01, 8.80607069e-02,
          5.49741030e-01, 3.74073386e-01, 3.75760585e-01, 2.60550678e-01,
          0., 3.75760585e-01, 3.75760585e-01, 3.75760585e-01,
          3.75760585e-01, 2.87138164e-01, 4.84261334e-01, 4.84261334e-01,
          0., 0., 1.97306737e-01, 2.02859864e-01, 4.21888173e-01,
          1.83206156e-01, 4.84261334e-01, 4.44601268e-01, 4.44601268e-01,
          0., 0., 4.44601268e-01, 4.44601268e-01, 8.48973095e-02, 0.,
          4.44601268e-01, 4.62328762e-01, 3.83545518e-01, 0., 0.,
          4.62328762e-01, 4.62328762e-01, 3.77069354e-01, 3.74878272e-02,
          2.51882225e-01, 3.52730513e-01, 3.52730513e-01, 3.52730513e-01,
          3.35459635e-02, 3.52730513e-01, 3.52730513e-01, 3.52730513e-01,
          3.52730513e-01, 3.52730513e-01, 4.34966028e-01, 3.65306586e-01,
          0., 0., 5.19082725e-01, 5.19082725e-01, 2.85318702e-01,
          2.10686270e-02, 2.26775527e-01, 7.12167546e-02, 3.54612023e-02,
          0., 0., 6.53332770e-01, 6.53332770e-01, 3.61896068e-01, 0.,
          4.99183722e-02, 0., 0., 0., 0., 6.62431002e-01, 6.62431002e-01,
          3.40230763e-01, 0., 0., 0., 3.53574827e-02, 1.32135421e-01,
          1.82839647e-01, 6.54527843e-01, 6.54527843e-01, 2.90709227e-01,
          0., 0., 0., 0., 0., 0., 6.62884533e-01, 6.62884533e-01,
          3.38453054e-01, 0., 0., 0., 0., 0., 0., 6.88545048e-01,
          6.88545048e-01, 2.11985648e-01, 0., 0., 0., 0., 0., 0., 0., 0.,
          0., 0., 0. ]
      - [ 5.75688422e-01, 5.75688422e-01, 0., 0., 0., 0., 0., 0.,
          5.75688422e-01, 5.75688422e-01, 5.75688422e-01, 0., 0., 0., 0.,
          0., 0., 5.75688422e-01, 5.69207132e-01, 5.69207132e-01, 0., 0.,
          1.49418071e-01, 0., 0., 0., 5.69207132e-01, 6.90523565e-01, 0.,
          0., 0., 1.98647961e-01, 0., 0., 0., 6.90523565e-01,
          5.58577895e-01, 5.58577895e-01, 3.92409414e-03, 2.75287088e-02,
          1.66745439e-01, 1.70948356e-01, 2.43678670e-02, 0.,
          5.58577895e-01, 3.87197733e-01, 3.87197733e-01, 5.26546575e-02,
          3.69388402e-01, 3.87197733e-01, 2.99939871e-01, 3.71154040e-01,
          1.71766728e-01, 3.87197733e-01, 4.36289370e-01, 1.01492450e-01,
          6.51637316e-02, 1.14087828e-01, 4.36289370e-01, 4.36289370e-01,
          3.97101194e-01, 2.21350029e-01, 4.36289370e-01, 4.13837671e-01,
          4.13837671e-01, 4.13837671e-01, 4.13837671e-01, 4.13837671e-01,
          2.24144056e-01, 3.19506600e-02, 0., 2.97147036e-01,
          6.63948655e-02, 0., 1.81855224e-02, 1.27576962e-01,
          6.62640274e-01, 6.62640274e-01, 2.99628794e-01, 0.,
          6.63948655e-02, 4.12950739e-02, 2.96059787e-01, 4.62038010e-01,
          4.62038010e-01, 4.62038010e-01, 4.62038010e-01, 2.02760205e-01,
          8.11552927e-02, 6.64368644e-02, 4.35741395e-01, 1.27324179e-01,
          2.76098490e-01, 3.03736180e-01, 4.35741395e-01, 3.41776043e-01,
          2.14207038e-01, 2.80433208e-01, 4.35741395e-01, 4.44586039e-01,
          4.44586039e-01, 4.44586039e-01, 5.97376972e-02, 4.44586039e-01,
          6.02727048e-02, 8.59158486e-03, 0., 4.44586039e-01, 0., 0., 0.,
          0., 7.00969815e-01, 7.00969815e-01, 1.01416968e-01, 0., 0., 0.,
          3.50298733e-01, 5.38480222e-01, 5.38480222e-01, 5.38480222e-01,
          4.46109921e-02, 6.35908311e-03, 0., 0., 0., 2.09790934e-02,
          1.60608888e-01, 5.93555391e-01, 5.93555391e-01, 5.07917464e-01,
          7.24011958e-02, 0., 0., 0., 0., 0., 0., 9.69882786e-01,
          2.20597669e-01, 3.14451456e-02, 0., 0. ]
      - [ 5.75688422e-01, 5.75688422e-01, 0., 0., 0., 0., 0., 0.,
          5.75688422e-01, 6.54123485e-01, 0., 0., 0., 0., 0.,
          1.71983168e-01, 3.28840822e-01, 6.54123485e-01, 4.98753130e-01,
          0., 0., 0., 0., 0., 4.98753130e-01, 4.98753130e-01,
          4.98753130e-01, 5.52685857e-01, 5.52685857e-01, 0., 0., 0., 0.,
          4.07395884e-02, 2.76471168e-01, 5.52685857e-01, 3.63895893e-01,
          3.63895893e-01, 2.63482153e-01, 0., 3.63895893e-01,
          3.63895893e-01, 3.63895893e-01, 3.63895893e-01, 3.63895893e-01,
          3.75826925e-01, 3.75826925e-01, 3.51035565e-01, 3.75826925e-01,
          3.75826925e-01, 9.54601690e-02, 2.43011877e-01, 3.14042479e-01,
          3.75826925e-01, 4.43243802e-01, 4.43243802e-01, 1.03244387e-01,
          3.49713787e-02, 3.69407684e-02, 0., 4.43243802e-01,
          4.43243802e-01, 4.43243802e-01, 4.82664734e-01, 4.82664734e-01,
          0., 0., 7.45494068e-02, 5.36629707e-02, 4.33860362e-01,
          3.15612584e-01, 4.82664734e-01, 2.85456479e-01, 2.65086800e-01,
          3.69695157e-01, 3.69695157e-01, 3.69695157e-01, 1.56534746e-01,
          3.69695157e-01, 3.69695157e-01, 3.69695157e-01, 4.14822787e-01,
          4.14822787e-01, 2.85403103e-01, 1.75180092e-01, 4.14822787e-01,
          1.33377209e-01, 7.43904859e-02, 4.14822787e-01, 4.14822787e-01,
          4.39964116e-01, 2.78473377e-01, 1.10191457e-01, 1.88632645e-02,
          4.39964116e-01, 4.39964116e-01, 4.29963231e-01, 7.15314448e-02,
          3.67245823e-01, 1.30176798e-01, 8.38461146e-02, 0., 0.,
          6.00434899e-01, 6.00434899e-01, 4.89693224e-01, 5.30476980e-02,
          7.98179060e-02, 1.50542483e-02, 3.62765864e-02, 2.71982491e-01,
          6.77308917e-01, 6.77308917e-01, 0., 0., 0., 1.50542483e-02,
          3.53651829e-02, 0., 0., 0., 8.93325150e-01, 4.32158142e-01,
          6.16020747e-02, 0., 3.53651829e-02, 0., 0., 0., 0.,
          6.65740430e-01, 6.65740430e-01, 3.27006280e-01, 0., 0., 0., 0.,
          0., 0., 6.66113257e-01, 6.66113257e-01, 3.25478405e-01, 0., 0. ]
      - [ 0., 0., 0., 0., 9.95024860e-01, 0., 0., 0., 0., 0., 0.,
          2.20709667e-02, 1.54834524e-01, 9.82718766e-01, 0., 0., 0., 0.,
          0., 0., 1.86895445e-01, 6.92156255e-01, 6.92156255e-01, 0., 0.,
          0., 0., 0., 0., 9.77327581e-03, 6.85625002e-02, 9.92623806e-01,
          0., 0., 0., 0., 0., 0., 0., 0., 9.95024860e-01, 0., 0., 0., 0.,
          5.47539234e-01, 5.47539234e-01, 1.80757660e-02, 1.26806974e-01,
          5.47539234e-01, 0., 0., 0., 2.80584455e-01, 4.87917155e-01,
          4.87917155e-01, 2.92202383e-02, 2.04988807e-01, 4.87917155e-01,
          0., 0., 0., 4.87917155e-01, 5.73034525e-01, 9.55654457e-02,
          8.86065478e-04, 6.21601846e-03, 5.73034525e-01, 0., 0., 0.,
          5.73034525e-01, 5.75688422e-01, 5.75688422e-01, 0., 0., 0., 0.,
          0., 0., 5.75688422e-01, 5.75533390e-01, 5.75533390e-01, 0., 0.,
          2.31688842e-02, 0., 0., 0., 5.75533390e-01, 4.82958376e-01,
          4.82958376e-01, 0., 0., 4.82958376e-01, 2.46865928e-01,
          3.51895541e-02, 0., 4.82958376e-01, 5.70106685e-01,
          1.22850642e-01, 0., 0., 5.70106685e-01, 6.37756512e-02,
          9.09091346e-03, 0., 5.70106685e-01, 5.29137552e-01,
          3.87187928e-01, 0., 0., 5.29137552e-01, 6.88860342e-02,
          9.81937349e-03, 0., 5.29137552e-01, 4.55377877e-01,
          4.49444234e-01, 0., 0., 4.55377877e-01, 4.55377877e-01,
          2.67651618e-01, 0., 3.15763921e-01, 4.43745852e-02,
          4.26357836e-02, 0., 0., 6.61002576e-01, 6.61002576e-01,
          3.39724839e-01, 0., 1.87670682e-02, 0., 0., 0., 0.,
          9.50150609e-01, 2.93236434e-01, 4.17994484e-02, 0., 0. ]
      - [ 3.96501482e-01, 3.96501482e-01, 3.96501482e-01, 0.,
          3.96501482e-01, 3.96501482e-01, 3.96501482e-01, 2.29691759e-01,
          0., 6.64172973e-03, 2.21629255e-02, 1.55250326e-01,
          6.48905814e-01, 6.48905814e-01, 2.83202142e-01, 2.08300710e-01,
          5.59772067e-02, 0., 0., 0., 2.47268364e-01, 6.82657897e-01,
          6.82657897e-01, 0., 0., 0., 0., 1.09589927e-01, 5.79548217e-02,
          1.56215146e-01, 4.80073601e-01, 4.80073601e-01, 4.76663530e-01,
          4.80073601e-01, 1.70266673e-01, 8.84439275e-02, 2.10561901e-01,
          3.76312882e-01, 2.99749047e-01, 0., 0., 5.28463066e-01,
          5.28463066e-01, 3.97987157e-01, 4.45551537e-02, 0., 0., 0., 0.,
          5.50224721e-01, 5.50224721e-01, 5.50224721e-01, 2.93706924e-01,
          0., 9.91643891e-02, 2.71779627e-01, 4.44545448e-01,
          5.96959352e-01, 5.96959352e-01, 0., 0., 0., 0., 4.58202600e-01,
          4.58202600e-01, 4.58202600e-01, 1.77014574e-01, 4.58202600e-01,
          2.42166780e-02, 7.17057437e-02, 2.27512587e-02, 3.43576610e-01,
          4.27852064e-01, 1.00091100e-02, 3.00273299e-02, 0.,
          2.96782553e-01, 4.27852064e-01, 4.27852064e-01, 4.17629987e-01,
          4.27852064e-01, 7.02377439e-01, 0., 0., 0., 0., 0., 0., 0.,
          7.02377439e-01, 5.74416518e-01, 5.74416518e-01, 5.74416518e-01,
          0., 6.63416311e-02, 0., 0., 0., 0., 5.72357953e-01,
          5.72357953e-01, 5.72357953e-01, 0., 1.06668748e-01, 0., 0., 0.,
          1.12057393e-02, 5.75608373e-01, 0., 0., 0., 1.45328334e-02, 0.,
          8.12756456e-03, 5.75608373e-01, 5.75608373e-01, 5.75688422e-01,
          0., 0., 0., 0., 0., 0., 5.75688422e-01, 5.75688422e-01,
          4.15845126e-01, 4.15845126e-01, 4.15845126e-01, 0.,
          1.62960857e-01, 2.95953691e-01, 3.82357091e-01, 2.09273785e-01,
          4.15845126e-01, 2.78091937e-01, 3.94841969e-01, 3.94841969e-01,
          3.94841969e-01, 3.94841969e-01, 3.94841969e-01, 3.59217346e-01,
          1.00477949e-01, 9.30126570e-03 ]
      - [ 7.04615593e-01, 0., 0., 0., 0., 0., 0., 0., 7.04615593e-01,
          5.75688422e-01, 5.75688422e-01, 0., 0., 0., 0., 0., 0.,
          5.75688422e-01, 6.86796606e-01, 2.23080024e-01, 0., 0., 0., 0.,
          0., 0., 6.86796606e-01, 7.04615593e-01, 0., 0., 0., 0., 0., 0.,
          0., 7.04615593e-01, 0., 0., 0., 0., 9.95024860e-01, 0., 0., 0.,
          0., 0., 0., 0., 0., 6.90210104e-01, 6.90210104e-01,
          2.00822935e-01, 0., 0., 0., 0., 0., 0., 6.92155004e-01,
          6.92155004e-01, 1.86904848e-01, 0., 0., 0., 0., 0., 0.,
          9.93625462e-01, 5.23563586e-02, 7.46314786e-03, 0., 0., 0., 0.,
          0., 0., 9.95024860e-01, 0., 0., 0., 0., 0., 0., 0., 0.,
          6.97337270e-01, 6.97337270e-01, 1.43109411e-01, 0., 0., 0., 0.,
          0., 0., 6.88648641e-01, 6.88648641e-01, 2.11308971e-01, 0., 0.,
          0., 0., 0., 0., 9.91162479e-01, 8.69261548e-02, 1.23909079e-02,
          0., 0., 0., 0., 0., 0., 0., 0., 0., 0., 0., 0., 0., 0., 0., 0.,
          0., 0., 0., 0., 0., 0., 0., 0., 0., 0., 0., 0., 0., 0., 0., 0.,
          0., 0., 0., 0., 0., 0. ]
      - [ 3.81682873e-01, 3.81682873e-01, 3.81682873e-01, 3.51896405e-01,
          0., 1.63040847e-01, 3.42584789e-01, 3.81682873e-01,
          3.81682873e-01, 3.45620289e-02, 1.04224300e-02, 2.49814168e-01,
          4.58130419e-01, 4.58130419e-01, 1.46159828e-01, 4.58130419e-01,
          4.58130419e-01, 2.66114771e-01, 0., 4.38623041e-01,
          4.38623041e-01, 4.38623041e-01, 1.73293009e-01, 0.,
          4.38623041e-01, 4.35415000e-01, 8.02573711e-02, 1.16455249e-01,
          1.98905706e-01, 4.29561853e-01, 4.29561853e-01, 1.41303629e-01,
          0., 4.29561853e-01, 4.29561853e-01, 4.29561853e-01,
          1.31541952e-01, 4.09515113e-01, 4.09515113e-01, 0., 0.,
          4.09515113e-01, 4.09515113e-01, 4.09515113e-01, 3.74289393e-01,
          4.41095442e-01, 0., 8.17450043e-03, 5.73466010e-02,
          1.39328659e-01, 4.41095442e-01, 4.41095442e-01, 4.41095442e-01,
          4.41095442e-01, 2.50089854e-01, 3.17368060e-01, 4.53006238e-01,
          4.53006238e-01, 8.00256133e-02, 0., 7.03203231e-02,
          4.53006238e-01, 4.53006238e-01, 3.01091254e-01, 1.47702277e-01,
          4.18691069e-01, 4.18691069e-01, 4.18691069e-01, 0.,
          8.26714113e-02, 4.18691069e-01, 4.18691069e-01, 2.14312464e-01,
          3.59148413e-01, 3.59148413e-01, 3.59148413e-01, 3.59148413e-01,
          3.59148413e-01, 3.59148413e-01, 3.59148413e-01, 2.18102455e-01,
          4.40620631e-01, 0., 1.05430722e-01, 4.40620631e-01,
          4.40620631e-01, 9.08662677e-02, 7.41189122e-02, 4.40620631e-01,
          4.40620631e-01, 5.47998250e-01, 4.68649715e-03, 3.33788395e-02,
          1.35531098e-01, 2.72243202e-01, 0., 0., 5.47998250e-01,
          5.47998250e-01, 4.42286819e-01, 5.97636448e-03, 1.32129192e-01,
          4.42286819e-01, 4.42286819e-01, 0., 0., 4.42286819e-01,
          4.42286819e-01, 1.49492808e-02, 9.16167255e-03, 5.60832061e-02,
          2.00624973e-01, 4.87648159e-01, 4.87648159e-01, 4.87648159e-01,
          4.87648159e-01, 1.49492808e-02, 5.35719423e-03, 0.,
          2.16050774e-01, 5.94902515e-01, 5.94902515e-01, 1.57002494e-01,
          4.41926539e-01, 1.39848843e-01, 5.35719423e-03, 1.08328864e-01,
          0., 2.52189219e-01, 6.55478597e-01, 6.55478597e-01, 0., 0.,
          1.44244164e-01, 1.94963619e-01, 4.42618817e-01, 0.,
          1.26576528e-01, 4.42618817e-01, 4.42618817e-01, 0., 0.,
          4.42618817e-01, 4.42618817e-01 ]
      - [ 4.42170382e-01, 4.42170382e-01, 1.72572359e-02, 0.,
          9.66473371e-02, 9.14948657e-02, 4.42170382e-01, 4.42170382e-01,
          4.42170382e-01, 4.85733360e-01, 1.83791295e-01, 0., 0.,
          2.64096558e-02, 9.58433822e-02, 4.88372326e-01, 4.88372326e-01,
          4.88372326e-01, 5.75688422e-01, 5.75688422e-01, 0., 0., 0., 0.,
          0., 0., 5.75688422e-01, 5.27213156e-01, 5.27213156e-01, 0., 0.,
          0., 0., 2.60318637e-01, 3.05135697e-01, 5.27213156e-01,
          2.56855100e-01, 3.46410513e-01, 2.48168930e-01, 0.,
          3.86929452e-01, 3.86929452e-01, 3.86929452e-01, 3.86929452e-01,
          3.86929452e-01, 4.82304245e-01, 4.82304245e-01, 0., 0.,
          1.84678644e-01, 1.91524148e-01, 4.61483002e-01, 2.49595359e-01,
          4.28830981e-01, 4.94430929e-01, 4.94430929e-01, 5.16109429e-02,
          0., 2.84834683e-01, 4.94430929e-01, 1.19090311e-01, 0.,
          4.04597372e-01, 2.95921266e-01, 3.98364037e-01, 3.98364037e-01,
          0., 3.98364037e-01, 3.98364037e-01, 3.98364037e-01,
          3.10322225e-01, 1.36681035e-01, 3.93783182e-01, 2.46847719e-01,
          3.48189354e-01, 3.93783182e-01, 3.93783182e-01, 1.28250018e-01,
          1.48736224e-01, 3.93783182e-01, 3.93783182e-01, 4.36486393e-01,
          4.36486393e-01, 0., 0., 4.36486393e-01, 4.36486393e-01,
          2.22156435e-01, 8.64460766e-02, 4.20395076e-01, 4.89219651e-02,
          1.54194668e-01, 2.73357481e-01, 0., 6.07029021e-01,
          6.07029021e-01, 3.94911587e-01, 0., 1.10381199e-02, 0.,
          4.34112370e-01, 4.34112370e-01, 2.05320984e-01, 4.22751576e-01,
          4.34112370e-01, 4.34112370e-01, 1.44823566e-01, 0., 0., 0.,
          1.34254649e-01, 6.94383085e-01, 6.94383085e-01, 1.02444515e-01,
          1.46029750e-02, 0., 0., 0., 0., 0., 0., 6.81577742e-01,
          6.81577742e-01, 2.53178746e-01, 0., 0., 0., 1.97666034e-01,
          5.39458990e-01, 0., 5.39458990e-01, 5.39458990e-01,
          2.87215739e-01, 0., 0., 0., 2.58658439e-01, 5.25039434e-01,
          5.25039434e-01, 5.25039434e-01, 2.81166553e-01, 1.43557340e-01,
          3.44927981e-02, 0. ]
      - [ 0., 0., 0., 0., 0., 0., 0., 0., 0., 0., 0., 0., 0., 0., 0., 0.,
          0., 0., 0., 0., 0., 0., 0., 0., 0., 0., 0., 0., 0., 0., 0., 0.,
          0., 0., 0., 0., 0., 0., 0., 0., 0., 0., 0., 0., 0., 0., 0., 0.,
          0., 0., 0., 0., 0., 0., 0., 0., 0., 0., 0., 0., 0., 0., 0., 0.,
          0., 0., 0., 0., 0., 0., 0., 0., 0., 0., 0., 0., 0., 0., 0., 0.,
          0., 0., 0., 0., 0., 0., 0., 0., 0., 0., 0., 0., 0., 0., 0., 0.,
          0., 0., 0., 0., 0., 0., 0., 0., 0., 0., 0., 0., 7.04615593e-01,
          0., 0., 0., 0., 0., 0., 0., 7.04615593e-01, 7.04615593e-01, 0.,
          0., 0., 0., 0., 0., 0., 7.04615593e-01, 7.04615593e-01, 0., 0.,
          0., 0., 0., 0., 0., 7.04615593e-01, 7.04615593e-01, 0., 0., 0.,
          0., 0., 0., 0., 7.04615593e-01 ]
      - [ 4.46215838e-01, 4.46215838e-01, 0., 0., 0., 0., 4.46215838e-01,
          4.46215838e-01, 4.46215838e-01, 1.77920982e-01, 0., 0., 0., 0.,
          0., 6.35772169e-01, 6.35772169e-01, 3.91897887e-01, 0., 0., 0.,
          0., 0., 0., 0., 0., 0., 0., 0., 0., 0., 0., 0., 0., 0., 0.,
          4.00727451e-01, 5.53720035e-02, 0., 0., 0., 0., 5.26337981e-01,
          5.26337981e-01, 5.26337981e-01, 5.46470106e-01, 1.02233395e-01,
          0., 0., 0., 0., 5.39577305e-01, 3.09335560e-01, 5.46470106e-01,
          5.75688422e-01, 5.75688422e-01, 0., 0., 0., 0., 0., 0.,
          5.75688422e-01, 7.04127491e-01, 3.71507145e-02, 0., 0., 0., 0.,
          0., 0., 7.04127491e-01, 4.44447488e-01, 0., 0., 0.,
          4.44447488e-01, 8.88401791e-02, 4.44447488e-01, 4.44447488e-01,
          4.44447488e-01, 5.38832784e-01, 4.26292345e-02, 0., 0.,
          5.38832784e-01, 3.32938731e-01, 8.27727541e-02, 6.38736710e-02,
          5.38832784e-01, 5.31234443e-01, 3.66133064e-01, 0., 0.,
          5.31234443e-01, 1.17184907e-01, 1.67041477e-02, 0.,
          5.31234443e-01, 5.75603426e-01, 1.71614550e-02, 0., 0.,
          5.75603426e-01, 0., 0., 0., 5.75603426e-01, 0., 0., 0., 0.,
          9.85455692e-01, 1.36628479e-01, 1.94757357e-02, 0., 0., 0., 0.,
          0., 0., 6.99590325e-01, 6.99590325e-01, 1.19009234e-01, 0., 0.,
          0., 0., 0., 0., 8.82800400e-01, 4.55670625e-01, 6.49536625e-02,
          0., 0., 0., 0., 0., 0., 9.95024860e-01, 0., 0., 0., 0. ]
      - [ 2.60132849e-01, 1.53655745e-02, 4.60967235e-02, 0.,
          9.23626423e-01, 0., 0., 0., 2.60132849e-01, 2.07455456e-02,
          8.46272893e-03, 2.53881849e-02, 0., 6.99239552e-01,
          6.99239552e-01, 1.16494812e-01, 0., 2.07455456e-02, 0., 0., 0.,
          0., 7.63042152e-01, 6.34021163e-01, 9.03766826e-02, 0., 0., 0.,
          0., 0., 0., 6.92284286e-01, 6.92284286e-01, 1.85940653e-01, 0.,
          0., 4.98753130e-01, 0., 0., 0., 4.98753130e-01, 0., 0.,
          4.98753130e-01, 4.98753130e-01, 4.90335196e-01, 0., 0., 0.,
          4.90335196e-01, 1.80895939e-01, 2.57858485e-02, 4.90335196e-01,
          4.90335196e-01, 1.88975811e-01, 0., 0., 0., 6.91981375e-01,
          6.25597000e-01, 8.91758576e-02, 1.13895707e-01, 2.57382929e-01,
          0., 0., 0., 0., 9.95024860e-01, 0., 0., 0., 0., 4.42719758e-01,
          0., 1.24795668e-01, 4.42719758e-01, 4.42719758e-01, 0., 0.,
          4.42719758e-01, 4.42719758e-01, 5.62997997e-01, 0.,
          1.82020739e-02, 1.27693057e-01, 1.63831443e-01, 0., 0.,
          5.62997997e-01, 5.62997997e-01, 5.75688422e-01, 0., 0., 0., 0.,
          0., 0., 5.75688422e-01, 5.75688422e-01, 5.75688422e-01, 0., 0.,
          0., 0., 0., 0., 5.75688422e-01, 5.75688422e-01, 0., 0.,
          3.29914570e-01, 6.65025294e-01, 6.65025294e-01, 0., 0., 0., 0.,
          5.17686233e-02, 0., 3.59297812e-01, 6.44264400e-01,
          6.44264400e-01, 0., 0., 1.24812946e-01, 1.26732752e-01,
          4.28676665e-01, 3.66459861e-02, 2.74875432e-01, 4.28676665e-01,
          4.28676665e-01, 0., 0., 4.28676665e-01, 4.28676665e-01,
          5.72823048e-01, 2.19188649e-02, 6.95121586e-02, 2.63464116e-02,
          6.24076501e-02, 0., 0., 5.72823048e-01, 5.72823048e-01 ]
      - [ 0., 4.14000809e-01, 6.41171575e-01, 6.41171575e-01, 0., 0., 0.,
          0., 0., 0., 9.45514590e-02, 7.01447725e-01, 7.01447725e-01, 0.,
          0., 0., 0., 0., 0., 2.96483129e-01, 6.72822714e-01,
          6.72822714e-01, 0., 0., 0., 0., 0., 0., 0., 0., 0., 0., 0., 0.,
          0., 0., 0., 0., 1.63254783e-01, 9.81608808e-01, 0., 0., 0., 0.,
          0., 0., 2.62203068e-01, 6.79875851e-01, 6.79875851e-01, 0., 0.,
          0., 0., 0., 0., 7.36042559e-02, 7.02697635e-01, 7.02697635e-01,
          0., 0., 0., 0., 0., 0., 0., 5.22289395e-01, 8.47793519e-01, 0.,
          0., 0., 0., 0., 0., 0., 0., 0., 0., 0., 0., 0., 0., 0., 0.,
          4.18766081e-01, 9.03119206e-01, 0., 0., 0., 0., 0., 0.,
          1.11732230e-01, 7.00187981e-01, 7.00187981e-01, 0., 0., 0., 0.,
          0., 0., 2.50405312e-01, 6.82087898e-01, 6.82087898e-01, 0., 0.,
          0., 0., 0., 6.95888400e-01, 0., 0., 0., 0., 0., 0.,
          1.56626940e-01, 6.95888400e-01, 7.04615593e-01, 0., 0., 0., 0.,
          0., 0., 0., 7.04615593e-01, 6.82554603e-01, 2.87822001e-02,
          1.17203504e-01, 2.16470465e-01, 0., 0., 0., 0., 6.82554603e-01,
          5.07811666e-01, 5.64770289e-02, 4.67033744e-01, 5.07811666e-01,
          0., 0., 0., 0., 5.07811666e-01 ]
      - [ 4.98753130e-01, 0., 0., 0., 0., 0., 4.98753130e-01,
          4.98753130e-01, 4.98753130e-01, 2.27499723e-01, 3.18195969e-01,
          0., 0., 0., 0., 5.40750384e-01, 5.40750384e-01, 5.06727993e-01,
          5.79876661e-01, 5.79876661e-01, 0., 0., 0., 0., 0., 0.,
          5.67182422e-01, 5.75688422e-01, 5.75688422e-01, 0., 0., 0., 0.,
          0., 0., 5.75688422e-01, 3.92761886e-01, 9.20775011e-02, 0., 0.,
          0., 4.83892977e-01, 4.83892977e-01, 4.83892977e-01,
          3.60512823e-01, 4.75999922e-01, 4.75999922e-01, 0., 0., 0.,
          1.43982470e-01, 4.75999922e-01, 2.61172384e-01, 4.75999922e-01,
          5.09751976e-01, 5.09751976e-01, 0., 0., 3.69731456e-01,
          4.99322891e-01, 7.11760968e-02, 0., 2.90041864e-01,
          2.82276154e-01, 2.41684139e-01, 0., 0., 6.43067062e-01,
          6.43067062e-01, 9.80654210e-02, 0., 1.37118027e-01,
          4.34301823e-01, 7.75112584e-02, 0., 0., 4.34301823e-01,
          4.34301823e-01, 4.34301823e-01, 2.15785518e-01, 4.34301823e-01,
          4.49375838e-01, 3.26039791e-01, 0., 0., 4.49375838e-01,
          4.49375838e-01, 3.22095662e-01, 2.00405587e-02, 4.23374861e-01,
          3.94147225e-02, 3.78702693e-02, 0., 0., 6.38426483e-01,
          6.38426483e-01, 4.18549716e-01, 0., 1.66694243e-02, 0., 0., 0.,
          0., 6.87273204e-01, 6.87273204e-01, 2.20114008e-01, 0., 0., 0.,
          0., 0., 0., 8.94438744e-01, 4.32724178e-01, 6.16827644e-02, 0.,
          0., 0., 0., 0., 0., 6.59119785e-01, 6.59119785e-01,
          3.52904826e-01, 0., 0., 0., 0., 0., 0., 6.52925909e-01,
          6.52925909e-01, 3.75309289e-01, 0., 0., 0., 0., 0., 0., 0.,
          9.81377661e-01, 1.39890686e-01, 0., 0. ]
      - [ 4.70382422e-01, 2.94389218e-01, 1.53617218e-01, 0., 0., 0.,
          4.70382422e-01, 4.70382422e-01, 4.70382422e-01, 5.11294127e-01,
          5.11294127e-01, 0., 0., 0., 0., 3.39990437e-01, 3.08277547e-01,
          5.11294127e-01, 3.95049989e-01, 3.95049989e-01, 3.95049989e-01,
          2.44267479e-01, 0., 0., 3.95049989e-01, 3.95049989e-01,
          3.95049989e-01, 3.92144591e-01, 3.92144591e-01, 3.42669904e-01,
          3.31319988e-01, 0., 0., 3.92144591e-01, 3.92144591e-01,
          3.92144591e-01, 4.22266215e-01, 4.22266215e-01, 3.22416037e-01,
          0., 1.69141758e-02, 0., 4.22266215e-01, 4.22266215e-01,
          4.22266215e-01, 4.37046677e-01, 4.37046677e-01, 0., 0.,
          2.01457977e-01, 0., 4.37046677e-01, 4.37046677e-01,
          4.37046677e-01, 4.27694499e-01, 1.89395830e-01, 3.12427938e-01,
          1.89080268e-01, 8.80878512e-03, 0., 4.63012516e-01,
          4.63012516e-01, 4.63012516e-01, 3.09728742e-01, 4.26687539e-01,
          4.26687539e-01, 4.26687539e-01, 0., 0., 4.26687539e-01,
          3.38213295e-01, 2.39099398e-01, 1.71337426e-01, 1.92531794e-01,
          4.19679135e-01, 8.56490955e-02, 5.40176272e-01, 5.40176272e-01,
          3.61015558e-01, 5.85875213e-02, 1.65435135e-01, 3.64904851e-02,
          2.24967405e-01, 4.70469564e-01, 4.70469564e-01, 4.70469564e-01,
          4.70469564e-01, 2.14199826e-01, 9.09358412e-02, 6.19794950e-02,
          4.19653177e-01, 1.14194773e-01, 2.76764005e-01, 4.19653177e-01,
          4.19653177e-01, 9.72570032e-02, 1.27147064e-01, 4.19653177e-01,
          4.19653177e-01, 3.66042316e-01, 3.66042316e-01, 3.66042316e-01,
          4.30350751e-02, 3.66042316e-01, 3.66042316e-01, 3.66042316e-01,
          2.37870157e-01, 3.66042316e-01, 0., 2.29346473e-02,
          9.54529271e-02, 1.86950698e-01, 6.52695775e-01, 6.52695775e-01,
          3.11243385e-01, 0., 0., 0., 1.23121895e-01, 5.00444472e-01,
          5.00444472e-01, 5.00444472e-01, 4.73242402e-01, 6.74584359e-02,
          0., 0., 0., 6.42426265e-03, 2.56404579e-01, 5.95103323e-01,
          5.95103323e-01, 4.64323819e-01, 6.61871359e-02, 0., 0., 0., 0.,
          3.59236524e-02, 2.52015322e-01, 5.99240959e-01, 5.99240959e-01,
          4.53199714e-01, 7.51324221e-02, 0. ]
      - [ 6.75259292e-01, 2.85146922e-01, 0., 0., 0., 0., 0., 0.,
          6.75259292e-01, 6.31118715e-01, 3.83757710e-01, 0., 0., 0., 0.,
          0., 2.23175108e-01, 6.31118715e-01, 6.70941532e-01,
          1.25801504e-01, 0., 0., 0., 0., 0., 2.77760386e-01,
          6.70941532e-01, 6.25164092e-01, 4.60540861e-01, 0., 0., 0., 0.,
          0., 0., 6.25164092e-01, 6.86332107e-01, 2.25931436e-01, 0., 0.,
          0., 0., 0., 0., 6.86332107e-01, 6.44057155e-01, 3.50022227e-01,
          0., 0., 0., 0., 0., 2.03556165e-01, 6.44057155e-01,
          6.79036856e-01, 1.09963171e-01, 0., 0., 0., 0., 0.,
          2.42790490e-01, 6.79036856e-01, 6.10907376e-01, 4.97478276e-01,
          0., 0., 0., 0., 0., 0., 6.10907376e-01, 0., 0., 0., 0.,
          9.95024860e-01, 0., 0., 0., 0., 0., 0., 0., 0., 9.95024860e-01,
          0., 0., 0., 0., 0., 0., 0., 0., 9.95024860e-01, 0., 0., 0., 0.,
          0., 0., 0., 0., 9.95024860e-01, 0., 0., 0., 0., 0., 0., 0., 0.,
          9.95024860e-01, 0., 0., 0., 0., 0., 0., 0., 0., 9.95024860e-01,
          0., 0., 0., 0., 0., 0., 0., 0., 9.95024860e-01, 0., 0., 0., 0.,
          0., 0., 0., 0., 9.95024860e-01, 0., 0., 0., 0. ]
      - [ 5.19885719e-01, 5.19885719e-01, 1.72447160e-01, 0.,
          2.37955615e-01, 0., 0., 3.12415600e-01, 5.19885719e-01,
          5.65359056e-01, 1.62653118e-01, 0., 0., 9.48980972e-02, 0., 0.,
          5.65359056e-01, 5.65359056e-01, 7.04615593e-01, 0., 0., 0., 0.,
          0., 0., 0., 7.04615593e-01, 5.65966845e-01, 0., 0., 0., 0., 0.,
          1.82736948e-01, 5.65966845e-01, 5.65966845e-01, 3.48902166e-01,
          2.89639652e-01, 3.01901221e-01, 3.01798552e-01, 3.48902166e-01,
          3.48902166e-01, 3.48902166e-01, 3.48902166e-01, 3.48902166e-01,
          4.27760035e-01, 8.92803352e-03, 9.68364924e-02, 5.05473077e-01,
          5.05473077e-01, 3.91739085e-02, 2.37384513e-02, 1.84143037e-01,
          5.05473077e-01, 5.00386477e-01, 2.61672772e-02, 4.32762690e-02,
          8.74403268e-02, 6.98247910e-01, 0., 0., 6.62668468e-03,
          4.94818866e-01, 2.32177049e-01, 2.84895092e-01, 3.78845543e-01,
          3.78845543e-01, 3.78845543e-01, 0., 3.78845543e-01,
          3.78845543e-01, 3.78845543e-01, 3.82164806e-01, 5.47721684e-02,
          3.37661982e-01, 3.82164806e-01, 3.82164806e-01, 5.35428636e-02,
          3.82164806e-01, 3.82164806e-01, 3.82164806e-01, 4.95790809e-01,
          0., 1.52897099e-02, 1.07261941e-01, 4.95790809e-01,
          4.00621956e-03, 7.68831884e-03, 4.95790809e-01, 4.95790809e-01,
          5.72522223e-01, 8.65226835e-02, 4.14267406e-02, 2.79837307e-02,
          5.72522223e-01, 0., 0., 3.08658704e-02, 5.72522223e-01,
          3.71475607e-01, 3.71475607e-01, 3.71475607e-01, 1.34042442e-01,
          3.49419415e-01, 3.71475607e-01, 3.71475607e-01, 1.68114662e-01,
          3.71475607e-01, 0., 0., 3.20550561e-01, 6.67302549e-01,
          6.67302549e-01, 0., 0., 0., 0., 6.25511259e-02, 0.,
          3.18547003e-02, 2.23470390e-01, 9.65190351e-01, 0., 0., 0.,
          6.25511259e-02, 1.05184697e-01, 0., 0., 0., 9.83899117e-01, 0.,
          0., 0., 1.05184697e-01, 4.54979204e-02, 0., 0., 0.,
          6.74639583e-01, 6.74639583e-01, 2.80737698e-01, 5.85751887e-03,
          4.54979204e-02 ]
      - [ 3.98532093e-01, 3.98532093e-01, 3.98532093e-01, 0., 0.,
          2.07489252e-01, 3.98532093e-01, 3.98532093e-01, 3.98532093e-01,
          1.15354285e-01, 0., 0., 0., 0., 4.21991974e-01, 5.17509401e-01,
          5.17509401e-01, 5.17509401e-01, 0., 0., 0., 0., 0., 0., 0., 0.,
          0., 0., 0., 0., 0., 0., 0., 0., 0., 0., 3.77251565e-01,
          3.77251565e-01, 3.77251565e-01, 0., 0., 3.77251565e-01,
          3.77251565e-01, 3.77251565e-01, 3.77251565e-01, 5.76177001e-01,
          0., 0., 0., 0., 2.02230185e-01, 5.07727683e-01, 1.77770495e-01,
          5.76177001e-01, 5.75688422e-01, 5.75688422e-01, 0., 0., 0., 0.,
          0., 0., 5.75688422e-01, 6.26399934e-01, 3.51704210e-01, 0., 0.,
          0., 0., 1.45394892e-01, 2.53291816e-01, 6.26399934e-01,
          3.91936898e-01, 3.39123845e-01, 3.91936898e-01, 6.64023310e-02,
          3.91936898e-01, 2.94651896e-01, 3.91936898e-01, 1.47572830e-01,
          3.91936898e-01, 5.45847237e-01, 0., 0., 0., 5.45847237e-01,
          3.09418023e-01, 6.99132383e-02, 8.60239286e-03, 5.45847237e-01,
          5.62375009e-01, 2.13511482e-01, 0., 0., 5.62375009e-01, 0., 0.,
          0., 5.62375009e-01, 4.51276839e-01, 1.27981648e-01, 0., 0.,
          4.51276839e-01, 1.95075914e-01, 4.51276839e-01, 3.55605602e-01,
          4.51276839e-01, 0., 3.17338929e-02, 1.18593603e-01,
          1.64101437e-01, 8.66635263e-01, 4.40846771e-01, 6.28406033e-02,
          0., 0., 0., 0., 0., 0., 6.97160900e-01, 6.97160900e-01,
          1.44823715e-01, 0., 0., 0., 0., 0., 0., 9.95024860e-01, 0., 0.,
          0., 0., 0., 0., 0., 0., 9.52332318e-01, 2.55932212e-01,
          1.30673245e-01, 3.13971154e-02, 0. ]
      - [ 5.75688422e-01, 5.75688422e-01, 0., 0., 0., 0., 0., 0.,
          5.75688422e-01, 5.75543344e-01, 5.75543344e-01, 0., 0.,
          2.24119890e-02, 0., 0., 0., 5.75543344e-01, 5.32899559e-01,
          3.66106659e-01, 0., 0., 9.32646245e-02, 0., 0., 5.32899559e-01,
          5.32899559e-01, 5.64726055e-01, 0., 0., 0., 0., 0.,
          1.93943903e-01, 5.64726055e-01, 5.64726055e-01, 4.30194288e-01,
          4.30194288e-01, 2.12962702e-01, 1.34423941e-01, 4.30194288e-01,
          4.30194288e-01, 8.33309218e-02, 0., 4.30194288e-01,
          3.76535058e-01, 2.83302814e-01, 3.76535058e-01, 3.76535058e-01,
          3.76535058e-01, 3.15356851e-02, 3.76535058e-01, 2.53596961e-01,
          3.76535058e-01, 2.52800792e-01, 4.61573228e-02, 1.15417570e-01,
          4.29412842e-01, 4.29412842e-01, 0., 4.29412842e-01,
          4.29412842e-01, 4.22810853e-01, 2.98752785e-01, 2.71097064e-01,
          3.72721851e-01, 3.72721851e-01, 3.72721851e-01, 0.,
          3.72721851e-01, 3.72721851e-01, 3.72721851e-01, 0.,
          6.11261427e-02, 2.22973302e-01, 2.77769983e-01, 6.45482600e-01,
          6.45482600e-01, 1.72192782e-01, 0., 0., 4.27219011e-02,
          3.52172911e-01, 5.29505968e-01, 5.29505968e-01, 5.16817212e-01,
          2.62606908e-02, 1.61131620e-01, 9.74305123e-02, 6.97300658e-02,
          4.16748345e-01, 1.21553957e-01, 2.47609496e-01, 4.16748345e-01,
          4.16748345e-01, 0., 2.26616621e-01, 4.16748345e-01,
          4.16748345e-01, 3.59678596e-01, 3.59678596e-01, 3.59678596e-01,
          1.74040318e-01, 3.25315684e-01, 3.59678596e-01, 3.59678596e-01,
          2.89955258e-01, 3.59678596e-01, 0., 0., 0., 0., 0., 0., 0., 0.,
          0., 0., 1.50472686e-01, 5.69114864e-01, 5.69114864e-01,
          5.69114864e-01, 0., 0., 0., 0., 3.89215574e-02, 6.59805723e-03,
          2.63341069e-01, 6.78529441e-01, 6.78529441e-01, 0., 0., 0.,
          3.89215574e-02, 4.41100448e-02, 0., 3.28089818e-02,
          2.30164960e-01, 6.53425753e-01, 6.53425753e-01, 2.85599083e-01,
          5.95895061e-03, 4.41100448e-02 ]
      - [ 4.84343737e-01, 1.63640440e-01, 1.39605567e-01, 0., 0.,
          1.02660619e-01, 4.84343737e-01, 4.84343737e-01, 4.84343737e-01,
          1.36593357e-01, 0., 0., 0., 0., 2.18834475e-01, 5.56147516e-01,
          5.56147516e-01, 5.56147516e-01, 0., 0., 0., 0., 0., 0., 0., 0.,
          0., 0., 0., 0., 0., 0., 0., 0., 0., 0., 2.79155076e-01,
          1.17389455e-01, 3.28868717e-01, 0., 0., 4.46224779e-01,
          4.46224779e-01, 4.46224779e-01, 4.45343167e-01, 4.74274546e-01,
          0., 0., 0., 0., 4.74274546e-01, 4.74274546e-01, 3.09059143e-01,
          4.74274546e-01, 7.04615593e-01, 0., 0., 0., 0., 0., 0., 0.,
          7.04615593e-01, 6.96960628e-01, 0., 0., 0., 0., 0., 0.,
          1.46745503e-01, 6.96960628e-01, 3.76455724e-01, 1.45271882e-01,
          3.76455724e-01, 2.20304713e-01, 3.76455724e-01, 2.76202023e-01,
          3.76455724e-01, 3.76455724e-01, 3.76455724e-01, 5.85090101e-01,
          0., 0., 0., 5.54953694e-01, 2.21267510e-02, 1.31514426e-02,
          2.93363668e-02, 5.85090101e-01, 5.53581119e-01, 0., 0., 0.,
          5.53581119e-01, 2.71329790e-01, 3.86767611e-02, 0.,
          5.53581119e-01, 5.00783682e-01, 0., 0., 0., 5.00783682e-01,
          1.77121326e-01, 3.49231929e-01, 2.98848838e-01, 5.00783682e-01,
          0., 1.11212740e-02, 1.15880892e-01, 5.78882217e-01,
          8.02083910e-01, 0., 0., 0., 0., 0., 0., 0., 0., 9.95024860e-01,
          0., 0., 0., 0., 0., 0., 0., 0., 6.95438445e-01, 6.95438445e-01,
          1.60587862e-01, 0., 0., 0., 0., 0., 0., 8.36335957e-01,
          5.15665293e-01, 1.59570187e-01, 2.86881905e-02, 0. ]
      - [ 0., 0., 0., 0., 0., 0., 0., 0., 0., 5.75688422e-01,
          5.75688422e-01, 0., 0., 0., 0., 0., 0., 5.75688422e-01,
          5.68221986e-01, 5.68221986e-01, 0., 0., 0., 0., 1.52077481e-01,
          5.06924875e-02, 5.68221986e-01, 4.51440096e-01, 4.24615234e-01,
          0., 0., 0., 0., 4.51440096e-01, 4.51440096e-01, 4.51440096e-01,
          5.75688422e-01, 5.75688422e-01, 0., 0., 0., 0., 0., 0.,
          5.75688422e-01, 5.72422862e-01, 5.72422862e-01, 0., 0.,
          1.06208056e-01, 0., 0., 0., 5.72422862e-01, 5.14002502e-01,
          5.14002502e-01, 0., 0., 1.74434893e-02, 0., 4.26344663e-01,
          1.42114863e-01, 5.14002502e-01, 2.93986320e-01, 5.78903556e-02,
          0., 0., 0., 0., 5.49162030e-01, 5.49162030e-01, 5.49162030e-01,
          4.55463797e-01, 4.55463797e-01, 1.14523746e-01, 2.93256752e-02,
          4.55463797e-01, 4.55463797e-01, 2.01149374e-01, 0.,
          3.33503723e-01, 1.73326269e-01, 4.80958521e-01, 4.80958521e-01,
          9.32554826e-02, 4.80958521e-01, 4.80958521e-01, 1.45200267e-01,
          0., 1.00450359e-01, 4.79549496e-03, 2.27303326e-01,
          4.85168129e-01, 4.78383183e-01, 4.85168129e-01, 4.85168129e-01,
          9.17625055e-02, 5.41949365e-03, 0., 2.09787160e-01, 0.,
          2.16825288e-02, 1.52109519e-01, 4.30831343e-01, 4.30831343e-01,
          4.30831343e-01, 4.30831343e-01, 4.30831343e-01, 8.87631532e-03,
          5.41095957e-02, 1.50066569e-01, 2.25010440e-01, 6.19585395e-01,
          6.19585395e-01, 3.87150407e-01, 0., 0., 0., 4.24322575e-01,
          4.48005825e-01, 4.48005825e-01, 4.48005825e-01, 4.48005825e-01,
          1.12421304e-01, 0., 0., 0., 5.08346446e-02, 2.89393753e-01,
          5.43221533e-01, 5.43221533e-01, 5.43221533e-01, 1.51569486e-01,
          0., 0., 0., 0., 7.83502087e-02, 5.41227162e-01, 5.41227162e-01,
          5.41227162e-01, 3.31120074e-01, 5.94899803e-03, 0. ]
      - [ 5.77157617e-01, 6.89543784e-02, 2.43519843e-01, 2.57157922e-01,
          2.60335326e-01, 0., 2.14751825e-01, 2.89716035e-01,
          5.77157617e-01, 5.71713686e-01, 9.15459078e-03, 2.74637714e-02,
          0., 5.71713686e-01, 0., 1.07679956e-01, 3.58933173e-02,
          5.71713686e-01, 5.48524976e-01, 9.58557874e-02, 2.87567377e-01,
          0., 5.48524976e-01, 0., 0., 0., 5.48524976e-01, 4.40026253e-01,
          4.40026253e-01, 1.05535192e-02, 0., 0., 4.40026253e-01,
          4.40026253e-01, 1.65462434e-01, 4.40026253e-01, 3.42586488e-01,
          1.08274095e-01, 4.86062050e-01, 4.86062050e-01, 4.86062050e-01,
          0., 2.20531702e-01, 7.35105723e-02, 3.21324587e-01,
          4.62433010e-01, 1.64850801e-01, 3.54044706e-01, 2.34783277e-01,
          4.62433010e-01, 1.18205726e-01, 3.46620560e-01, 1.09923638e-01,
          4.62433010e-01, 4.28496361e-01, 1.06923185e-01, 3.20769548e-01,
          0., 4.28496361e-01, 4.28496361e-01, 3.27680022e-01,
          1.98955327e-01, 4.28496361e-01, 7.20944852e-02, 5.97327948e-03,
          1.79198403e-02, 0., 5.47001541e-01, 5.47001541e-01,
          5.47001541e-01, 2.88354695e-01, 9.05688554e-02, 4.07103151e-01,
          4.07103151e-01, 4.07103151e-01, 3.94271851e-01, 4.07103151e-01,
          0., 1.03131987e-01, 3.43773291e-02, 4.07103151e-01,
          3.41692895e-01, 2.50107467e-01, 3.41692895e-01, 3.41692895e-01,
          3.41692895e-01, 3.41692895e-01, 3.41692895e-01, 3.41692895e-01,
          3.41692895e-01, 3.81730199e-01, 1.25086099e-01, 3.81730199e-01,
          3.81730199e-01, 3.81730199e-01, 2.34513223e-01, 2.26352945e-01,
          3.81730199e-01, 3.81730199e-01, 4.53978032e-01, 1.17472634e-02,
          3.52417901e-02, 0., 3.48449260e-01, 1.61260039e-01,
          2.29868423e-02, 5.65212250e-01, 5.65212250e-01, 2.91250259e-01,
          5.15673041e-01, 3.17803025e-01, 0., 6.87781453e-01,
          2.50486583e-01, 5.91844209e-02, 7.82625284e-03, 4.51567434e-02,
          4.06205297e-01, 5.81242517e-03, 2.20311601e-02, 3.22274826e-02,
          7.55167186e-01, 5.03884740e-02, 1.13125823e-01, 1.40771642e-01,
          4.69544172e-01, 3.24892133e-01, 6.10646382e-02, 1.94189131e-01,
          7.71347657e-02, 8.12217712e-01, 4.44796681e-03, 6.34036376e-04,
          1.29929215e-01, 4.02929157e-01, 1.37245268e-01, 1.88986247e-03,
          4.60279360e-02, 2.83126026e-01, 5.45720160e-01, 0., 0.,
          5.45720160e-01, 5.45720160e-01 ]
      - [ 4.39157456e-01, 1.34629652e-01, 1.14855766e-01, 0., 0.,
          4.39157456e-01, 4.39157456e-01, 4.39157456e-01, 4.39157456e-01,
          4.07416642e-01, 4.07416642e-01, 0., 0., 0., 4.07416642e-01,
          4.07416642e-01, 4.07416642e-01, 4.07416642e-01, 5.75688422e-01,
          5.75688422e-01, 0., 0., 0., 0., 0., 0., 5.75688422e-01,
          5.30254066e-01, 5.30254066e-01, 0., 0., 0., 6.11418262e-02,
          2.38773301e-01, 3.00741524e-01, 5.30254066e-01, 3.90389383e-01,
          3.90389383e-01, 2.85791457e-01, 0., 0., 3.90389383e-01,
          3.90389383e-01, 3.90389383e-01, 3.90389383e-01, 5.32314539e-01,
          5.32314539e-01, 0., 0., 1.18965432e-01, 2.87023067e-01,
          2.00190872e-01, 8.94214809e-02, 5.32314539e-01, 4.41022605e-01,
          4.41022605e-01, 0., 0., 4.41022605e-01, 4.41022605e-01,
          1.51954055e-01, 0., 4.41022605e-01, 3.00341398e-01,
          1.77889466e-01, 0., 0., 5.73169172e-01, 5.73169172e-01,
          4.11921412e-01, 6.39537275e-02, 2.03990236e-01, 3.94909710e-01,
          3.05474490e-01, 3.94909710e-01, 8.40673223e-02, 3.94909710e-01,
          3.94909710e-01, 2.88912594e-01, 1.80094019e-01, 3.94909710e-01,
          2.31476769e-01, 1.63378552e-01, 0., 0., 6.22100174e-01,
          6.22100174e-01, 3.46529126e-01, 9.43699572e-03, 1.39017791e-01,
          1.01703145e-02, 4.50051669e-03, 0., 0., 6.57109678e-01,
          6.57109678e-01, 3.60102832e-01, 0., 7.46725546e-03, 0., 0., 0.,
          0., 6.76989079e-01, 6.76989079e-01, 2.76790857e-01, 0., 0., 0.,
          1.70193873e-02, 7.08338991e-02, 1.38732746e-01, 6.85376108e-01,
          6.85376108e-01, 1.70654967e-01, 0., 0., 0., 0., 0., 0.,
          6.66113257e-01, 6.66113257e-01, 3.25478405e-01, 0., 0., 0., 0.,
          0., 0., 6.99564517e-01, 6.99564517e-01, 1.19313508e-01, 0., 0.,
          0., 0., 0., 0., 0., 0., 0., 0., 0. ]
      - [ 4.96508926e-01, 4.96508926e-01, 9.19652060e-02, 0.,
          2.23375876e-02, 0., 0., 4.96508926e-01, 4.96508926e-01,
          4.66907769e-01, 0., 0., 0., 1.86525196e-01, 0., 2.79761940e-01,
          5.75842261e-01, 5.75842261e-01, 5.05497098e-01, 5.05497098e-01,
          0., 0., 0., 0., 3.34973752e-01, 3.40825856e-01, 5.05497098e-01,
          5.75688422e-01, 5.75688422e-01, 0., 0., 0., 0., 0., 0.,
          5.75688422e-01, 3.58219892e-01, 3.58219892e-01, 3.58219892e-01,
          8.75639841e-02, 3.58219892e-01, 3.58219892e-01, 3.58219892e-01,
          3.58219892e-01, 3.00837517e-01, 3.77251565e-01, 3.77251565e-01,
          0., 0., 3.77251565e-01, 3.77251565e-01, 3.77251565e-01,
          3.77251565e-01, 3.77251565e-01, 5.59221327e-01, 5.59221327e-01,
          0., 0., 1.72226608e-01, 8.38277787e-02, 1.26824588e-01,
          5.87928817e-02, 5.59221327e-01, 4.52256352e-01, 4.52256352e-01,
          0., 0., 4.52256352e-01, 4.52256352e-01, 1.28872514e-01, 0.,
          4.00913119e-01, 1.90225720e-01, 3.43630791e-01, 4.01945800e-01,
          4.01945800e-01, 4.01945800e-01, 1.99505180e-01, 4.01945800e-01,
          3.15427572e-01, 2.37019628e-01, 4.07693624e-01, 4.07693624e-01,
          2.23196559e-02, 1.88437868e-02, 4.07693624e-01, 4.07693624e-01,
          3.23828340e-01, 2.43184626e-01, 4.07693624e-01, 3.58342290e-01,
          3.15547049e-01, 0., 0., 5.66087246e-01, 5.66087246e-01,
          3.11380297e-01, 0., 1.68821305e-01, 3.47434245e-02,
          1.77780762e-02, 0., 0., 6.57649159e-01, 6.57649159e-01,
          3.55425686e-01, 0., 2.40657218e-02, 2.31244229e-02,
          1.65782601e-01, 5.67386091e-01, 5.67386091e-01, 5.67386091e-01,
          0., 0., 0., 2.31244229e-02, 4.93810661e-02, 4.17445321e-03,
          1.90282390e-02, 4.56337072e-02, 6.92337453e-01, 6.92337453e-01,
          1.64582446e-01, 0., 4.93810661e-02, 0., 0., 0., 0.,
          6.66113257e-01, 6.66113257e-01, 3.25478405e-01, 0., 0., 0., 0.,
          0., 0., 6.99564517e-01, 6.99564517e-01, 1.19313508e-01, 0., 0. ]
      - [ 5.83051682e-01, 5.83051682e-01, 0., 0., 0., 0., 0., 0.,
          5.60606360e-01, 5.75688422e-01, 5.75688422e-01, 0., 0., 0., 0.,
          0., 0., 5.75688422e-01, 5.75688422e-01, 5.75688422e-01, 0., 0.,
          0., 0., 0., 0., 5.75688422e-01, 5.67315280e-01, 1.65361017e-01,
          0., 0., 0., 0., 3.80906239e-02, 5.67315280e-01, 5.67315280e-01,
          5.96645832e-01, 5.96645832e-01, 0., 0., 2.38617249e-02, 0., 0.,
          0., 5.30566335e-01, 5.50308883e-01, 5.50308883e-01, 0., 0.,
          1.15475327e-01, 1.95914477e-01, 1.71249971e-01, 7.02947751e-02,
          5.50308883e-01, 4.43040222e-01, 4.27564651e-01, 1.31320804e-02,
          9.21255276e-02, 4.43040222e-01, 4.43040222e-01, 2.87478805e-01,
          1.17867693e-01, 3.44546914e-01, 3.13838422e-01, 3.60368937e-01,
          3.60368937e-01, 3.60368937e-01, 3.60368937e-01, 4.16956842e-02,
          3.60368937e-01, 3.60368937e-01, 3.42011362e-01, 4.71591771e-01,
          4.71591771e-01, 1.93911597e-01, 3.31371687e-02, 4.71591771e-01,
          4.71591771e-01, 2.47425556e-01, 0., 7.59958178e-02,
          9.38248187e-02, 3.40184122e-01, 4.11144257e-01, 4.11144257e-01,
          4.11144257e-01, 4.11144257e-01, 3.90585482e-01, 1.68069035e-01,
          1.20007284e-01, 3.81655484e-01, 3.81655484e-01, 8.30107257e-02,
          1.05564177e-01, 3.81655484e-01, 3.81655484e-01, 3.22780013e-01,
          3.81655484e-01, 3.81655484e-01, 4.09242630e-01, 4.09242630e-01,
          3.13196093e-01, 1.33552119e-01, 2.49933988e-01, 4.09242630e-01,
          4.09242630e-01, 9.86443684e-02, 3.71305943e-01, 8.35409015e-03,
          6.03672676e-02, 1.69561028e-01, 2.11772248e-01, 6.27681494e-01,
          6.27681494e-01, 3.58402789e-01, 0., 0., 6.13007881e-03,
          3.05363119e-01, 5.02357244e-01, 5.02357244e-01, 5.02357244e-01,
          3.76422048e-01, 5.36571592e-02, 0., 6.13007881e-03,
          6.94782287e-02, 3.28702815e-02, 1.29646733e-01, 2.17726186e-01,
          9.46733952e-01, 1.37541443e-01, 1.96058713e-02, 0.,
          6.94782287e-02, 9.47235804e-03, 0., 0., 0., 6.52779460e-01,
          6.52779460e-01, 3.75581503e-01, 0., 9.47235804e-03 ]
      - [ 5.75688422e-01, 5.75688422e-01, 0., 0., 0., 0., 0., 0.,
          5.75688422e-01, 6.75590217e-01, 3.15676816e-02, 0., 0., 0., 0.,
          0., 2.81806499e-01, 6.75590217e-01, 5.74326396e-01,
          6.86482489e-02, 0., 0., 0., 0., 0., 5.74326396e-01,
          5.74326396e-01, 5.75551331e-01, 5.75551331e-01, 0., 0., 0., 0.,
          0., 2.17904020e-02, 5.75551331e-01, 4.21004117e-01,
          4.21004117e-01, 4.21004117e-01, 0., 4.21004117e-01,
          2.18005180e-01, 3.37274373e-01, 1.02066256e-01, 3.39291394e-01,
          5.13480425e-01, 8.53750706e-02, 2.25080758e-01, 2.46096313e-01,
          5.13480425e-01, 7.66055286e-02, 5.40125445e-02, 2.76741683e-01,
          5.13480425e-01, 5.05456805e-01, 4.15921211e-01, 1.56421810e-01,
          6.70865327e-02, 1.62890643e-01, 0., 0., 5.05456805e-01,
          5.05456805e-01, 5.66181421e-01, 5.66181421e-01, 0., 0.,
          2.23518267e-01, 0., 0., 2.10546136e-01, 5.08854985e-01,
          1.02656540e-02, 3.26450169e-01, 4.31726366e-01, 2.85030812e-01,
          3.03903699e-01, 2.25532323e-01, 4.31726366e-01, 4.31726366e-01,
          3.24629694e-01, 0., 4.09634262e-01, 4.09891337e-01,
          4.09891337e-01, 4.09891337e-01, 8.19858313e-02, 4.09891337e-01,
          3.67985636e-01, 1.18009858e-01, 1.03789732e-01, 3.14554930e-01,
          4.62249994e-01, 4.62249994e-01, 3.97665799e-01, 4.62249994e-01,
          2.50822723e-01, 7.66041279e-02, 1.33125141e-01, 7.47809634e-02,
          4.31453079e-01, 4.37773138e-01, 4.37773138e-01, 4.37773138e-01,
          4.37773138e-01, 1.85763419e-01, 1.12998607e-02, 5.16350642e-02,
          0., 3.93915661e-02, 3.74451995e-01, 4.36205357e-01,
          4.36205357e-01, 4.04250234e-01, 4.36205357e-01, 3.41425240e-01,
          5.53353690e-02, 0., 8.52684751e-02, 3.68149549e-01,
          4.24845040e-01, 4.24845040e-01, 3.58565211e-01, 4.24845040e-01,
          4.24845040e-01, 4.90818173e-02, 0., 3.07474043e-02,
          2.50446230e-01, 5.40748179e-01, 5.40748179e-01, 5.40748179e-01,
          2.31744245e-01, 0., 0., 0., 3.95622671e-01, 4.75519508e-01,
          4.75519508e-01, 4.75519508e-01, 3.96462977e-01, 5.65138981e-02,
          0., 0. ]
      - [ 4.46215838e-01, 4.46215838e-01, 0., 0., 0., 0., 4.46215838e-01,
          4.46215838e-01, 4.46215838e-01, 1.77920982e-01, 0., 0., 0., 0.,
          0., 6.35772169e-01, 6.35772169e-01, 3.91897887e-01,
          7.04615593e-01, 0., 0., 0., 0., 0., 0., 0., 7.04615593e-01,
          5.75688422e-01, 5.75688422e-01, 0., 0., 0., 0., 0., 0.,
          5.75688422e-01, 3.70807737e-01, 1.66456044e-01, 0., 0., 0.,
          4.71849293e-01, 4.71849293e-01, 4.71849293e-01, 4.02685761e-01,
          4.99243885e-01, 4.99243885e-01, 0., 0., 0., 1.29884407e-01,
          4.48530167e-01, 1.70970991e-01, 4.99243885e-01, 5.75543344e-01,
          5.75543344e-01, 0., 0., 2.24119890e-02, 0., 0., 0.,
          5.75543344e-01, 5.38600504e-01, 5.38600504e-01, 0., 0.,
          3.52632433e-01, 0., 0., 0., 5.38600504e-01, 3.97459626e-01,
          2.19509408e-01, 0., 0., 3.97459626e-01, 3.97459626e-01,
          3.97459626e-01, 3.97459626e-01, 3.97459626e-01, 4.42879438e-01,
          4.42879438e-01, 0., 0., 4.42879438e-01, 4.42879438e-01,
          1.19115740e-01, 2.60117203e-02, 4.42879438e-01, 3.82546484e-01,
          1.42767608e-01, 0., 0., 5.86595714e-01, 5.86595714e-01,
          2.26141021e-01, 0., 2.96798706e-01, 7.98927024e-02,
          2.90596765e-02, 0., 0., 6.93909109e-01, 6.93909109e-01,
          1.37576282e-01, 0., 6.24391362e-02, 0., 0., 0., 0.,
          6.95438445e-01, 6.95438445e-01, 1.60587862e-01, 0., 0., 0., 0.,
          0., 0., 6.92017615e-01, 6.92017615e-01, 1.87923208e-01, 0., 0.,
          0., 0., 0., 0., 6.84783220e-01, 6.84783220e-01, 2.35176146e-01,
          0., 0., 0., 0., 0., 0., 6.95064783e-01, 6.95064783e-01,
          1.63803086e-01, 0., 0. ]
      - [ 5.65997779e-01, 0., 0., 0., 0., 1.11265242e-01, 1.44594371e-01,
          5.65997779e-01, 5.65997779e-01, 0., 0., 0., 0., 0.,
          2.47403428e-01, 5.57740092e-01, 5.57740092e-01, 5.57740092e-01,
          0., 0., 0., 0., 0., 0., 0., 0., 0., 0., 0., 0., 0., 0., 0., 0.,
          0., 0., 2.79927254e-01, 0., 0., 0., 0., 4.78763729e-01,
          4.78763729e-01, 4.78763729e-01, 4.78763729e-01, 4.56549078e-01,
          0., 0., 0., 0., 4.56549078e-01, 4.56549078e-01, 4.02108788e-01,
          4.56549078e-01, 5.75688422e-01, 5.75688422e-01, 0., 0., 0., 0.,
          0., 0., 5.75688422e-01, 6.99108303e-01, 1.24565274e-01, 0., 0.,
          0., 0., 0., 0., 6.99108303e-01, 4.08192873e-01, 0., 0., 0.,
          4.08192873e-01, 4.03503537e-01, 4.08192873e-01, 4.08192873e-01,
          4.08192873e-01, 5.58302462e-01, 0., 0., 0., 5.58302462e-01,
          2.39939705e-01, 3.42022553e-02, 2.40638871e-02, 5.58302462e-01,
          4.99056429e-01, 4.91875470e-01, 0., 0., 4.99056429e-01,
          7.60561675e-02, 1.08414413e-02, 0., 4.99056429e-01,
          5.71477234e-01, 1.20559871e-01, 0., 0., 5.71477234e-01, 0., 0.,
          0., 5.71477234e-01, 0., 0., 0., 0., 9.85455692e-01,
          1.36628479e-01, 1.94757357e-02, 0., 0., 0., 0., 0., 0.,
          6.99590325e-01, 6.99590325e-01, 1.19009234e-01, 0., 0., 0., 0.,
          0., 0., 8.82800400e-01, 4.55670625e-01, 6.49536625e-02, 0., 0.,
          0., 0., 0., 0., 9.95024860e-01, 0., 0., 0., 0. ]
      - [ 5.75688422e-01, 5.75688422e-01, 0., 0., 0., 0., 0., 0.,
          5.75688422e-01, 5.75552285e-01, 5.75552285e-01, 0., 0.,
          2.17142217e-02, 0., 0., 0., 5.75552285e-01, 6.09155357e-01,
          1.62186906e-01, 0., 0., 3.46290946e-01, 0., 0., 3.24892431e-01,
          6.09155357e-01, 5.72690427e-01, 0., 0., 0., 1.01775028e-01, 0.,
          0., 5.72690427e-01, 5.72690427e-01, 4.29843813e-01,
          4.29843813e-01, 2.28268474e-01, 7.50267878e-02, 4.29843813e-01,
          4.29843813e-01, 1.18920483e-01, 0., 4.29843813e-01,
          3.13873231e-01, 3.04620057e-01, 3.70501667e-01, 3.70501667e-01,
          3.70501667e-01, 3.70501667e-01, 3.70501667e-01, 2.10451096e-01,
          2.72656381e-01, 3.75052333e-01, 4.59590144e-02, 8.33857059e-02,
          3.77736866e-01, 3.89882475e-01, 3.89882475e-01, 3.89882475e-01,
          3.09284359e-01, 3.89882475e-01, 3.29741836e-01, 2.96063334e-01,
          3.65141243e-01, 3.65141243e-01, 3.65141243e-01, 0.,
          3.65141243e-01, 3.65141243e-01, 3.65141243e-01, 0.,
          4.62658256e-02, 1.61702320e-01, 1.60684213e-01, 6.70448720e-01,
          6.70448720e-01, 2.00490028e-01, 0., 0., 4.32808064e-02,
          4.83365983e-01, 4.83365983e-01, 4.83365983e-01, 4.83365983e-01,
          1.14465401e-01, 1.75763801e-01, 9.87051427e-02, 7.06423000e-02,
          4.24534231e-01, 1.22383654e-01, 3.32289189e-01, 4.24534231e-01,
          4.24534231e-01, 4.46397290e-02, 2.53315091e-01, 2.88594633e-01,
          4.24534231e-01, 3.54011327e-01, 3.54011327e-01, 3.54011327e-01,
          3.54011327e-01, 2.88977981e-01, 3.54011327e-01, 3.54011327e-01,
          1.88909113e-01, 3.54011327e-01, 0., 0., 0., 0., 0., 0., 0., 0.,
          0., 0., 2.46976718e-01, 5.57802916e-01, 5.57802916e-01,
          5.57802916e-01, 0., 0., 0., 0., 0., 8.92381370e-03,
          2.16210440e-01, 6.87861443e-01, 6.87861443e-01, 0., 0., 0., 0.,
          0., 0., 1.41120091e-01, 5.46812356e-01, 5.46812356e-01,
          5.46812356e-01, 2.78530777e-01, 5.81147242e-03, 0. ]
      - [ 5.74499190e-01, 5.74499190e-01, 6.41512126e-02, 0., 0., 0., 0.,
          0., 5.74499190e-01, 7.04615593e-01, 0., 0., 0., 0., 0., 0., 0.,
          7.04615593e-01, 7.00361669e-01, 0., 0., 0., 0., 0., 0.,
          1.09525405e-01, 7.00361669e-01, 4.98753130e-01, 0., 0., 0., 0.,
          0., 4.98753130e-01, 4.98753130e-01, 4.98753130e-01,
          1.71655744e-01, 1.54730722e-01, 1.93277091e-01, 1.94095254e-01,
          9.21872735e-01, 0., 0., 0., 1.11878455e-01, 1.02696471e-01,
          2.62275815e-01, 5.49130976e-01, 5.49130976e-01, 5.49130976e-01,
          0., 0., 0., 1.02696471e-01, 4.28399622e-01, 4.28399622e-01,
          4.28399622e-01, 3.48922342e-01, 3.68571758e-01, 0., 0.,
          6.34338334e-02, 4.28399622e-01, 1.25872806e-01, 0., 0., 0., 0.,
          0., 6.42858386e-01, 6.42858386e-01, 3.88849705e-01, 0., 0.,
          1.26290107e-02, 8.85963440e-02, 9.91012394e-01, 0., 0., 0., 0.,
          0., 4.98753130e-01, 4.98753130e-01, 4.98753130e-01,
          4.98753130e-01, 0., 0., 0., 0., 0., 1.57132626e-01,
          5.68218470e-01, 5.68218470e-01, 5.68218470e-01, 3.15952897e-02,
          4.50375723e-03, 0., 0., 3.36065620e-01, 5.18063977e-02,
          1.90704405e-01, 2.47536525e-01, 3.95671755e-01, 3.95671755e-01,
          3.95671755e-01, 3.95671755e-01, 3.95671755e-01, 0., 0., 0., 0.,
          0., 0., 0., 0., 0., 0., 1.35774985e-01, 5.35341322e-01,
          5.86989582e-01, 5.86989582e-01, 0., 0., 0., 0., 0.,
          2.45389014e-01, 5.41988671e-01, 5.41988671e-01, 5.41988671e-01,
          2.28163913e-01, 3.25236693e-02, 0., 0., 0., 7.59888142e-02,
          2.95041651e-01, 4.70552981e-01, 5.49489856e-01, 5.49489856e-01,
          2.75496632e-01, 2.21851319e-02, 0. ]
      - [ 4.39018458e-01, 4.39018458e-01, 1.53816387e-01, 0., 0.,
          9.09351632e-02, 4.39018458e-01, 4.39018458e-01, 4.39018458e-01,
          3.77689868e-01, 1.94796011e-01, 0., 0., 0., 1.06220178e-01,
          5.28363526e-01, 5.28363526e-01, 4.94479150e-01, 5.75688422e-01,
          5.75688422e-01, 0., 0., 0., 0., 0., 0., 5.75688422e-01,
          5.52013636e-01, 5.52013636e-01, 0., 0., 0., 0., 1.41098917e-01,
          2.45807812e-01, 5.52013636e-01, 4.03745204e-01, 3.40724707e-01,
          2.73900449e-01, 0., 0., 4.12470728e-01, 4.12470728e-01,
          4.12470728e-01, 3.62433851e-01, 4.37687963e-01, 4.37687963e-01,
          0., 0., 0., 4.37687963e-01, 4.37687963e-01, 1.94355667e-01,
          4.37687963e-01, 5.51757753e-01, 5.51757753e-01, 1.50574837e-02,
          0., 3.50514799e-01, 3.54715794e-01, 5.05630411e-02, 0.,
          3.66264343e-01, 3.63846868e-01, 3.63846868e-01, 3.63846868e-01,
          0., 3.63846868e-01, 2.63956636e-01, 3.63846868e-01,
          3.63846868e-01, 3.63846868e-01, 3.71575654e-01, 1.02653064e-01,
          3.31765503e-01, 3.71575654e-01, 3.71575654e-01, 3.32611352e-01,
          3.15878600e-01, 3.36152285e-01, 3.71575654e-01, 4.35876340e-01,
          4.35876340e-01, 5.83734689e-03, 4.09507565e-02, 4.35876340e-01,
          4.35876340e-01, 2.08786160e-01, 2.00620536e-02, 4.35876340e-01,
          1.26100779e-01, 2.25113407e-01, 2.25995123e-01, 0.,
          6.01747692e-01, 6.01747692e-01, 3.88373345e-01, 0.,
          3.61402705e-02, 0., 4.35503453e-01, 4.35503453e-01,
          2.16855198e-01, 4.35503453e-01, 4.08134758e-01, 4.35503453e-01,
          1.52959272e-01, 0., 0., 0., 3.03109676e-01, 5.77484548e-01,
          5.77484548e-01, 4.80305970e-01, 6.84653223e-02, 0., 0., 0., 0.,
          4.00712118e-02, 2.81111687e-01, 6.28206253e-01, 6.28206253e-01,
          3.51869315e-01, 0., 0., 0., 1.50972590e-01, 4.52917784e-01, 0.,
          5.74673951e-01, 5.74673951e-01, 3.25321555e-01, 0., 0., 0.,
          2.58421451e-01, 5.23603618e-01, 5.23603618e-01, 5.23603618e-01,
          2.88830876e-01, 1.44555047e-01, 3.44611965e-02, 0. ]
      - [ 4.98753130e-01, 0., 0., 0., 0., 0., 4.98753130e-01,
          4.98753130e-01, 4.98753130e-01, 3.68856341e-01, 6.13334961e-02,
          0., 0., 0., 0., 5.33807814e-01, 5.33807814e-01, 5.33807814e-01,
          5.75688422e-01, 5.75688422e-01, 0., 0., 0., 0., 0., 0.,
          5.75688422e-01, 5.75688422e-01, 5.75688422e-01, 0., 0., 0., 0.,
          0., 0., 5.75688422e-01, 2.08290875e-01, 4.06328700e-02, 0., 0.,
          4.39340323e-01, 4.39340323e-01, 4.39340323e-01, 4.39340323e-01,
          4.22487646e-01, 4.55940634e-01, 4.55940634e-01, 0., 0.,
          1.45906970e-01, 1.63305938e-01, 4.55940634e-01, 3.40530127e-01,
          4.55940634e-01, 5.41388273e-01, 5.41388273e-01, 0., 0.,
          1.85490757e-01, 3.47359836e-01, 4.95144762e-02, 0.,
          5.00873029e-01, 4.82252210e-01, 4.28365320e-01, 0., 0.,
          4.82252210e-01, 4.82252210e-01, 8.20207670e-02, 0.,
          3.27501774e-01, 4.59554583e-01, 6.97997510e-02, 2.65164170e-02,
          1.86020702e-01, 4.59554583e-01, 1.42048806e-01, 3.00485134e-01,
          4.59554583e-01, 4.59554583e-01, 4.35835034e-01, 4.35835034e-01,
          1.63153256e-03, 1.14456946e-02, 4.35835034e-01, 4.35835034e-01,
          1.91266447e-01, 9.57548022e-02, 4.35835034e-01, 1.01710528e-01,
          1.06899798e-01, 0., 0., 6.32532239e-01, 6.32532239e-01,
          4.12688106e-01, 0., 3.75053547e-02, 0., 0., 0., 0.,
          6.74318910e-01, 6.74318910e-01, 2.89579421e-01, 0., 0., 0., 0.,
          1.01031229e-01, 6.63988411e-01, 6.63988411e-01, 3.15250933e-01,
          4.49375175e-02, 0., 0., 0., 0., 1.10347113e-02, 7.74118379e-02,
          6.81688488e-01, 6.81688488e-01, 2.40171045e-01, 0., 0., 0., 0.,
          0., 0., 6.53022468e-01, 6.53022468e-01, 3.74971718e-01, 0., 0.,
          0., 0., 0., 0., 8.96035969e-01, 4.29455131e-01, 6.12167753e-02,
          0., 0. ]
      - [ 4.46765959e-01, 4.21282917e-01, 1.40210077e-01, 0., 0., 0.,
          4.46765959e-01, 4.46765959e-01, 4.46765959e-01, 4.89133656e-01,
          4.89133656e-01, 0., 0., 0., 0., 2.46025965e-01, 4.65650856e-01,
          4.89133656e-01, 4.06774342e-01, 4.06774342e-01, 4.06774342e-01,
          5.60726039e-02, 0., 0., 4.06774342e-01, 4.06774342e-01,
          4.06774342e-01, 4.07111853e-01, 4.07111853e-01, 4.07111853e-01,
          1.00720227e-01, 0., 0., 3.96343440e-01, 4.07111853e-01,
          4.07111853e-01, 4.20424998e-01, 4.20424998e-01, 3.26362610e-01,
          0., 5.62159978e-02, 4.83905300e-02, 4.20424998e-01,
          4.20424998e-01, 4.20424998e-01, 4.06268567e-01, 4.06268567e-01,
          2.26214547e-02, 1.58696368e-01, 3.71504456e-01, 8.34203362e-02,
          4.06268567e-01, 4.06268567e-01, 4.06268567e-01, 4.37405169e-01,
          1.93176642e-01, 3.72253388e-01, 2.33340621e-01, 0., 0.,
          4.37405169e-01, 4.37405169e-01, 4.37405169e-01, 3.83371890e-01,
          3.83371890e-01, 3.83371890e-01, 3.83371890e-01, 0., 0.,
          3.83371890e-01, 3.38121265e-01, 3.83371890e-01, 1.15876615e-01,
          1.58073083e-01, 3.86417389e-01, 7.88609609e-02, 4.98636663e-01,
          5.94365120e-01, 4.34584260e-01, 1.07785854e-02, 9.60478336e-02,
          3.69455852e-02, 1.98331445e-01, 4.78163779e-01, 4.78163779e-01,
          4.78163779e-01, 4.78163779e-01, 1.90852761e-01, 3.99309583e-02,
          4.40702327e-02, 4.63924259e-01, 8.94162878e-02, 2.67401844e-01,
          4.63924259e-01, 4.63924259e-01, 0., 1.38430893e-01,
          1.89211637e-01, 4.63924259e-01, 4.41902936e-01, 1.76276654e-01,
          1.67409733e-01, 5.89005128e-02, 4.41902936e-01, 4.41902936e-01,
          4.41902936e-01, 1.27555266e-01, 3.68285269e-01, 0.,
          2.34217662e-02, 9.74802971e-02, 1.90921441e-01, 6.47880495e-01,
          6.47880495e-01, 3.27919841e-01, 0., 0., 0., 1.35581002e-01,
          5.19551456e-01, 5.19551456e-01, 5.19551456e-01, 4.04115766e-01,
          5.76047674e-02, 0., 0., 0., 8.07417370e-03, 9.27164853e-02,
          4.80505854e-01, 8.67064416e-01, 0., 0., 0., 0., 0., 0., 0., 0.,
          6.89716101e-01, 6.89716101e-01, 2.04201624e-01, 0., 0. ]
      - [ 4.73368138e-01, 4.73368138e-01, 3.14582825e-01, 0., 0., 0., 0.,
          4.73368138e-01, 4.73368138e-01, 5.74955881e-01, 5.03598638e-02,
          0., 0., 0., 0., 0., 5.74955881e-01, 5.74955881e-01,
          5.75688422e-01, 0., 0., 0., 0., 0., 0., 5.75688422e-01,
          5.75688422e-01, 6.38554096e-01, 0., 0., 0., 0., 0., 0.,
          4.22044873e-01, 6.38554096e-01, 3.85016739e-01, 3.85016739e-01,
          3.81977946e-01, 1.50489613e-01, 3.85016739e-01, 0.,
          3.85016739e-01, 3.85016739e-01, 2.93955266e-01, 3.89752805e-01,
          3.22879967e-03, 1.54946178e-01, 4.42467928e-01, 4.42467928e-01,
          0., 1.91161320e-01, 4.42467928e-01, 4.42467928e-01,
          5.41491330e-01, 0., 3.99767980e-02, 2.80449361e-01,
          1.86290026e-01, 0., 0., 5.41491330e-01, 5.41491330e-01,
          5.75688422e-01, 0., 0., 0., 0., 0., 0., 5.75688422e-01,
          5.75688422e-01, 2.16312632e-02, 5.83151169e-02, 1.76689535e-01,
          3.47095728e-01, 4.29147542e-01, 4.29147542e-01, 4.29147542e-01,
          4.29147542e-01, 3.21682513e-01, 0., 0., 1.66687950e-01,
          4.33809340e-01, 4.33809340e-01, 4.20537919e-01, 4.33809340e-01,
          4.33809340e-01, 1.95620850e-01, 5.42740114e-02, 0.,
          4.06313837e-01, 6.37120485e-01, 6.37120485e-01, 0., 0.,
          6.83444962e-02, 9.53225270e-02, 4.37600195e-01, 0.,
          1.95343882e-01, 4.37600195e-01, 4.37600195e-01, 0., 0.,
          4.37600195e-01, 4.37600195e-01, 0., 7.55202398e-03,
          1.47230834e-01, 4.89699572e-01, 4.89699572e-01, 4.89699572e-01,
          4.89699572e-01, 1.18963666e-01, 0., 0., 0., 5.49753755e-03,
          3.85668911e-02, 5.13476312e-01, 5.13476312e-01, 5.13476312e-01,
          4.49867159e-01, 0., 0., 0., 3.32525849e-01, 6.64377153e-01,
          6.64377153e-01, 0., 0., 0., 0., 0., 0., 3.80919725e-01,
          6.51305616e-01, 6.51305616e-01, 0., 0., 0., 0. ]
      - [ 5.75502992e-01, 5.75502992e-01, 2.53428109e-02, 0., 0., 0., 0.,
          0., 5.75502992e-01, 6.73290670e-01, 3.70722078e-02, 0., 0., 0.,
          0., 0., 2.91998893e-01, 6.73290670e-01, 5.09537339e-01, 0., 0.,
          0., 0., 0., 4.64786261e-01, 5.09537339e-01, 5.09537339e-01,
          4.83843178e-01, 4.83843178e-01, 4.83843178e-01, 0., 0., 0.,
          2.09081501e-01, 1.22619212e-01, 4.83843178e-01, 3.84430140e-01,
          3.84430140e-01, 3.84430140e-01, 0., 3.84430140e-01,
          3.84430140e-01, 3.84430140e-01, 2.49375567e-01, 2.17375129e-01,
          3.47117394e-01, 6.43261820e-02, 1.50315225e-01, 5.78343987e-01,
          5.78343987e-01, 1.55820921e-01, 3.61760296e-02, 1.02340236e-01,
          3.76797169e-01, 2.34416798e-01, 1.00542255e-01, 2.46447504e-01,
          4.39557284e-01, 1.65583387e-01, 0., 4.75464076e-01,
          4.75464076e-01, 4.43501949e-01, 3.98810655e-01, 5.26756346e-01,
          5.26756346e-01, 0., 0., 0., 4.22448605e-01, 1.80101633e-01,
          2.64282912e-01, 0., 2.40884095e-01, 4.08719271e-01,
          4.08719271e-01, 1.13282122e-01, 2.99669385e-01, 4.08719271e-01,
          4.08719271e-01, 4.08719271e-01, 2.62164563e-01, 3.85775089e-01,
          3.85775089e-01, 3.85775089e-01, 3.85775089e-01, 8.93815681e-02,
          3.85775089e-01, 3.85775089e-01, 1.62763536e-01, 3.65018159e-01,
          3.65018159e-01, 3.65018159e-01, 3.15669805e-01, 3.11891407e-01,
          0., 3.65018159e-01, 3.65018159e-01, 3.65018159e-01,
          4.36690331e-01, 4.36690331e-01, 4.36690331e-01, 0.,
          4.36690331e-01, 0., 1.40999153e-01, 1.49214476e-01,
          4.36690331e-01, 0., 1.71656162e-02, 3.09377104e-01,
          4.60258305e-01, 4.60258305e-01, 4.60258305e-01, 4.60258305e-01,
          2.27331668e-01, 1.90645736e-02, 1.82570089e-02, 4.14244890e-01,
          4.14244890e-01, 4.14244890e-01, 4.14244890e-01, 2.47722596e-01,
          4.14244890e-01, 2.75812089e-01, 9.77228209e-03, 4.78631482e-02,
          1.44720912e-01, 4.15364146e-01, 3.44953358e-01, 8.22111309e-01,
          0., 0., 0., 3.42552736e-02, 6.78298250e-02, 0., 0., 0.,
          9.90413308e-01, 0., 0., 0., 6.78298250e-02 ]
      - [ 4.04663771e-01, 4.04663771e-01, 1.15935236e-01, 0., 0.,
          4.04663771e-01, 4.04663771e-01, 4.04663771e-01, 4.04663771e-01,
          4.38801855e-01, 1.81332439e-01, 0., 0., 0., 4.38801855e-01,
          4.38801855e-01, 4.38801855e-01, 4.38801855e-01, 5.75688422e-01,
          5.75688422e-01, 0., 0., 0., 0., 0., 0., 5.75688422e-01,
          5.29527962e-01, 5.29527962e-01, 0., 0., 0., 6.16082847e-02,
          2.40594938e-01, 3.03035915e-01, 5.29527962e-01, 3.90249461e-01,
          3.90249461e-01, 2.86938250e-01, 0., 0., 3.90249461e-01,
          3.90249461e-01, 3.90249461e-01, 3.90249461e-01, 5.43058693e-01,
          5.43058693e-01, 0., 0., 4.55764830e-02, 2.42628112e-01,
          2.00531960e-01, 9.31658149e-02, 5.43058693e-01, 4.44002450e-01,
          4.44002450e-01, 0., 0., 4.44002450e-01, 4.44002450e-01,
          9.93682966e-02, 0., 4.44002450e-01, 3.58766556e-01,
          2.92619616e-01, 0., 0., 5.23500681e-01, 5.23500681e-01,
          4.37672168e-01, 5.98631538e-02, 1.92836255e-01, 3.79853576e-01,
          3.59044611e-01, 3.79853576e-01, 1.42082900e-01, 3.79853576e-01,
          3.79853576e-01, 2.84348309e-01, 2.11676553e-01, 3.79853576e-01,
          2.62710482e-01, 1.77761659e-01, 0., 0., 6.14001930e-01,
          6.14001930e-01, 3.35962892e-01, 1.02677858e-02, 1.62111834e-01,
          2.24283915e-02, 3.78653174e-03, 0., 0., 6.55906379e-01,
          6.55906379e-01, 3.63458097e-01, 0., 2.01541614e-02, 0., 0., 0.,
          0., 6.62431002e-01, 6.62431002e-01, 3.40230763e-01, 0., 0., 0.,
          1.45294555e-02, 8.88139457e-02, 3.17271143e-01, 6.50346756e-01,
          6.50346756e-01, 1.97092384e-01, 0., 0., 0., 0., 0., 0.,
          6.67486250e-01, 6.67486250e-01, 3.19782108e-01, 0., 0., 0., 0.,
          0., 0., 6.88545048e-01, 6.88545048e-01, 2.11985648e-01, 0., 0.,
          0., 0., 0., 0., 0., 0., 0., 0., 0. ]
      - [ 6.95780694e-01, 1.36668861e-01, 7.84508064e-02, 0., 0., 0., 0.,
          0., 6.95780694e-01, 6.99550092e-01, 1.16680555e-01, 0., 0.,
          2.57240422e-02, 0., 0., 0., 6.99550092e-01, 4.81222212e-01,
          4.81222212e-01, 0., 0., 2.58271813e-01, 0., 4.67978567e-02,
          4.81222212e-01, 4.81222212e-01, 4.97158736e-01, 6.02949373e-02,
          0., 0., 5.22673577e-02, 0., 4.97158736e-01, 4.97158736e-01,
          4.97158736e-01, 3.74097735e-01, 7.72526339e-02, 1.69309244e-01,
          1.70025945e-01, 8.13097954e-01, 0., 0., 0., 3.56743038e-01,
          3.27429563e-01, 2.05933586e-01, 4.48254108e-01, 4.40670729e-01,
          4.48254108e-01, 1.12232588e-01, 2.90045798e-01, 1.52622536e-01,
          3.60323906e-01, 3.35026026e-01, 3.14186275e-01, 3.35026026e-01,
          3.35026026e-01, 3.35026026e-01, 3.35026026e-01, 3.35026026e-01,
          3.35026026e-01, 3.35026026e-01, 2.56323963e-01, 1.79868579e-01,
          3.32894921e-01, 1.32966042e-01, 1.63773343e-01, 0.,
          5.23678601e-01, 5.23678601e-01, 4.39222306e-01, 0., 0.,
          1.26290107e-02, 8.85963440e-02, 9.91012394e-01, 0., 0., 0., 0.,
          3.08664422e-02, 4.96334940e-01, 4.96334940e-01, 4.96334940e-01,
          4.96334940e-01, 1.18036317e-02, 6.58963621e-02, 4.61082309e-02,
          4.57037315e-02, 4.25987333e-01, 2.16829896e-01, 4.25987333e-01,
          4.25987333e-01, 4.25987333e-01, 6.84155524e-02, 1.35481641e-01,
          1.35526001e-01, 4.25987333e-01, 3.93216223e-01, 8.92487019e-02,
          2.07132414e-01, 1.55136526e-01, 3.93216223e-01, 3.84760171e-01,
          3.93216223e-01, 3.93216223e-01, 3.93216223e-01, 0., 0., 0., 0.,
          0., 0., 0., 0., 0., 0., 1.17859028e-01, 5.71664512e-01,
          5.71664512e-01, 5.71664512e-01, 0., 0., 0., 0., 0.,
          2.23266587e-01, 5.47938287e-01, 5.47938287e-01, 5.47938287e-01,
